 [[-0.36846283328550317 -0.09999999999999998 -0.3 -0.3 0.3999793620552592 0.19991286201109498 0.49990689588668774 -1.2520077327535494E-4 0.3998830953023026 -1.23900908431011E-4 -0.40000418919449426 0.19951799657008884 -0.30023887679869105 -0.4994266906996606 -0.0997789239385024 -0.29997909140657925 0.4 -0.4 0.30000000000000004 0.30000000000000004 -0.2 -0.5 -0.5 0.4 0.19986322070922763 -0.10099826514401355 0.002595120525150379 -0.1944190042388776 -0.19696567041741525 -0.30134994991762937 -0.39840292535590405 0.41040446878553616 -0.19261955188224045 0.4245489101358561 -0.1875840050501611 0.20690133353391318 -0.4963655306873996 0.301707802542158 0.10001606170500654 0.5 -0.2 0.4 0.4 0.5 -0.4999369095353779 -0.10381739976942256 -0.49972646100767343 -0.08959319628535357 -0.3132922886451923 -0.22405211954400783 0.08886539243869761 -0.018828575016169732 -0.2005996214749811 0.5337742457623154 -0.05606438888485041 0.33404442989320526 0.516066936015826 -0.49273807277881077 -0.09865554045538034 -0.29961947038553094 -0.2999966715425221 0.4000983927885406 0.30021084168972967 -0.4997588544141339 -0.09316871708784533 0.3981167870993553 0.48222923308850796 -0.21996404138306264 0.32633177787172873 -0.14143770946914824 -0.35286009814149655 0.2752865155438126 0.297560906603272 -0.4629650047670341 -0.6933200364986521 -0.22433774263297995 -0.5742348157908285 -0.5400593268198675 -0.3102558197928644 -0.30037891938470046 5.872949510748184E-4 -0.49995783166205415 -0.39912996688174146 0.5050561097685502 0.5009567206984539 -0.5158032619423456 0.34367730421791853 0.0500732641904642 -0.07511418649524144 0.15347760025973728 0.117333483871165 -0.11112629925175266 -0.3580081396290837 -0.043524525168710956 -0.03506190325591902 -0.056535107650597834 -0.3314302146956853 -0.3613567382040524 0.09150330794393655 -0.30293475845834883 0.3994126192685776 -0.401310457375663 0.1991933849373055 0.5190190740040003 0.21739634305241923 0.06274601899912167 -0.1460462940078342 -0.3618631096009521 -0.3911892899618048 -0.11825377721719939 0.19376767834925165 -0.09276651568324142 0.18569178156379934 0.24355934174640614 0.6268460693754158 -0.18926689615914155 0.12748651540094258 -0.5333531694245988 -0.30569699446417614 -0.5095374146014906 0.09936636110015942 0.19771032992538123 -0.40191084781203473 0.4227643732717116 0.29452794658324993 0.40884326190342557 0.01680564208026015 0.34937708806519274 0.24885176762224623 -0.0024411102317865915 -0.30331294587260377 -0.28911386832267383 -0.062151183396161276 -0.07774930954283832 0.13245683171953987 -0.47330330619145405 0.34606291311351606 0.517918806789262 -0.08437464079270508 -0.21188072490697343 -0.20507659807748577 0.2995639822209149 -0.19372455206850817 0.10177856524741816 -0.2663584128617847 -0.46523251067941185 -0.1886358270266637 0.4081607004367504 0.18918426951237008 -0.27587543389336583 0.05582623631629716 -0.024926388342939344 0.29610035273686536 0.2140101588099389 -0.06268358448480787 0.20904085828305385 -0.3021744654479581 0.05482923362981681 0.43963110578478687 0.36801108494755236 0.48405302744208883 -0.10020525215122546 -0.49269637600872923 -0.20226181749363145 -0.28050419071163607 0.24918907892975017 0.413113053847826 -0.04053138609903721 0.7218661606349347 0.4903462578203922 0.30711659697981847 0.10340789016927336 -0.18412960909257722 0.2580348570164516 -0.051856296726207965 -0.3094454094416282 0.4300352889008013 -0.07040958427552543 0.05778291621398519 0.272325675938947 -0.30702319071574413 -0.2001151391061797 0.0038005850756675876 -0.5065238807978284 0.2229899570486328 -0.19157422874012037 -0.13319971272496917 0.09182908846389828 0.1314133112047047 0.15360858297068927 0.13543355338179802 -0.5202701892041626 -0.11804399729174675 0.14761234410245397 0.34301179023136324 -0.4732412988834503 -0.5410242148750801 -0.32140890050035553 -0.23179448743452588 -0.31059422475323667 0.4999953756999344 0 0.20287616467717115 0.400033159092015 0.14644747625120652 0.16971435765169446 -0.16237364462044923 -0.5674940487248489 0.06126363104215678 -0.3504877367792476 0.1692643880298115 -0.38589311916376845 0.20776829136001715 -0.14164105101800872 0.284396429025643 -0.2671608826638879 -0.3319430838542316 0.2525254467705036 0.27631869483454535 0.1766985090420667 -0.0021072070463720176 0.39999960808775786 0.20467217045312308 0.5094163980234258 -0.4089196035103761 0.07603623796388612 0.21985407438000135 0.12603535084624495 -0.42078773877934755 -0.45879334324867455 -0.8566646673393769 0.23552333766524802 0.4583957195818029 -0.04522256140660901 -0.16669265475541795 -0.3091145888324177 0.14662139020998857 -0.07540452015321596 0.3770299130887839 -0.24095163043603532 -0.3040339881344515 0 0.10860898386970004 0.5123953026109612 -0.23397025699679372 0.11663995191621016 0.43632367428643115 0.13450950423405633 -0.6770875544695134 -0.5693022082730305 -0.21652480650893496 0.23179558628761743 -0.1748731433862179 -0.5229191809389382 0.41420111895612005 -0.4940270671193453 -0.5061066509887489 0.16742440537380648 -0.2659758246444848 -0.13146819908449683 0.49491637975972197 0.19988365456685822 -0.39484906119718555 0.5110861007347135 -0.5238282350330113 0.29255719446216544 0.33021199133830537 0.0027585590836680463 0.45704500843591717 0.2029468443953463 0.4410637706548011 -0.24747299820210103 0.2520470082527616 -0.3677233756552924 -0.3258903810148651 0.2142380470430203 -0.4831405855142844 0.3153876727265599 -0.5796232753126249 0.46591209734810735 -0.3041251664114446 -7.546730798382398E-5 -0.19696811676182427 0.0038890424943813545 -0.5175399748063578 0.11885011870124451 -0.404260251008934 0.02197720701577505 -0.5557084641429821 0.3232870554021952 0.26688221826213415 -0.37350225125230235 -0.5006677886144636 0.33996560593099556 -0.48500858166551764 0.1113076246844852 -0.22774611179470464 -0.5177500627725553 0.32910522154546856 0.07218140805528939 -0.5053080985660732 -0.5 0.3028953720328403 0.40479679284032605 -0.5404786885583467 -0.012269832704874348 -0.6046453490430361 0.34937880518716385 0.061780178755936305 -0.007840084049492659 0.4038287038682298 -0.6751563264304473 0.0332503704668977 -0.6190110622659748 0.24930435054089134 -0.2972645060754663 -0.583553092172101 0.412371751618557 -0.4427867417370539 -0.20504151741143628 -0.10018006681518844 -0.19987349498616247 0.5013306648774906 0.4075244057985514 -0.1959181010954171 -0.04514232150396835 0.4780473927218589 -0.42534472039048954 -0.26976191696946017 0.09448022786281755 -0.5275843634362745 0.20670301592110824 0.25066259235333266 -0.4226905375724714 0.24752224038378048 -0.21695605722591954 -0.033977410460437854 -0.1286304049342419 -0.4159002694256302 0.19905154274304648 -0.2000825289342012 0.5 0.09999999999999998 -0.29686522969453094 -0.17268148927696192 0.28045895755960387 0.6557894614755884 -0.17454412278276024 0.47043988992783436 -0.11387041737751707 -0.40156073310043155 0.0613830682092659 -0.5610054245017699 -0.01604159512842743 -0.09680066821422316 0.5226515844053601 0.10293640059372304 -0.2986887495427613 -0.30053121963813545 -0.30010154794296423 -0.4 0 -0.3 0.10076961981656955 -0.48384536674671014 -0.4306205267674129 -0.24955007020872824 0.5530520831645893 -0.15664522409899512 0.004085057726859627 0.3658007135313187 -0.2137117295743651 -0.00726287885511585 0.43729161932019117 -0.06567626611342836 -0.07585086847084888 0.3111268286498895 0.10354698025797307 0.10014012656912002 0.3999995150095387 0.4 0.5 0.09999999999999998 -0.3 -0.4969833909978112 -0.3879030003914042 0.019167295016496177 0.4217924837020179 -0.28014036592988834 -0.37774232318121054 0.033182542072859755 -0.1691384210850582 0.5293958121877527 0.22275309640990015 0.21410776475246293 0.30530733944686694 0.40120174762558836 0.5005271405549058 -0.30000789210965195 -0.2 0.09999999999999998] [0.1900280805993096 -0.5 0.30000000000000004 0.30000000000000004 0.30062229575254035 0.0026274709551693635 -0.1975108001442636 -0.19754435730317432 -0.2002184592363735 0.19854572435315793 -0.10152986347819859 -0.1004194339695924 0.40026296137604783 0.3998975670072508 -0.3000490846568515 -0.2999998392446418 0.19999999999999996 0.09999999999999998 -0.5 0.5 0 0.30000000000000004 0.4 0.4 0.301792097123344 0.10592456856866912 -0.09665789764525402 -0.0015792090085272206 0.29206294109205105 0.08680882657963783 0.28497327054921334 0.49041247869847454 -0.11178749073370865 0.2881744857480922 -0.0037412071987282273 -0.5021563551326947 -0.0013701292146858772 -0.4001034639008084 -0.30000024461927643 0.30000000000000004 0.30000000000000004 0 -0.5 -0.09999999999999998 0.497238338116401 0.49192926993591235 -0.40649675055469325 0.5005875720415046 0.30076838623317664 -0.11457584942106921 -0.48838657231970756 -0.21327039477549958 -0.36431734609876953 -0.348733380285273 -0.45399843194485556 -0.14084718028131912 -0.20623308643259272 0.09464332181187811 0.29561371823342686 -0.40221882150732785 0.09976105824923771 -0.2999998895989797 0.10000023657361452 0.5000780549498289 0.29828195154869974 -0.4001998392623446 -0.09851395095656472 -0.4680715601727624 -0.3406073513635525 0.08228692829098647 -0.27834001705207 0.225155679303785 0.4214727659577871 -0.38623066271264733 -0.10509123073608327 -0.3902572412645114 0.05488921191017086 0.05156025701819099 -0.11962998102660657 -0.3081066049840108 -0.1007301137938769 0.40000004731472283 0.29976311725800175 0.40100564997368815 -0.3867628012654341 -0.4737638012167727 0.0908677417481028 -0.143463291095831 0.11743942426154481 -0.09927182558787946 0.13326991475262087 -0.2116933655776148 -0.4507503227511275 0.0775223310063523 0.40615630723484725 0.26652926475469413 -0.025217352242009036 0.401812211678566 -0.552648451867187 0.08218666396760842 -0.2989043282475534 0.19979062176806658 -0.20149102696943727 -0.39902001283840866 -0.26474852039822044 -0.16512379897536156 0.2302835798326312 -0.095658391434596 0.14540809291334808 0.5132126785819389 0.27666658963946567 -0.49084535382246414 -0.49377757972228337 -0.5849868827843434 -0.5540606910651736 -0.2898148439676718 0.06188836643567713 0.05294746599131179 -0.2426339237734891 0.39812082514218555 -0.09996841450255464 0.19969774365834023 -0.0011469481403260874 -0.4873681848483612 0.23159374783582598 0.33032991464952743 0.26717443427897686 0.12406382550170646 0.6253699639552537 -0.4500488692751722 -0.28416360751740083 0.2135379865726501 -0.5418897861412005 -0.5764140678320052 -0.10689520056462226 -0.25182643225768087 0.06700311197254151 -0.21137268304754755 0.6045091165004095 -0.30411288890237925 0.19496177747169832 0.5000010398664695 -0.30031939617803644 0.5214008936165757 0.10166947725781661 -0.42166849336428414 -0.43930832653961044 -0.008470364612946266 -0.08822103724739003 0.03495050133100514 0.08814013569171866 0.19078216006199877 -0.15550875324727834 -0.037154102364752174 0.2540422918610503 0.2235578911505398 -0.12784853260190734 -0.0651967750394677 -0.3880391689793455 -0.49991921911791265 -9.919798461838793E-4 3.715237988878296E-5 0.10036923606312534 0.2090610398560626 -0.22181863996081205 -0.34416229494272954 -0.613249481918133 -0.41723414635126377 -0.7625965233606737 0.5818391369251803 0.01997901907560805 0.33170640489584285 -0.1278703776300847 0.3602299795393418 -0.5683230578202954 0.5016860662200682 0.22139983023826848 -0.37289315242557985 0.008436333727878373 0.40961646884063824 0.00190252778881612 0.20000017786018418 -0.49829356113222023 -0.3015061409157415 -0.2570751296971669 -0.37204729775481243 -0.4980950499203431 -0.8258605176566497 -0.25506857441553343 -0.16824230963256903 -0.2810426466199987 0.24535917744826882 -0.0012322532563260966 -0.29455239096446373 -0.6462114634578564 0.2772619538931831 -0.17452843781178526 -0.32275114578741715 0.4070169624188372 0.3062912223583397 0.2995101112835303 -0.5 -0.09792601868747282 6.950968039871252E-4 0.14910214955528714 -0.02030927111320087 -0.014686538662063457 -0.3321851586589152 -0.5303717843057727 -0.01816147049833543 -0.11248076805110775 -0.3242163242821653 0.10518430487302803 -0.42185072729329076 -0.4651034507062583 0.4434781938491238 0.1879208644427038 -0.4154139930122321 0.5174400660579697 0.015612049538072412 -0.39752581769345346 0.29999998287832436 -0.0995492400661639 -0.29341063499561826 -0.41786219334131636 0.43284506148381513 0.12079354507076794 0.34763280942777225 0.3028452161618001 -0.13947057039073663 0.39608982910986573 -0.20528258379386927 0.0450707721935904 0.3950580574879945 -0.12912409439311648 0.34590965700610526 -0.3133039067376007 0.24509547825790412 -0.02639558348146771 0.4416248973762219 0.4071884686848442 -0.4 -0.39910609722257906 0.12370525941476762 -0.2817498553118408 0.3057186633450835 -0.30578890818480475 -0.004251789414323544 0.15911918160872807 0.02385483761411755 0.18467020040250337 0.26231589298293334 -0.09412489853154664 0.07659168607634843 0.2857992013857948 -0.5325310711128771 0.3841926725205269 0.43224538488718967 -0.4603202608470944 -0.3792531296076015 0.3051096028891961 -0.29999224598975843 -0.29868501883863086 0.43208726767701283 -0.16778094931579712 0.08003581726090271 0.04128208211398933 -0.36220434746831165 -0.02961817062347152 -0.44513986286648627 -0.40146972939188363 -0.4513055986919686 -0.3644218120436317 0.2488535971218927 -0.4563162853688352 -0.16772631817254977 -0.5368371375676916 -0.12339072814395968 0.512881526594088 -0.19462606224283022 0.4019302789138738 0.10000502962826488 0.2942430980463645 -0.017950274152240073 0.3444493134003661 0.2495597748837418 -0.4992920837844071 -0.2139840575272687 0.06112053874202978 -0.06441673942968057 0.034520371656600435 0.22185267013472446 0.29065511502103025 -0.25900507927769933 -0.26990406083985474 0.06333594990494591 -0.451847341010241 -0.41287356193857183 -0.4003822565615229 0.20252468739548485 -0.3991864815462711 -0.3 -0.20754921367300078 0.40526926286296044 -0.2689376970147557 0.5612948598603038 -0.4933393171207774 -0.4965896814701083 0.1041317436281385 -0.41445755378937005 0.26716280034699785 0.29721915132613264 -0.3915791620388999 -0.3579294629257504 -0.1018317025051726 0.3247150377699788 0.40019573602417685 0.2884225869902268 -0.1994729081648888 -0.2996985565897332 -0.29999655369787753 1.4194416874211078E-7 -0.30294343756756 -0.2116904163954992 -0.0853374633183234 0.16908864631303908 0.061870420004032 -0.20344394106070562 -0.2195872915544008 0.48703271980772217 0.07537186308787629 0.07879909231981862 -0.37374806208920375 0.39220022548233613 0.5136549128566317 0.3064112054719708 -0.4232712131745138 0.4902865913402095 0.19921360493858198 -0.49962292236089845 -0.29999923174214027 0.5 -0.5 -0.0016311492577111121 -0.4035817171461531 -0.2986030203168086 -0.4848085673144551 0.21740038051141605 -0.09371743489760931 0.11465337731451468 0.4686298452830663 -0.4498929841576454 0.04460575795910564 0.07896008681516051 0.5529493632724425 -0.23061776738989137 -0.13389639149866278 0.28575091277768055 -0.10118098373208576 0.5000661661938778 0 -0.2 -0.5 -0.10000017664652643 -0.19660929485707687 -0.3962897678831987 0.1008496490818009 -0.3069801906762556 -0.2336474150481564 -0.048003602832139836 -0.3266067705655629 0.10608380864491901 -0.4956062354971109 -0.09978059267449997 -0.10144596317424487 0.2859155625985434 -0.5165624831154558 -0.2048919669746065 0.09980188067877262 -0.39999988221917115 0.19999999999999996 -0.3 0 -0.2 -0.29999745330066546 2.0559538737611929E-4 -0.19927957218045292 0.5017996289721627 0.09462369076137579 -0.10693254590025737 0.1003929404851532 0.0019013796088356892 0.09960720864720371 -0.40177449865489984 -0.20019584386767597 0.39950900599387007 0.09874434434937569 0.39962131515468347 0.09992485558765861 0.19999999999999996 0.30000000000000004] [-0.01388346161040075 0.4 0.19999999999999996 0.30000000000000004 0.5000022496144403 0.4000094983720822 -0.3995866725441553 -0.2989161266880097 0.1009252648556008 -0.29616819338163247 -0.39579188576380603 -0.397053907538275 -0.19755028299916022 -0.19820564091128526 0.00251221385935588 0.4014565638527925 0.4 -0.5 0.5 0.30000000000000004 -0.09999999999999998 0.5 0.30000000000000004 -0.3 0.4000867511224134 -0.29901300074547205 0.10515294594795309 -0.2871201188969923 0.31867360973839287 0.44060751384522817 0.1391324958130796 -0.3781850311337278 0.3050317537787228 -0.3053334126729922 0.5021387080048985 0.09831745297636674 -0.40246668924203266 -0.5005211555028484 0.1000037520641321 0.09999999999999998 0.09999999999999998 -0.5 -0.09999999999999998 -0.4 0.30750096859004933 -0.17600437559987783 -0.46648508007930717 -0.26116026876673404 0.15085611350686864 0.21155561016598098 0.31406020238674326 -0.27665970647512245 0.41901923228298615 -0.40205209727519675 -0.11613961605164408 -0.020868963197479697 0.051359318725546756 0.3662118118960335 -0.1014440835502768 0.4997822900797824 -0.3000016331518143 0.4999936295208249 -0.4000136510268034 -0.0026816372201157695 0.27825414101518614 -0.01100039371163461 0.410189187800733 -0.37069727827009846 0.16875849147085653 0.39223315725023167 -0.27365623380445675 0.006956438446600375 0.142402047602867 -0.03927820785250079 0.32804071974232857 0.29491885684178515 -0.2474417920738782 0.2894376751479768 -0.29560870719997717 -0.1011375635987241 0.5006197159826039 0.49999726979463927 -0.10381200320997744 -0.4236302163671199 -0.4929471005856708 0.10571204610726745 -0.3421262653913523 0.5853716562396641 -0.6353894877796548 -0.07772014570526484 -0.13129398454486615 0.06983937476683072 0.19923185093684884 -0.33739155137029947 -0.3052676174672466 -0.20301149413680106 -0.016680430719656286 0.11800247907111369 0.4048865133722062 0.5029143056878436 -0.09577035379366126 0.3007555082477084 -0.00867669263393345 -0.4448475670523986 0.19693863647266127 -0.5074872176602591 -0.45546985260297684 0.11730185275668295 -0.641367612645979 -0.19109207751926188 0.06898239491328245 0.13209320811711 0.4780815881114081 0.10146257037090853 0.44486728918844254 0.04372590384193984 -0.6169432520145341 0.24604074995273514 0.10709823674832021 0.5326542271827984 -0.28606475415629173 -0.1988614684332691 -0.0043200533346263725 0.061093575264436636 -0.20721496855078106 -0.4699111461067011 -0.08676316603253513 0.658712440301832 0.1520946361407242 -0.12559672046671028 -0.08950390391204628 0.1584459505480718 -0.10625155674861282 -0.1749227777339931 -0.225076255223078 0.17765245950640116 0.18521537008826902 -0.3565168347102519 0.4017364417739469 -0.04016568158606726 0.2257804612750217 0.10017847863378744 0.19632833518072007 0.362025851443694 0.24958906688924876 -0.5394819285018456 -0.2720118317144017 0.6794140095276782 0.6073267637933429 -0.7360671618493597 0.5305957811429811 0.08771529252966899 -0.17939209133903436 0.2636490872244763 -0.4623877420995494 -0.3963779619946462 0.12285749820130201 -0.031361791297906276 0.24857225350720452 -0.3271240569265311 0.22803040580917425 -0.30006054717252884 -0.30372795417517473 0.47559333947996396 -0.5282646974342835 -0.19829251373848808 0.1572146989440411 -0.1892084867892502 0.21573398045796383 -0.029480821606278938 0.14768683769617805 0.4094346388762035 0.018258273732663984 -0.3182883439327193 0.17632320999826284 -0.38077641254445654 0.6147681919135533 0.4018012540847232 0.23319000523026048 -0.1480363199851172 0.2131378256743064 -0.40003358552207813 -0.5016152270418686 -0.3112696208815261 0.43685936228830674 0.07173114569412253 0.4448378877159676 0.3898888006340178 -0.06546597221705598 -0.17474268547810531 0.160868664345802 0.15172518062518894 0.4867433869731469 0.22529969305825298 0.03557556348815163 0.31883719079477235 -0.39266679539080646 -0.2037687321302039 -0.004088439847396393 0.42466194832041765 -0.19863409660646528 -0.09999999999999998 0.198394442867009 -0.5027461753036904 0.2564863305548723 -0.4920571318186957 -0.6308106187441029 -0.6511057464620627 0.2781288486589332 -0.15216329712063162 0.5378470608676261 -0.1095461509592909 0.32318486574825156 0.07251772049850742 0.2079421701171272 -0.3816109242796511 -0.10298120542868458 -0.6425460901889597 0.08890258234930791 -0.30706281510674294 0.49781582713455125 0.09999099001576893 0.4986120658888214 -0.1139651344453211 -0.35416546673049004 -0.4320104061422471 0.05362972411240903 -0.44056552956428513 -0.024353239365816216 -0.23514589644738534 0.14712633210020182 -0.11872496816925514 0.0014281375791641397 0.4168504036772092 -0.5849681594333509 -0.4337525664890472 -0.5356645652872263 -0.30830838823467643 -0.2454532047050795 0.09901229590475055 0.001663137714177939 -0.2 0.39830490272227176 0.3842503535211365 0.2473266280819841 -0.3985777266607984 -0.32402873330682586 -0.3356610659364696 0.1822049966528979 -0.024902185600277522 0.7601838123586139 0.3686526323930431 -0.00576744352525778 -0.6942288465659018 -0.4032245493604624 -0.027888156434601002 0.31034069386265706 -0.32490267823106345 -0.030665022756428142 -0.48379767326004763 -0.19437430179276913 -0.3991974847747789 -0.40390947485183365 -0.32579667879003466 -0.02162751205333135 0.09605895136207503 -0.14455920712231576 0.06836862422402569 0.4928831811365476 -0.03975018767838686 0.4677411631236571 -0.3280040048537283 -0.12085470058411453 -0.0025927633781467887 0.007118934609535732 0.01920697928536086 0.1980185686519075 0.28030429892145503 0.5921631326503218 -0.25885208382738073 -0.19222332006794787 -0.49947944958364 0.09120862362241566 0.031673106231534964 -0.05867951945673643 -0.0038562362424969646 -0.1036440981426676 -0.27133686143646607 -0.28903080039791085 -0.3141435467541799 -0.1397547637919953 0.4202363652084732 -0.027105711500838497 -0.2959047990360802 -0.05304493160227418 -0.2401447201947059 0.5395760811532669 -0.3097471799277763 0.6137869551717398 0.3385312420985475 -0.19204671251179264 -0.3 -0.31130631687135657 -0.3313814580017931 0.24156363493605523 0.0016526085905601547 -0.3362167127385629 -0.29007546621500563 0.32540212111788647 -0.5761682259376066 -0.5257515947688722 0.34560349001477414 0.2968752199820213 0.5071123089885394 -0.3185206347614678 0.06261742368940383 0.4109280445438167 -0.060406599706698635 -0.017856939754533552 -0.07940029404913096 0.20481476823789543 0.4999918093839177 -0.10051188362389304 -0.002034649930845553 -2.7279569918645954E-4 -0.31386627901704944 0.2074668207666894 0.4179566350072295 -0.29700677847312984 -0.29045945213969643 0.18553386936065389 -0.1291936541704237 0.36953856535767726 0.3537658750289801 0.10683373444146321 -0.0504738340289914 0.3295592247505438 -0.052504607676704694 0.23867604981333893 -0.1838665965563244 0.5024223359997934 0 0.19999999999999996 -0.10096013994346842 0.4596781962202148 0.02174877628037158 -0.12651551410448061 -0.38950144676299436 -0.23074281099819838 0.44742720835156863 -0.506237693262563 0.02015331220332192 -0.21959984654161122 0.7884244371514374 0.128601096411475 -0.27626042816313184 0.09335839666611946 0.30784960252499005 0.10402442119518986 2.172955322397561E-4 -0.2 -0.09999999999999998 -0.3 0.09962526596331885 -0.0342976278463261 -0.48385736739905366 -0.5357242369483172 -0.42011591906175655 -0.3500834738878782 -0.1834902135100601 0.3659504024229048 -0.12430119329887981 -0.02785992108795224 0.3543621758508485 -0.10980079267748805 0.2755722298521857 -0.27139961494951204 0.11271023402763762 -0.49712652858135425 -0.19928025580301387 0.19999999999999996 -0.2 -0.3 -0.09999999999999998 -0.10466483533541247 0.18100034259453948 -0.31648336241554004 0.08893210525762403 -0.09433034885439308 0.016111808947242533 0.11429272596265523 -0.1924938346119977 -0.09452767313219594 0.2205337905915983 -0.38239746742128156 -0.3823371739673463 0.20660741697007592 -0.49787082098702495 0.20047518762831432 -0.09999999999999998 -0.09999999999999998] [-0.3070039234532634 0.09999999999999998 0.09999999999999998 -0.5 0.4999270092470632 -0.5003081831790662 -0.3002671830361823 -0.20009469630695884 -0.4991770021123214 0.10126843907976922 7.272438287606839E-4 -0.09973552375999739 0.1992122788391 -0.5014351519214858 -2.6833603677225054E-4 0.40003803860619114 0.4 0 0.09999999999999998 -0.09999999999999998 0.09999999999999998 -0.09999999999999998 -0.2 -0.09999999999999998 0.39972063353347315 -0.30131445842045335 -0.20044775595474734 -0.5010144598578148 -0.49458472030075873 -0.18045174659656987 0.02514102489294461 -0.09214070122548011 0.19328831100910113 -0.15192577010013714 -0.3057333350895372 -0.10144692028519642 -5.933427293165401E-4 -0.20030166604953817 -0.10000012877584476 -0.3 0.09999999999999998 -0.09999999999999998 0.19999999999999996 0.19999999999999996 0.29632666068994146 0.29097605684219363 -0.015840774164909952 -0.32636929033845374 -0.4091728364536005 -0.5032538183774311 -0.323071805128832 0.20338000160680023 -0.291864213836427 -0.29296634029426394 -0.2862740532459586 -0.27555394672374534 0.36820332310458853 -0.5093142184653756 0.19804426255580188 -0.3004542999287119 0.49998881857830235 0.2999920304097518 0.2999829223066105 0.30031889824775376 0.20020621126751567 -0.22630628116560217 0.2085874414157829 0.19800478838821323 0.022332225705386177 -0.3128222053358078 -0.018055911739045777 0.2629769906914547 -0.22398192940552122 0.31685375654235265 0.0572769361173093 -0.22841125184644115 0.45673807989923215 -0.3395712009285658 0.4984304092742552 -0.38240319853675714 0.01387739870805236 -3.4155386779151286E-6 0.5011201324655443 0.10380574285862451 -0.41785221976829456 -0.45714531229746386 0.22720929649826843 0.5382455546055116 -0.2075260324168123 -0.09752312729985067 -0.44561204291669265 0.06151183983621204 0.11708744996505897 -0.1134850368317335 -0.13581426170268582 -0.5240953005836437 0.21453186220789838 -0.44608576689600077 0.5120027450028274 -0.49446190046982375 0.2191789228559004 0.0016166326734284575 0.310817256987504 -0.18135577096550456 0.0853546711267045 0.36482760168267 -0.42564628625339723 -0.17608022179712865 -0.03694124709558011 -0.12983363366589482 0.03606569105489895 -0.13938202125282098 0.04844396820419917 0.10352096678099452 -0.33002971409643017 0.6155836250422762 -0.30223078194305064 0.351452223657041 -0.18211134980202473 0.3326489469564385 0.5092404106283267 0.20394860694773095 -0.08611139338601105 0.021404027763996428 -0.29273704664680844 0.0884222607346627 0.28438959170483635 -0.49499986184095296 -0.36780717860657974 0.16944647833958454 0.27918081678116047 0.5176591119078328 -0.19965060466583046 0.17845912277659245 0.2920113412623969 -0.15748412569712517 -0.35372060117881154 -0.0749940757530229 0.7317610121019691 -0.4829657412002451 0.5017473835775864 0.20163879922201378 -0.28686260769158 0.2163245947180118 0.11325507452360732 -0.3051007391752585 0.444610591298872 0.023897572682561895 -0.6235312329560608 0.020705305054455114 0.020089651900160547 -0.04270694706246516 0.12327181718925447 0.10445637247922265 -0.27835561023294936 0.24842608668640404 0.4915226740171904 0.22211730224201 0.3491549914296438 -0.47849319964865444 0.11209290574971292 0.20074326538800372 0.21490780364458376 -0.003064682185511319 0.38171192728936754 0.0968889348982931 0.5141482957281428 -0.0775409477581555 0.34287396008841897 -0.1464567416977971 0.21412227257688254 -0.23201946373533994 0.23807947030638493 -0.022840315416841627 0.47512122493311215 0.5210455569224371 -0.0666985860171647 0.08075673442050385 0.4960562224994161 0.10042727316692687 -0.29620068137459354 -0.29961021734072935 -0.09098958432080981 -0.21679811444248925 0.4690341349425466 0.14347130779995634 0.016923693891504214 -0.5369489470018984 -0.953243202500758 -0.37087511148395225 -0.07363548335240748 0.336950870018576 -0.4426031320381415 0.31560714803028506 0.05496793611804729 -0.22519757628538686 -0.08615621146629639 0.13302758215042096 -0.030648412973308784 -0.30839094826392693 -0.1003224414101219 0.4 -0.29946403252887877 -0.21394817794289253 -0.04119262113003219 -0.07579266300281699 -0.5321821594063876 -0.3891556074737611 -0.2818823212590699 -0.8230011919663022 0.2439908865094062 0.5480439629919454 0.8312027815137574 0.2571217476205493 0.30012346676695006 -0.24085930816324028 0.03389963801575171 -0.005587316742517303 0.45173535684796134 -0.016661095670892606 0.003036543410199274 0.4997507367486178 -0.0016867304100766777 0.38837372013064325 0.3336605512224263 -0.547748180887049 0.20189819645959517 -0.24732848307050365 -0.6374320123124064 0.3766344811942566 -0.1609075991226118 -0.28392491022075605 -0.20451352317786461 -0.25679568371125017 -0.6092374909548062 -0.2907246073381964 0.24880382682109015 -0.43814360109837386 0.12259105753584403 0.26335389197484976 -0.40128569037958833 -0.4 -0.30066766771053344 -0.4146636393104082 -0.3199495780624786 -0.7057845713537448 -0.1823131041001105 -0.5932012262820021 -0.2937024508325723 -0.29564117842596227 0.47228783857296514 0.6758675228644384 -0.45030990467888565 -0.16813044772978322 -0.40569627297604594 -0.05707380051559312 -0.1838931847384453 -0.028282233574988103 -0.3830403387771426 -0.5249215234096094 0.0944740255234334 0.09998925540112841 0.20281781160594603 -0.10539339065400133 -0.5831408284022098 -0.576491842027957 -0.15307043882673327 -0.042135721519679065 -0.5288645301161565 0.2614080694284089 0.3982303322447463 0.2408789896566492 0.42240865582020526 0.29679100676709497 -0.6497934962745935 -0.6953888196988843 -0.15555923028777133 0.3250013799267256 -0.1969465862786439 0.07281942972740664 0.19604808746857738 0.1999930305304617 -0.29871612295208405 -0.10288684012402023 0.2605613314931993 0.3583061405523789 -0.4135489209271921 0.18122222016730827 0.3370147581413841 -0.3687039499139937 0.1182972590377472 -0.12327873836311583 0.00648587534002203 0.13317254127670197 -0.19865901611223313 -0.22498577692492852 -0.6041600446226352 -0.29207127505450897 0.018602120872305193 0.2803915598634652 0.3984461674473114 0.30000000000000004 0.198991130497257 0.39866480558679507 0.3956536635318288 0.6496407697366754 0.2845396233314301 0.10261018272001264 -0.5042921840843843 -0.3674038103272475 -0.18586072682247645 0.04098247692572129 -0.09430116139418819 -0.1803551210290807 -0.5041724754919429 -0.7433116949989803 -0.3300633743557047 -0.6366443921568812 0.0453099041289823 -0.20283374196915402 0.49996802084687975 0.19998975338396624 -0.20090261216447267 0.2911142397616554 -0.08956275418582557 0.5771704635550676 0.03912423127690139 -0.3152848311024388 -0.23358992854445906 0.1962768050260445 0.22543482838186424 -0.2153122605541171 -0.16903080921667926 -0.1612564762589088 0.2986559318643597 0.30046111613930016 -0.04001813599280738 -0.06299271295266741 -0.5175297439413314 -0.30004538421681876 0.19999329301612395 0 -0.4 -0.4020444392822689 -0.29114843642550964 0.2581129185816176 0.4073196784678238 0.16507380271984226 0.4283523944291445 -0.3868459189429956 0.37769924134812943 0.009761088196440691 0.0894666362210419 0.1732237077370356 -0.47865489007552575 -0.247831175950523 0.35932424127732 -0.21556302567075006 -0.003839853891130175 -0.500050232929478 0.5 0.09999999999999998 0.4 0.10021657979000913 0.11903051263774038 -0.34211037190003224 -0.07765087182270501 -0.2045955814361814 -0.467771325032941 -0.14284313249677344 -0.30029508328850757 0.2617730108898155 0.5115867300167605 -0.13479712481706504 0.2616998882446285 -0.38234183551611206 -0.20449871784155244 -0.10671460142331553 0.2996038640997422 0.30000001206055094 -0.5 0 0.4 0.09999999999999998 -0.09693649543503718 0.011605785455019068 0.31849133636180277 -0.2696276149935811 0.4445726449575664 -0.15725221499190084 0.4490850955322453 -0.22735863387677957 0.26733818413503363 -0.15616388310855292 -0.3686938772499906 0.3127621573344328 -0.1986710729927391 -0.3002112462851295 0.3999077240815883 0.30000000000000004 0.09999999999999998] [0.33851794414372965 0.09999999999999998 0.5 -0.2 -0.20000032119839137 -1.3561709856813248E-6 -0.3005858833664753 -0.1018988497375687 0.39759090875018355 -0.4036269107888232 -0.3035229790812105 0.09817738231683218 -0.4006468344377927 -0.4000193762624728 0.29998493907823603 -0.10000042129756159 0.30000000000000004 -0.5 -0.5 0 0.4 0.09999999999999998 -0.3 0.09999999999999998 0.4993692618729024 0.09843304806067549 -0.40353056748063093 0.29297381756449653 0.08641752077530825 0.18587377435518085 -0.4104630517622774 -0.11191416587015136 0.48184036177798756 -0.11186606508977451 -0.20836891450443212 -0.10671796674669397 0.3959545551078015 0.49762594808739546 -6.8304610488146E-6 0.4 0.30000000000000004 0.30000000000000004 -0.09999999999999998 0.19999999999999996 -0.011684502451291818 -0.33111741344830486 0.1733966853633361 -0.21016509159780047 0.38509454296018636 -0.034458341736189856 0.05478815178262066 -0.5532372392469088 0.41008301992431917 -0.5954173356747786 0.005754073366229179 0.4194194545847917 0.37282821363082036 -0.1141413978861608 0.1988120148542363 -1.834327213370841E-4 0.10005482379912851 -0.2999997029123341 0.5000006366164267 -0.398387718923029 0.5169590967021104 0.43301450841997613 -0.4517337983893945 0.34945898500994327 0.2602872886216979 -0.09246000125345884 0.3670017915803348 0.11471255695496547 -0.34252512478153324 -0.12191875635111009 -0.5067094593499951 -0.23678196186806655 0.19025022002826272 -0.16550906372794622 0.08231875837206529 -0.2034002869940835 -0.19995298330377215 -0.29999987267671485 0.5014981609985517 -0.18450453581171827 -0.12599371709796295 0.4957272104075817 -0.40069058350273673 -0.04752578921327156 -0.2705976859214876 0.011135935688290683 -0.14879378255974507 -0.21270234102799457 -0.2613829056373606 -0.6553675051326912 -0.17173630225275932 -0.2512598749141333 -0.4132399602538421 0.06030690681606862 -0.4914759009459646 0.05820528606254191 -0.0010153743011547985 -0.400699159111335 0.0027670954002588046 0.42182865913700895 0.37781119664053353 0.3507424454712955 -0.39078151428712216 0.15440593166013222 0.14965075015693466 -0.2221951389013629 0.02839684777507216 0.08103487011595137 0.17785412381668764 -0.5235632589525893 -0.6053951212746951 -0.24228422293626783 -0.04377137345382801 0.33930200663418425 -0.12083958727384823 -0.23661510142562214 -0.0027414729518790044 -0.30124855427989156 -0.49852841639504347 0.11153774681629361 0.3223117266859927 -0.0936494807600669 -0.16195491486410962 -0.43324264111199834 0.12286367902813769 0.10910831905226893 -0.11298264312102371 0.2969896131841654 -0.14674862562775592 0.12170328646436461 -0.4302644754342476 -0.36243637465728223 -0.4675902895763437 -0.580905996478652 -0.5559441418672149 -0.2201163837855607 -0.2024902648588911 -0.20042872792988434 -0.39668482753813045 -0.07116825746759915 0.1283962155835111 -0.4992993314214685 -0.23777763678801958 -0.3884016213005529 -0.5516318549085896 -0.5861882370548203 0.21426106038294346 -0.16177393383947689 0.3094618304283031 -0.10183236776584836 -0.3909759203037061 0.2198375236895921 0.3549507786399728 -0.4286009038027488 -0.3376215757949095 0.2817390028421822 0.09549932737291683 -0.4000122682192012 0.0013227376939174752 0.11701702416114969 -0.27024104069913457 0.041342284348052434 -0.08892236498046462 0.35988819004385336 -0.3285987110510796 -0.0841646354480095 0.37889376948672737 -0.08555590678073301 0.7607472173306645 -0.1670809032152699 -0.43447989648447116 -0.4621546140957989 0.07133057990224408 0.23064938186796155 -0.23670690450649615 0.3797239078107455 0.09303830095054215 -0.2999888197140126 7.360229799257994E-4 0.211989725838344 -0.16524921090751116 -0.3576508856943948 0.14368313427050192 -0.542772551787635 0.04719574267320679 0.3757528387107177 -0.02457537214615655 0.11644524207174366 0.28675235640909497 -0.15797020537439807 0.13512684650978682 -0.14750192338201792 0.253381863265036 0.4372193943011652 0.07245994410140182 0.49626826798912616 0.09904075455272916 0.4 0.3010982560351832 -0.29714131450814746 -0.3749430893796863 -0.5232480268163547 -0.34169385769622984 -0.1732453852504321 0.08540954797946894 -0.370762752936896 0.050604068035035116 -0.3572210404394988 0.34317132632799874 -0.27102838872697416 0.3901813571698789 -0.5773131733435123 0.08568659904952043 0.5361472777097471 -0.11943265019490253 -0.1015282644677756 0.3005883260458418 0.3000000000238206 -0.3977078314672654 0.4060265099380584 0.01109522740993572 -0.2988549624276013 0.05973184750036952 -0.4673878951066373 0.00636188225588819 -0.1903987703187637 0.13676147551490625 0.2507179080488856 0.2466393448919503 0.21114678259545314 0.26712658607510853 0.2347978449034686 0.014052309704369867 -0.49971817919780587 -0.5280076023304555 0.19010852230627193 0.4011475707324528 -0.09999999999999998 -0.2978098586264243 0.20605266422385737 -0.002372103786193221 -0.3513111675401185 -0.18814676005926528 -0.6074946213323739 -0.08423144815807425 -0.35612971667630955 -0.4648621183526794 -0.2214909779311274 -0.21556296722579069 -0.2539620874059446 -0.3232562463992843 0.3074991267930135 0.3243738940853246 0.30553654787504586 0.1517726333058089 -0.40722839147870343 0.10020085144839881 -0.30000721141032 -0.4999560713353333 0.4986839942779921 0.2777402717718989 -0.11213626437529516 -0.4355393137489632 0.28557122004952956 -0.41769950335793 -0.4657795202621626 -0.501900920474456 -0.3878400533798123 0.39670959351415414 0.5382120818403393 0.08238115883808488 0.22114207168927075 0.2863537280859171 -0.3656549856810355 0.07486298318227066 -0.5015107667748179 0.1994425768312097 0.2999953223284411 -0.30096986404778997 0.20694039007230897 0.3854476572448956 -0.36155429368302455 0.25829440006078785 0.10526072648034772 -0.626421967789064 -0.8009698205427054 -0.7076963817508364 -0.1788290646727107 0.43348176644045733 0.26655792664819483 -0.45330956491724284 0.2844744826588792 -0.33987667105295616 -0.25284648853104896 -0.11947623001617182 -0.19957329451263342 -0.4999744586342773 0 0.3991755026223122 -0.19929986943141584 0.29828894919054 0.01458763230281933 -0.5055246128136757 -0.39723905675539367 -0.21471931379888765 0.27318910868627383 -0.8297867431174043 -0.6801113254868058 0.7067219650738564 0.007546986419135728 0.09898551315574587 0.29717801858399423 0.0643379502841683 -0.526922482384002 -0.4189075991806569 0.19995251465705205 -0.09997572926518203 0.30000038196985623 -0.3001953074915877 0.20161046341822816 0.21149342743464197 4.453152390880077E-4 -0.30317758752320473 -0.24705741525062075 -0.22613323287410064 -0.1482308929128894 -0.2918006657479802 0.0658743127049888 0.43817142887147115 0.21552461764769304 0.5586140462071945 0.2998725385256268 -0.19395131218347464 0.4908516476428897 -0.30976369958415007 0.09951422133979722 -0.5000000183677736 0.4 0.19999999999999996 -0.09896380293366241 0.4018765642334417 -0.40680557076695667 -0.43324314546036524 0.3189992423300355 0.12250695857172476 0.3886434843453886 0.18220091930169602 0.10588173906397451 0.10144884759859508 0.13965428125547077 0.4278624319622979 0.12073129324049403 0.5327784236478352 -0.29103245296371233 0.299557796523104 -0.400238382727585 -0.09999999999999998 -0.4 0.19999999999999996 -0.09971780808838304 0.40126511572556356 -0.5004097550110098 -0.10791954919238425 -0.009627811743734596 -0.004297767552191416 0.38770610021406265 -0.4995150314568083 0.5519124470854503 0.04291832726837167 0.06592099311741295 0.3682103203978957 0.14307969812236343 0.3373511118758707 -0.09581054211901172 0.5003670454501417 -0.5000000043977673 -0.5 -0.09999999999999998 0 0.4 2.7605865801253976E-6 -0.3998363893106334 -0.39758971890982664 0.3057967668985225 -0.29517372628072136 0.3016548074228092 -0.09407277761564786 -0.19084314967280155 0.4107775202161442 0.20424520513301372 0.006595675494576517 -0.39049269879536286 -0.19506001740603396 0.10109699393315046 0.10009288033929918 -0.4 0.4] [-0.13311338856456495 0.19999999999999996 0 -0.4 0.2995069301675889 -0.5020818504035144 -0.3043716307643529 -0.2082465196161852 0.39700587083282046 -0.5026758218663183 -0.5022152380155886 0.3971456261673097 0.09692138962149593 0.4003252452926257 -0.19884034341913642 -0.49910667132470404 0.5 0.09999999999999998 0 0.09999999999999998 -0.4 -0.4 -0.2 0.09999999999999998 0.3986927520685337 -0.30423808878921016 -0.5130212750007146 -0.23092860379897645 0.3753918023903206 0.2899185673482908 0.30633937681817747 -0.10032702959487333 -0.4124604941600217 -0.3142337052950477 -0.3125478049557862 -0.10896545413346695 0.20059110486950082 0.502140282014339 -0.2999843148271414 0.5 -0.4 0.5 -0.4 -0.5 0.09783798775104315 -0.2011456235368697 -0.415158488363342 -0.4371645742073675 -0.5369907556091746 0.37181021286273924 -0.2916250645418725 -0.1333318120964873 -0.3838408064458799 0.4138014353132093 0.2554915315582294 0.003013345766072795 -0.41042320014515277 0.30288615326625445 -0.10119525997546158 0.0017586178774655137 -0.49940441461390994 0.20000094590731465 -0.19999797305575434 0.10004824892068508 -0.0013011115167530787 -0.38965097448028846 -0.41153151142813454 0.33344392019702135 -0.14581190639632313 0.1511331542491407 -0.6424214996495755 -0.24396315353087833 0.12281848486101889 0.1921963382234999 -0.40011373726339944 -0.7146587398170435 0.0617174125016006 -0.4830453372586134 -0.4942827519183108 0.3851465400471423 -0.3037332054609579 4.0538884914678034E-7 0.19895525665049843 -0.006857962725663153 -0.20391364818517996 -0.08560341235397974 0.41147396454170293 -0.6573034721203608 -0.5164293151798458 -0.29140457596042224 -0.3993658820427904 0.0027874378387594445 -0.34446963151462234 -0.02375390910143279 -0.5885284218994185 0.27792409198977 -0.48147340634587005 0.33183648352925244 -0.17247199846496306 0.344767032493774 -0.5107815860086431 -0.09978672321920218 -0.0034908023223946794 0.368705163928239 0.39561937622966364 0.13269184069426723 -0.4079918548772419 -9.526394602651649E-4 -0.5360863411081601 0.09025873550380291 0.07530866580578391 -0.17775998921338862 -0.08342319739405989 0.4079748791348001 -0.15054978737461688 -0.7649412668120742 -0.1095874127394813 0.02514282717048617 -0.5797133965082816 -0.38499385777580714 -0.11565155256351033 -0.20013634745925232 -0.4057054014209328 -0.2783930178260789 0.22036259825388807 0.31782775703833605 -0.33463591171599044 -0.6271078498622864 -0.5903062823988235 -0.17881364171815448 -0.01186993006499009 -0.20398220015413146 -0.21472397220032566 -0.05712000300031645 -0.09500967145291773 -0.21061419294295444 -0.623787002771582 -0.014585974258245373 -0.43496113310143053 -0.6186543746193478 -0.22691763014867067 -0.10052234212660191 0.1908359028992549 -0.09324578751444114 0.05008609161077293 0.16143002301273995 -0.5249896397146426 0.4655236625583206 0.25985512813724604 0.05806653750375503 0.479052065486729 -0.19587150105488987 0.11602009903356462 -0.4389954340597286 0.073220710136758 -0.06198069846471532 -0.8259058899967047 -0.24770592232865213 -0.2542091831879304 0.21498464439509063 -0.42118047793399926 -0.40028765993958676 0.39328683840956 -0.455483793176796 -0.05753736099436856 0.31739656284517137 0.030338357810338806 0.4192427538741144 0.021231885533459505 0.1898565886077398 -0.5504570211744094 -0.0033582108044485806 -0.11780441035783434 0.32506961273364615 -0.03732566670552291 0.3074817847518337 -0.6085903805730715 -0.182699160289684 -0.41159695504300176 0.25784557613286235 -0.2125444744583952 -0.10003106012890293 0.3881398659228098 -0.1499488834475112 -0.13755450120688048 0.20849801220781755 0.2886343855823763 -0.10795766025727357 -0.3022794584772742 0.3439452436045612 0.08578344275520555 0.4710232903180203 0.09753992657448424 0.2350990469008611 0.15274275894710074 0.6167516097801224 0.20350074767062848 -0.45866047182546343 0.23745914794406228 -0.21131730017767938 -0.4025818003517724 -0.5 -0.5101071908798566 -0.021833271288451337 -0.40136313656572964 0.7062270191504576 0.652566705315372 1.3538774836235619 -0.091604561695224 -0.10110539749070849 0.5856450617410465 -0.053623034111705874 0.023061277445788803 -0.23862708532662127 -0.038625681943326766 -0.19998107378861146 0.4755005506921531 -0.1848807943705962 0.2678722633139405 0.1863290738808366 0.3934780374236871 -0.4000006911635706 -0.200914638287796 0.39100018504935513 -0.15489297417178927 0.20092272606793654 0.894347988918711 0.7126944084923409 0.18974378303993458 0.4713067896310118 0.5080203375020202 0.03930105727480157 -0.052663439928611555 0.049248117044836844 0.27814225745067755 0.3601915410956819 -0.47181417689626143 -0.26709144761456843 0.3510951662827817 0.4849695822166455 0.3943127916929231 -0.4 -0.5043778231044722 0.1771517934577861 -0.1942949340132849 0.19842719385908064 -0.21010826757053386 0.6014509393563489 0.40771236529069477 0.3039087846787056 0.22640290842843117 0.17533906536407448 0.032364053265279746 -0.030959289509674602 -0.42230791953091157 -0.4305118820551326 0.07071217919129777 -0.3474680888439511 -0.4798091469421713 -0.49387206002334477 -0.5013967173082862 -0.5014704680130924 -0.2077827123735503 -0.5219626864936499 -0.6285125223528217 -0.07257448427674218 -0.7925706605556556 0.07849803452441657 -0.2916933026168891 0.21353189285269478 0.7839165392205162 0.2941926951686795 0.31480533774730235 0.17354584883682575 -0.12121452132543833 -0.26972686443143606 -0.0924429110801924 0.3235617454724121 -0.32941961028483413 0.3101638347960148 0.1990941878945334 0.4990461829104262 0.49373346952926905 -0.4162551825977585 0.08787130652956075 -0.5451407020253723 0.06416460089717028 -0.8299207551209098 -0.4651027480536205 -0.3592964138132603 0.1988317785092075 0.1278184506131647 0.10909150602602813 -0.571542058298688 -0.4236694942722643 -0.15781980802136353 0.08112958375682416 -0.46317718880951037 0.13856698115350266 0.3033233364755143 0.49972079859998747 0.5 -0.20396180109429535 -0.11208427086204047 0.13643405979551604 0.015822133683316187 -0.5068242983762434 -0.7802700608189577 -0.993741067030655 -0.18049275045876254 -0.1829871195930636 0.022110847005578672 -0.08520154390917373 -0.28250271277012795 -0.7053783989609282 -0.1118618354746717 -0.38468380615562703 -0.017453867819798716 -0.06832396522335915 -0.492659037658196 3.9596978663731445E-4 -0.19999878383345257 0.5001341726683548 -0.0014206437740682382 -0.32118867108971366 -0.46208728270226757 -0.6873139149414031 -0.4688502020948165 -0.1004758522661786 -0.5453718698012535 -0.13163849410222214 -0.10467771566219329 -0.10029819208037496 -0.021577509220036973 -0.3589904760038724 -0.03708215391193998 0.40668215855869305 -0.02395796119029898 0.5201142536403053 -0.09163932821635117 0.4002015981648416 0.30000000000000004 0.09999999999999998 -0.30173530425641804 -0.40162329952959325 0.35007851357116876 -0.24296748127069398 0.18693819436174397 0.02219267092068577 -0.49393459359473074 -0.08695803191328749 -0.13619624578574663 0.12646007619278896 0.4605226990433322 0.25040705650153977 -0.36711946942713763 -0.2597012244756958 0.44833031536234474 -0.09631898217477591 0.4997959369400211 0.19999999999999996 0.30000000000000004 0 0.49996934556550116 -0.40997080481394993 -0.5410150431432221 -0.15247357632336328 0.3406072846295251 -0.5403777224034024 -0.016739187380224813 -0.12473987116833346 -0.2469733893357905 -0.6425716663750868 0.18499705694402185 0.09150956460971212 0.5358351576383836 -0.37556910806720073 -0.3850043921168376 -0.09749093431611755 -8.310333874123238E-7 -0.2 0.09999999999999998 0.30000000000000004 0.09999999999999998 -0.10136598262113661 0.18680791289337592 -0.3236708815866637 -0.24254662198676896 0.15861299311149007 -0.4539017167414711 0.11320272275805711 -0.013603141724468687 -0.6054898892593978 -0.2591749828306192 -0.12966758064257808 0.3909170261700772 -7.763628685365283E-4 -0.2980637749164752 3.5973224919719443E-4 -0.4 0.5] [-0.6638122515332203 0.09999999999999998 -0.4 0.30000000000000004 -0.49999998506092014 0.20000006307611437 0.300000689017593 -0.49999818464285356 0.10000152505314308 -0.10011838428221129 -0.30039196615513203 -0.20040532822045817 -0.10021013084658978 0.3980365486746694 0.49747617205644745 -0.0014036168156634635 -0.4 -0.4 -0.5 0 0.5 0.30000000000000004 -0.4 0.09999999999999998 -5.560857533677253E-6 0.09996734805611424 0.09705881956747009 -0.5078250379079373 -0.40994926345098437 -0.4473364991728589 -0.26746070086323276 -0.3443034269685408 -0.3219767437995771 0.18357258530959059 -0.024157938014306903 0.17293086468257143 0.48915959584815544 -0.004254080235709921 -0.20036705606028235 -0.3 0.19999999999999996 0.19999999999999996 0.19999999999999996 0.09999999999999998 -0.10474476689590978 -0.20472384087554757 -0.21679929338584272 -0.21469505850096213 -0.10165312169396266 -0.12824916701811973 -0.24675181755992745 0.5179010697011983 -0.21769835443011176 -0.590000583009913 -0.5939570300965432 -0.6213670340664643 0.24222996983024833 -0.22628596392339262 -0.10662719380214239 -0.3019673085009157 0.19992839402928247 0.5000093053892676 -0.4999800598801404 7.18145138327595E-4 0.4199930615270355 0.24186289527785557 -0.32346794825515046 0.014784787889293093 -0.2942708209166489 0.46673213719489787 0.1724140146650331 0.5236460884054999 0.3653802462747216 0.2099391836175802 -0.4782170227164014 0.17698811006938484 -0.14308307951471444 -0.37548926895442764 -0.2238903972457422 -0.006349114859388391 0.09969595397658693 3.98802397195554E-6 0.500009412681972 0.3110854421126872 0.4010234515126168 0.336638800643433 -0.17516228788728755 0.3807692045780344 -0.4182526600131687 0.3570396714950401 -0.17848269127713923 0.03463062841488283 0.2521420363399226 0.251825098650953 0.06258244636490305 -0.3969043769220983 0.5686806817455448 -0.4904432479176606 -0.43716989466607176 -0.41079319050861596 -0.3014069572709563 -0.5003065383532427 0.398961765134166 0.41445059364585024 0.3284245983671399 0.13878746630116087 -0.0910407539437724 -0.24303562108817303 -0.257931782442392 -0.2670620906033081 -0.11069499030629847 -0.46563349096178036 0.5471097665135779 0.4269238885961003 -0.03744672048261013 0.20062132147079825 0.5465522183700171 -0.09697701785831381 -0.5433588775413853 0.28316212684221786 0.19428756779444167 -0.40050833788103446 0.1977953895039408 -0.29953389940135894 -0.3103016899735326 -0.30169275529371253 -0.1349422126944774 -0.03411416963834727 -0.16072526499277365 0.0933433141419636 -0.2686088356400951 0.27038669826443107 -0.18717590951152843 0.28354124745047077 0.24967242492484815 0.0650606491529366 0.5400234686422 -0.39847845142442556 -0.020689065997331033 0.1507180835604896 0.48238321583272353 -0.20010300203920528 0.09313215576101924 0.19419375549097417 0.16223374147948888 0.5584332605113526 0.13997327227938608 -0.5773691845335907 -0.05438070658863033 -0.2760892478604766 -0.07018751451063188 0.19272323899103244 0.37813992789323203 0.09031341093114456 0.2703693463654341 -0.18944546625758452 -0.14158341510941655 0.27869074404758676 0.11975455370228645 0.4337172316666524 0.47326000340286817 0.29999914326868904 -0.1071942142719767 -0.08861710150571948 0.2669096956823697 -0.18918258970199653 0.10580780493698175 0.2603999991042737 -0.2939855667521988 -0.027633978834142557 0.433011043453655 -0.11570054790724478 -0.5020426520572971 -0.36581391890447784 0.004701430712747249 0.4085395477476063 -0.1638838903680301 -0.253544039020868 -0.07519478431027171 0.18281433360893462 -0.30823412269573947 -0.09999755792366176 -0.4033568087242855 0.1143450844249164 0.47594621740500576 -0.35960889656203204 0.41550114399365756 -0.4080677628138997 -0.02679115156254214 0.15998646743883693 0.031880495822877164 -0.22801255149077823 0.027997173068520582 -0.5646678818839319 -0.7011827814090824 0.07282529971309422 -0.5480795218634947 -0.21262753375229287 0.11585791175700645 -0.3146162899722139 0.3981902370918678 0.19999999999999996 -0.10057977918339127 -0.5036074122868173 0.162698728614832 0.45275996071998753 -0.1467042984459693 0.48129255664519965 0.4278092927750372 0.32001539265117235 -0.6889906985277751 -0.4710588703467994 -0.7662001810622895 -0.5790920202466144 -0.643178144725789 0.11375913826152073 0.25695152292999746 0.7460888463698739 0.40614926913002747 -0.19756018310939347 -0.29924177428197624 -0.19995407892225434 -0.5019607752443395 0.09358308222395022 -0.13781349635117662 0.4136712279065074 0.14817107119243336 -0.11904253075375326 -0.5321219005733382 -0.8405397488863531 -0.37787874762786616 -0.7268680980155536 -0.7324179639843176 0.11815057659148945 -0.5960674978708423 -0.05859525526158408 0.16237758644851655 -0.22448751765942027 -0.21356932108554347 -0.27516562964775726 0.40134536779431335 -0.5 0.09818061082833568 -0.09242413680422139 -0.21844552582611415 -0.004115521661305207 0.24153463128743613 -0.18188792736431916 0.21144924887074168 -0.42428799476796925 -0.5829091481795722 -0.9398442241418903 -0.5424245026589721 -0.2671277987496659 0.3258725572697036 -0.4320127155419274 -0.23696329888861326 0.3973474611201969 -0.27282850236891637 0.11771375036369212 -0.4986575907870819 -0.29999966599151195 -0.30079498592062076 -0.1879574199175628 0.4172029219368279 -0.04678621989318274 0.03764951261618843 -0.1908626152695503 0.2431793041384588 -0.49213438267489 -0.6103389260091813 -0.4757904207911991 -0.4428956917105249 -0.24101749597226213 0.4521771292071409 0.14995370824967 0.4561819733880074 0.04355163069856389 -0.1001857678440865 -0.295622738174352 -0.1989847746126004 0.5000002166541546 -0.3965321188812078 -0.08763671575795157 0.4130934814552216 -0.02843218970165972 -0.3639790737552326 0.0709727552534965 0.3587438992393447 -0.07817395444246551 -0.12062849438773764 0.06652616855464484 0.40447113564994047 -0.12966394043549934 0.30995470637974143 -0.017068402741643347 0.5953442204208182 -0.5114597201255536 0.0039055759639653504 0.003418992641055218 -0.49974621602778996 0.30000000000000004 0.00679301639745295 0.10651796293189275 0.042269428602901955 -0.0751437880023839 0.6159450312786596 -0.18352662840518216 -0.023539697295424395 0.010538799064560673 -0.06119463132598815 0.4798202206235238 -0.34498603981307546 0.28698327762451215 -0.17843826234115465 0.1136934109925334 -0.5160486777160374 -0.31079295243693544 -0.11064027001034832 -0.10376365490188377 -0.4005786843279205 -0.19998803592808406 -0.39749249972833595 0.2890822528211168 0.18714518694651988 0.08003157670803049 0.5674628938050659 0.20395666091188097 0.20046656726435252 0.3486109108678035 -0.17083060742226056 -0.5364183209823159 0.29672560799589753 0.11128873320606149 0.4763267996289783 -0.2868155506462435 0.14899395250926398 -0.23078568183667048 0.08572264380898598 0.3901527557678233 -0.5002027041328246 0.5 0.09999999999999998 -0.30354058184531446 0.17644977039885482 -0.029659460804808743 0.4074340486581122 -0.20104084848010428 0.31399474228559476 -0.21398756858263274 -0.41932572662985274 0.2885813987267057 -0.07066138710597471 0.3210700373930149 0.11260254856083401 -0.4571243435314913 0.24983497491162698 0.4839454486465323 -0.3002307481821786 -0.3999988709178697 -0.2 0.09999999999999998 -0.3 -0.30000057575459216 -0.39870630794697454 -0.3922630136089938 0.02264850349977175 0.2102916948109141 -0.21320027742627004 0.08013864106527453 0.18116941530677164 -0.29069685598067296 -0.33155187177331197 0.40110951586173454 -0.2015507830125466 -0.009783294970209034 -0.3141733280611568 0.09635273218566501 0.4983686363027797 6.302111001635689E-8 0.19999999999999996 -0.5 0.19999999999999996 0.09999999999999998 0.2000078553815554 7.676124193559137E-4 -0.3980690343231282 0.3995592318188636 0.1916550717378166 -0.008864534574103475 0.49766775886102793 -0.09825886442421693 -0.2022015139862863 0.39824690128729323 0.4031663275687228 0.19831451237681502 -0.3011099605217752 -0.20075619473692152 -0.40015322825436056 -0.5 0.5] [-0.28623962709301903 0.4 -0.3 -0.2 0.500030113231285 1.2714475431510337E-4 -0.1981928677213381 0.40506674397292525 -0.3956422703061039 0.2159339483339814 -0.1815495628280951 -0.3899307806372668 0.5043195246961697 -0.49788060380387816 0.0020655591130613695 0.20001990967328726 -0.3 0.19999999999999996 0.09999999999999998 -0.5 -0.3 0.5 0 -0.2 0.4001823928172802 -0.4994461981796808 -0.18014439647651365 0.44640490944084105 -0.042956194309473644 0.21636295239077322 -0.1541171781387646 -5.700601315490462E-4 -0.23232138608857605 0.46927837710687814 -0.2411477274172095 0.4336369478923435 -0.08205227511058509 0.00954298043629853 -0.39989296164525734 0.4 -0.5 -0.2 0.09999999999999998 -0.5 -0.5018597579196761 0.3960236075451386 0.3477568394094606 -0.40882723353746364 0.3169502893861928 0.4862875884624876 0.6263977754562391 -0.14105642291489728 0.6230114466551897 0.6451559412996207 -0.15344182251443778 0.179577023738681 -0.05737908138904838 -0.2801443612197359 -0.28462409867347355 0.3077637168372803 0.40165860944071685 -0.29999983065138486 0.20000036288988918 -0.30035411341795226 0.18262184129588627 -0.12212699370790306 0.024602030937310438 -0.4471254105810352 0.513718495942235 -0.14268414809529725 -0.07455194599945722 -0.4521923795503145 -0.19530561721879877 0.1589188611226894 0.052932239444293906 0.2872447604393395 -0.1983319914621678 -0.08695791357171269 0.08157114720985123 0.09049718361841481 0.19924598257849696 0.10000007257797786 0.1994020674787344 -0.30555443987552233 -0.4479536583917962 -0.16679414814825858 -0.15803152729968323 0.25654643218067447 -0.2218492763888557 -0.27223842914957047 0.4244337948749215 0.07081241564479034 0.18398961960595467 -0.6298707524958863 -0.03641475126630367 0.12965692803246612 -0.5120059127739747 -0.16422261622589043 0.1044452523642578 -0.22989553329743206 -0.5024005373909299 0.5005593915295224 -0.19984738071947683 -0.3045789516557746 0.12163704077476171 0.39587423780164904 -0.5276149797199416 0.04063613909047879 0.1498043600397002 0.3631396056080779 0.20550861065827097 0.11731703931222653 -0.10396609222167674 -0.7485462694706381 -0.872481276859776 -0.7108462767872641 -0.16540873460204597 -0.32640998415437206 -0.3577353086998833 -0.24882641946372144 0.49249679634908244 -0.49892260377485664 0.501632099554968 -0.10855947786291305 0.4555938068480569 0.09835322756388294 0.13111107130925323 -0.05679341445361137 0.2352978258348376 0.1209021919944792 0.006910981674631595 0.23014023565971442 -0.2606113362285251 0.1502021100950761 -0.39696171128063745 0.0015780440097423556 -0.44631945002019446 -0.23954660625444324 -0.4586875310011926 0.01596803322393785 -0.5237106290498958 0.30045141674911235 0.10292716541983221 0.38349073688266894 0.0723318703745837 0.37964197605721245 0.6365098822898106 -0.19941928559298033 -0.6786035538969617 -0.07868595420975115 0.039709761384826556 -0.14081545672354673 -0.5192710200365814 -0.5189041708080464 -0.14041786644775986 -0.24948289419151473 -0.17188301623322683 -0.09282364234084066 -0.02933773363763378 0.18216156795967892 0.3600021969560887 -0.09983516696861018 -0.29790213485907246 -0.5103330002612517 0.048873891119321264 -0.19954031601801306 0.0881325513361254 0.06425091931164055 -0.622458440627052 0.3814028199023483 0.20404478030954884 0.07745248009365799 -0.04105830361943877 -0.11255913839380588 -0.5608911804946818 -0.41325071408649566 0.17548033105690494 0.1856444305496936 -0.32185907102344946 0.03514464559452073 -0.4222356538144939 6.771805334779145E-6 -0.30245501570477407 0.2864606598381736 -0.0626425216097071 0.3227356667125845 -0.18039615614364063 0.039236821030559546 -0.07786411878484506 -0.7184071001319565 -0.35682336231633605 0.03486473325053855 -0.5916166436682321 -0.11507296100519579 -0.06274844001298908 0.31887287382954455 0.02031538754218078 -0.3470955384164224 0.35925112774296725 -0.287216375418131 0.10150315509477846 0.4 0.1950035664576902 0.39164376865449047 -0.15738174186294157 0.5454708926139418 -0.16092508365575547 0.4851226013274464 0.0020991559974509405 -0.7070402025493334 -0.0727083664215151 0.16399369746741002 0.2100426910316577 -0.264125819478201 0.119471574842749 -0.20358466795638386 0.4498543478829932 -0.4848571603308568 0.43002071794287294 -0.5122630243864388 -0.09984131020692255 -0.5000354435191138 0.20031737902988161 -0.3093958372176133 0.4577980736133062 -0.014439769915957475 0.014695369495039945 0.45941134166290365 0.37236693244918767 0.18144294441051256 -0.19394317248720086 0.2538710181759505 0.14164657257756869 -0.7185790159352305 0.7136570603899237 0.24023709158043105 0.3404713587029886 0.34779366161669734 0.14418548953624294 0.3724717953251324 0.2942790735954504 -0.4 0.30127009813121197 -0.19953503646733844 0.14081842693555582 -0.1768556716677971 0.33191149673321446 0.058106816968702256 -0.007086389541856464 0.28902374960179494 0.5650223116427651 -0.22885955502226715 -0.6255186924228591 -0.16080844671644778 0.34970632483230796 -0.08835874763050253 0.017305185530425496 0.3540102832400361 -0.38969517556953587 -0.4155274186446264 0.3942204564807178 2.9581636127713545E-4 0.30031611191480817 0.19717417241727406 -0.13080164864797772 0.29582820854781045 0.330189189257223 0.12709842550103279 0.051758670322095635 -0.2104375684008472 0.38256735467226094 -0.2914508457934756 -0.14950719382449593 0.10379374190557356 0.3462297874523265 0.06255438983631398 -0.40587990667889984 -0.010634214871386263 0.5176795361610599 0.5044903594999768 0.20028856348666763 -0.09980811911700938 0.2944038598957031 0.48596130421079736 0.28045965735362566 0.007825030979013076 -0.6537275814701133 -0.012054085442783689 0.11575027691656004 0.1072936438458631 0.02282663643087154 0.488826084404461 0.16951460319572584 0.09485663197148585 0.002276337321031179 -0.095722225387443 -0.44748273733096067 -0.26658512333183215 0.09473168102669952 0.10023030362008926 0.19996956957654002 -0.2 0.2930838949628862 0.3000512901927344 0.1248263330436725 -0.05020525014245492 -0.09830481633448826 -0.3303166315294892 -0.0016578729428996185 -0.5087534969328369 -0.3614123171413065 -0.3155383157613517 0.0628406266656041 0.5140139046643502 -0.26546444079493653 -0.556651800713732 -0.17080906558164613 -0.0010590871371788072 0.100858041226223 -0.4963915600487934 -0.0998440462647019 0.20000021773393345 -0.2031164766734056 0.09962606766712602 -0.18378491211838985 -0.09416555923262461 -0.597644443847731 0.057198637074063904 0.3192952138983459 -0.769504209927883 -0.42100389773908103 -0.10965778560031211 -0.4108770360529099 -0.18328410721810318 0.484429875895087 0.12076604227141025 -0.04396380163395219 -0.21772604277110655 -0.2928998239764256 0.10953240809158903 -0.2999892390764593 0.09999999999999998 -0.2 -0.3986417567239937 0.303160440661302 -0.2912277468787718 -0.10701644893502787 -0.2538552207120164 -0.6753168408032146 -0.3146853799332854 0.11127152747513722 -0.05289216129663391 -0.4567454224408183 -0.2989337075610487 0.3236404695769604 0.193897889824526 0.041253163969026015 -0.49171792102279716 0.503057734207771 -0.19995961778697777 0.5 -0.2 -0.4 -0.2000021020455908 -0.3000597738073528 0.500127288731589 -0.09741779214789704 0.19324959239566558 -0.5101767699970481 -0.2950102521889054 -0.3520185868501276 -0.14907948926475942 0.27281426138231907 0.5847854761492715 0.3195063338145135 -0.39505282512044015 0.13751715053456218 0.5115599640121897 0.5002274702053258 -0.19916276618065154 -0.3 -0.5 0.19999999999999996 -0.5 0.3001311509524188 -0.49975496541314596 -0.39888078523670595 0.502555271002854 -0.19683533462476346 -0.08947271684823621 0.22024445692932293 -0.3646774689337925 -0.46756077036665883 -0.3700697851227538 0.026618813525235607 -0.2766333298804489 0.3096448148671649 0.5008504434491176 0.50014022027808 0.5 -0.3] [0.5321311660773015 0.4 0.5 -0.2 0.400002402057546 0.30001014202074844 0.20042266124146518 -0.2989412568405652 -0.1998061798105254 0.09753433249154377 -0.002876574999191016 -0.5009493184372956 0.5000545925675074 -0.4003808505309418 0.39981419679793534 -6.351001926582718E-5 0.09999999999999998 -0.09999999999999998 -0.4 0.09999999999999998 0.4 0.09999999999999998 0 -0.2 0.2992026768924839 0.29820447185889387 -0.41029581966585915 0.2824336373826441 -0.39187955667897684 0.3120280198984099 -0.302278792687012 -0.4919909464893388 0.4072678734529761 -0.12539350653813108 -0.11757460115007265 -0.11049939995122442 0.09098869736507778 0.09216752954016039 -0.5000017706114789 0.09999999999999998 -0.2 0.5 -0.3 -0.4 0.2049517550994988 0.30112247518556406 0.28615269926421183 -0.516908490788568 -0.3738729508466805 0.4303539490505227 -0.3432595259550166 -0.34701216892012643 0.1334500720178792 -0.12124160145923532 -0.04401109790353098 -0.5080425577846662 -0.06153199700896553 0.06778073077730787 -0.20943122446455323 -0.009197582233414188 -0.0018664402436254994 -0.3999863653582795 0.5000292170894007 -0.20079069935422927 0.31161284974539005 -0.19892989152267454 -0.5478035002046121 0.4804642540696466 -0.44836589713298025 -0.25616849856607293 0.20381904648347585 0.15617180887211546 -0.6330354669174758 0.38271204659495806 -0.5514201263341456 0.08337690505023058 -0.433039598358065 -0.2558045706867931 0.18726357407401828 -0.16487760009545863 0.3760243343916529 0.20000584341787986 6.393289845259546E-4 0.20883862806871806 -0.3875896682500144 0.18478158617287344 0.2828405588592541 0.005588186889427516 -0.04612090030147139 -0.17083508480287565 -0.04764162668961332 0.003470917894289523 -0.1556047403190912 -0.3057694737389927 -0.33633006773702406 0.14935272385513482 -0.14634129814922017 -0.3487932000464433 -0.2346523535319731 -0.5501968369853358 -0.42879743201503195 -0.20101666911776475 -0.39929677437523065 0.3158265012375602 -0.19125277013946854 0.5095501929082489 0.219041437599952 0.11503183819901817 -0.43786140259599415 -0.20488879359437148 -0.1906586061074648 -0.10783012287234459 0.11900388851699016 0.18793384797553095 0.18771775554669695 -0.37119875635639354 -0.055786048618577784 -0.17078919204291823 0.14577947075595588 -0.43673693179429524 0.0011323953569968301 0.39841934732547607 0.10251491172556637 -0.2893991903773324 0.4256779339649962 0.49164345075309346 0.05435364522464282 -0.4520035439333792 0.09601193236493134 -0.39814612713812725 -0.2601295199190449 -0.05207569086481173 1.1181219631761066 0.18884674495322246 0.21635642270493421 0.17354044697622203 -0.16028979152587725 0.1338508215006506 -0.1343293030789775 0.22260605139831108 -0.2609188468032295 -0.300666296368336 0.001647957238482315 -0.21187862387511375 0.4484487198632856 -0.38450715799351615 -0.520306420259559 -0.37986272537694077 0.074865283300153 -0.04737021638587519 0.12335299617412065 0.7129379863610937 0.8741058830692011 0.006287319891876468 0.09685877438924811 0.1524550457420411 -0.2631791475662466 0.18232666653684812 0.04339838539726445 0.3726781194592416 -0.08497341136989721 -0.5004513551795391 0.0025667955364178274 -0.30959759612187765 0.4400122349095987 0.2638572628512896 0.2809581920316488 0.21814906687933863 0.08201040802384846 -0.5333007937661218 -0.4420961828386047 0.5669574995969968 0.36311397115433985 -0.010732132913470471 0.1849549658673586 -0.43442942285657365 -0.26226031748356426 -0.695486220332147 -0.5594393656447195 0.21742854528475922 0.0049626742611000385 -0.30035237275704413 -0.2947901749113521 0.20394145103862618 0.3926389424862212 -0.507020028745403 0.138880173110196 0.09439446008411224 -0.09480458486364252 -0.07192923716039122 0.419715893058254 0.5004830612412134 -0.19265156684917562 0.006231546696248991 0.04317177452333231 -0.28035517262348664 -0.733931588634214 0.3008193950918302 0.40587557879051034 -0.2032011645706206 -0.29943262712930147 -0.3 0.10686218030747734 0.20226419798816594 -0.61775114463411 -0.47168358566905944 -0.33312314160938883 0.36870634714624023 0.15572388228699385 -0.20876071058902318 0.045569519206196694 -0.14049619803133634 0.11320300831926638 -0.1715320763059612 -0.4781586893817558 -0.11771194681032114 -0.6800788960717492 0.08039285871975003 0.4034831869175272 0.4906998625638649 -0.2993149241784735 -0.1000000370234634 0.2082511407510614 0.12036208051269597 0.4744912802755758 0.3883708255224076 -0.3671459193605985 -0.2012202799524457 -0.08796956692483188 -0.4445971456471603 -0.08675859751671337 -0.09051987392272164 0.07521351009698513 -0.1998309683638201 -0.04913127205951599 0.26931663318033366 -0.5969437388445931 -0.3016146764350179 0.12560553020618945 0.12278187302895333 -0.29588898829229565 0.19999999999999996 0.21295483248738165 -0.15146129906712832 -0.11390324911875319 -0.20710731518936845 -0.27289585323485926 -1.1075742320258455 -1.2184807192518923 -0.6590127266884788 0.02836379841465448 0.07433167013715318 -0.300153021817792 -0.19812607647108216 -0.3917496002674059 0.5865308376120851 -0.23805997379413216 0.36370963866131534 0.545260171336456 -0.26793390475078593 -0.09682673604553137 -0.0999822028858018 0.11464088853987046 -0.20312102438846397 -0.3169184802362808 0.5939868538640505 0.6192980133895227 -0.8280030085363701 -0.12060642730951272 -0.4282323899764598 0.07662828713575923 0.3807113308841165 0.07479818922422887 -0.0022114865828137794 0.6362604604483623 -0.3336644760189434 0.19095804691360224 0.32997921391706947 0.3250872136694768 0.12525038333438457 -0.3991538686610093 0.10001154407407456 -0.0831282246630754 0.28934905079385187 -0.1371108435777843 0.6094808997700432 0.13881203723120827 0.28367416800680617 -0.10686178837547639 -0.16394719095882998 0.3569829846909709 -0.13782989162281717 0.17237868562249223 0.11438456572356678 9.85988829273368E-4 -0.6327361722877869 0.1932060214308907 -0.35783136080954075 -0.07999384822134778 -0.28115384225843504 0.5019931104961685 -0.09999999999999998 0.412281431483496 0.4756744410753288 0.6707191661800678 -0.20030252963779518 -0.03505676688041777 0.5558326211019211 0.17114247635003738 -0.400769158593611 0.001251184517609029 -0.01202760893738948 0.0223759783844588 -0.04724477522051018 -0.5885020215473119 0.30122638075215974 0.4638890859206685 0.5345103527575222 0.31670966636691705 -0.39441678945172565 0.5000196273786447 1.753025364049642E-5 0.4031628777917432 -0.2674405650737901 0.34481061765375404 0.3852581957793313 0.5853998470145926 0.6717657131189625 -0.11055399050523465 0.04135420940124214 -0.4759054491112449 0.2722897447856579 0.3510963199206413 0.057239964212125266 -0.11143425733296734 -0.19925278412478523 0.3494871692026499 -0.20460384618007083 0.004758106940703794 -0.19956277387384044 0.3999978185000128 -0.09999999999999998 0 -0.49214125395599145 0.04854404048389409 -0.31361572690380163 0.43204092634123964 0.5257619249550936 0.10566391666268755 0.03939177290026624 -0.01200913775757132 0.43020931532579604 0.06676846816232898 -0.5533803251496765 -0.46502833492924034 0.032185103456442835 -0.2334700137648672 0.48477856054960206 0.19778501834777523 -0.10013507400845162 -0.3 -0.4 0 -0.2978313076871763 0.016626820391967202 -0.046516766724215786 -0.3857894720960007 -0.029419800380800862 0.5070004873158236 0.47148284844157456 0.33344519264500627 0.8031835480703069 -0.04406505529834139 0.03583406929889314 0.45994154624862194 0.21084101889409046 0.3802371624070558 -0.20317581971093254 -0.40116859623037227 2.758967489540699E-4 -0.09999999999999998 -0.4 0.30000000000000004 0.30000000000000004 -0.49912001884069596 -0.19594719260128562 -0.18745881346219626 -0.27648208784136064 -0.4573190994697965 -0.42240811964459823 0.004382671474584885 -0.3950398540383593 -0.13958323654569663 0.03271985621988119 0.4138787929487421 0.2993970268572027 -0.40190582177019746 0.19977401581292611 -0.5002218395841226 0.30000000000000004 -0.4] [-0.9014041261456694 -0.4 0.4 0.19999999999999996 -0.39939488814824536 0.4025549167074088 -0.49623772174424374 -0.09334526811483287 0.20484438663129884 0.3145836705047289 0.016277412427003875 0.40707859992704915 0.0034819097237803543 -0.09957641827697292 -0.2997682266648272 -0.40000016050283016 -0.5 -0.3 -0.5 0.19999999999999996 -0.4 0 -0.5 -0.3 -0.09756918471438605 0.3075147251123451 -0.3878276835764451 -0.07289651664748983 0.14558411733505477 0.16390384990280202 -0.4361111631323254 -0.2521161202906661 0.3325838559816622 0.42128382637563017 -0.07863302467081966 0.013550051698533218 0.30378238173405014 -0.39798312419163906 0.2000000000030679 0.4 -0.4 0 -0.5 -0.09999999999999998 0.10270357904656482 -0.39045420313852935 -0.2712129322657067 -0.4350762438306925 0.6112534716789927 -0.3226296597233005 -0.07624383335846888 0.5613471389059825 0.3469361826957648 0.5665126831971934 0.5638600111489143 -0.1907453343835441 -0.48432133628635254 -0.31327047625491433 0.19497630542859568 -4.5337852356938966E-5 -0.49997894000016146 0.29998397130802745 0.09996565280291655 -0.10127442061509825 0.46988847266819567 0.09039395032124936 -0.4412840082057609 -0.2966958483995772 -0.41917974120014284 0.7312429853119564 0.40558605165525674 0.40809233001086975 0.31783366689492437 0.17396564222263688 0.03975869821800308 -0.22457104697295163 -0.1674410967924629 -0.19873420637130573 0.37532900050246576 -0.39652393063342056 0.0999605331574907 0.4999931305605833 0.29692800978928796 0.4840467893521278 0.10362421324206872 -0.40068572707111005 -0.4323999510093149 0.5135487214222322 -0.1990204238686256 -0.23861386601299203 0.8422899247484666 0.6676819185304691 -0.15499708321503836 0.11996613007272247 -0.5725392467274061 0.03543028248424536 0.0152795885348876 0.21695888338096814 0.06624220023192647 0.009646050976484787 0.4025383976106217 -0.398787233456575 0.19358906754042454 -0.5318962400252979 0.2925564652812131 -0.023574603815680897 -0.21860283396588706 -0.48808737041916533 -0.0631526205072332 0.3516680695468526 0.9263261590471632 0.7627720645651234 0.31025981106379974 0.47469404093732714 -0.1635843908307984 -0.34156612299708594 0.26548624556429357 -0.19467520035267444 0.35012753933990337 -0.1641939836199999 0.30221551623040627 -0.4982172191142933 -0.0036819032999343138 0.07094359033236183 0.10753076181584749 0.2110146232745155 -0.27395263931010827 0.19054980785963913 0.026125858547302115 0.9130176051564539 0.9372550459881289 0.426580349843063 -0.36010266064107327 -0.1673573348842256 -0.08649842079204106 -0.17762540618213232 0.19408085920216986 -0.5478516928513761 0.006751732547313703 -0.17518112091075644 0.3978271804264185 0.09981175694349269 -0.20845708945428698 -0.4199078035601934 -0.086848025906222 0.20423502680954633 -0.476383166533374 -0.22193030215186135 0.7014029518994018 0.3217411130946849 0.5068305218914465 0.1510381689213315 0.18969480192366858 -0.2981414180245746 -0.22108889360190595 0.13127759939111633 0.06360668587744246 0.024484221079023955 0.33076307051871234 0.5096722202367072 -0.09798977820393996 0.49926660618289387 0.19273155922853794 0.08845468707534505 0.22426092500564704 0.3939707072909597 0.5466695090372636 0.27034196953495854 0.22153230438357033 0.18827403243161886 -0.39740405069970414 -0.5265263601191076 -0.08935826080171233 -0.64689562701247 -0.07101089358365807 0.09891785731651269 0.6540487003179849 0.5877836266847895 -0.23542354376850025 0.024259963036052778 -0.29373731451313384 0.29961596129453716 -0.007428916388328759 -0.2056839046350802 0.31131318642655137 -0.6577207020037914 -0.3873807061112715 -0.09704223440254965 0.14799693230414207 -0.04894135427746121 -0.03201481259698469 0.1663306629938213 -0.4222326723431337 0.04146210633099143 0.05873373434072473 -0.25461769313283095 -0.4127038862582858 0.08352345553005269 -0.09954245701641577 0.014761863520536265 0.29984978162464726 0.5 0.29333993433408967 0.09324997558059112 -0.155284133914446 0.30753543617155504 0.2650823543020021 -0.025529796121597084 0.04753232655084672 0.10493179747223158 0.06568940284742067 -0.026480068734946297 -0.3031538957399547 -0.400561333951039 0.3151843208070283 -0.06399303679048786 -0.4346091249144088 -0.17458792664928904 -0.456727259439214 0.11842646176075156 -0.2948951520920763 -0.20000033354717986 0.49701415566183477 0.28537869109027403 -0.4501316360781205 0.14236957033355307 -0.4474703655741726 0.20419718658756136 0.39611771831868364 -0.0206412576615175 0.1590343657209356 -0.009741140765831198 -0.01346857315492503 0.19379152642069297 0.0202522064761484 -0.30638270938143075 0.3794734061150442 -0.34629705755267026 -0.2792562986412588 -0.4334525048973859 -0.2903181833617949 -0.5 -0.5055025432609013 0.17601002374195585 0.17556851199806767 0.4253603913203511 -0.001976688642699821 -0.3223799044752327 -0.131772162021285 -0.18401461479511103 -0.27507295802966075 0.2409359970615482 0.07312517119196313 0.07846000401844201 -0.2046604373466946 0.07780690362389203 0.14127029698934354 0.16329308217173233 -0.3677575789651429 -0.14278652412391635 -0.292146295279764 0.3003627279239587 -0.10671875080425038 -0.22797110337925594 -0.34101432613175925 0.15203096379144154 -0.349363514955319 0.3877381743918213 0.6600772065360238 0.14788992637022322 0.4895291501585633 -0.1897107613457412 0.4209963862799181 0.26446489604082424 0.41702280886613924 -0.2063382436715327 0.4826591305799795 0.23901682925501022 -0.17112189366172412 0.3502893461888023 0.10605960248323808 -0.09976471702229713 -0.3080913629284998 -0.1391780780431849 0.3216410855370236 -0.07378451985476434 -0.5988169410884726 0.5220645310861884 -0.2133099310443505 0.18655679130430092 0.0857521883973444 0.4212675881119634 0.2775587411298199 0.2993028069670479 0.30376912422139046 -0.13882950741112224 0.5677393700733129 0.05253806857199077 0.007456205638428132 -0.47335459876365593 0.20294490381009722 0 0.2917887240106034 -0.5234326991653577 0.3736690419804477 -0.18264055710816643 0.29285986379952317 -0.11369018322839303 0.2581231659995146 0.08511283545300304 0.08675662803906826 0.21400606238986014 0.07216992786519989 0.09331030964992572 -0.24189381620518377 -0.3414554933177392 -0.25088311161441623 0.0061125355341990545 0.16170699530758917 -0.08779823879337195 4.368039731334946E-4 -2.0608318250019325E-5 -0.40081230591159106 -0.01147317891327782 0.34098518665278477 -0.38300859480684973 0.12668717471124116 -0.3156498722081976 0.3706944199704502 0.07632699379737637 -0.14699501390365102 -0.0029237132175900706 -0.0591158743185357 0.22781548159975115 -0.3353576795822952 0.19323416363341658 0.318765630718046 -0.30632342625426745 0.12625545942742228 0.012788749556865204 -0.09986155467440411 0.4 0.5 0.49722055755557676 -0.04792567471688593 0.23496678546757607 0.2128393845453439 -0.5371003372099448 0.30191391557023345 0.2256834669673119 -0.2789898664580972 -0.33716356286818727 -0.3911629864015589 -0.1640430577325483 0.20779196088235316 -0.4934229916879862 -0.028431451673069055 0.38784746116375135 -0.2963089578444205 0.30058874809980735 0.19999999999999996 0.19999999999999996 0.4 0.3995365929077891 -0.3058673312537131 0.48327358677964966 0.07724865667968864 0.11708991098650441 -0.0022619484899106096 -0.11269629534817038 0.30595249802406316 0.005701159970421331 0.1273471077362437 0.2127375321117601 -0.12839052070426277 -0.040780803607237195 -0.4665863707038968 0.30790666943316874 2.8801925587489233E-5 0.2000864672723078 -0.4 -0.2 -0.3 -0.4 0.5003146568871513 0.3993686593576239 0.5003157868149765 0.4052093684261471 0.5140258508459755 0.23782820841764415 -0.15358738761935165 -0.36316613816363635 0.33502665864135184 0.13532798412694216 -0.36942010903903566 0.11945341543941446 -0.0899381669373983 -0.2978700360173832 2.0306328442110296E-5 0.4 -0.2] [0.017608169179729186 -0.2 0.09999999999999998 0.5 0.2999527151595541 0.3998003528958955 -0.10021552711043479 -0.19955605772875 -0.19729338210655678 -0.39177885066841284 0.30652112928337066 -0.09664591981977647 -0.09706239086202216 0.20163235571970353 0.3010559961953476 0.40035785761058523 -0.2 0.4 -0.09999999999999998 -0.3 -0.09999999999999998 -0.3 0.19999999999999996 -0.3 -0.4000625983329216 -0.10078336889934844 0.014249330606942544 0.13095228875201098 -0.17401890688745866 -0.16733288340764838 -0.1638121754652103 0.33799827818648476 0.043781821677020986 -0.04533963348694594 -0.16414690879393615 0.5244678924468164 0.30824671738676845 -0.49846238371942314 -0.29998486843514766 0.4 -0.2 0.5 0.09999999999999998 0.4 0.21921833441817587 -0.4485289422321982 0.2944697405563386 0.37156689617374683 -0.24850722361774624 0.5860300324627761 0.08878832557793956 0.27736980068618433 0.4547560430769268 0.16147466918058598 0.24683541281707 -0.0011995734595657977 -0.17453570642390237 -0.18407821461277096 0.2007245711896692 -0.2996190865217591 -0.09998609419676112 0.29999998784151505 -2.6053896561806348E-8 -0.10022428384905512 -0.10153507894005778 0.4981387751887304 0.3304842988492039 0.4249508837021267 0.015769765073281695 0.23344084744869 -0.38025466484440806 0.05548126488709142 0.5941540443839944 0.1562006766929056 0.5182907061308492 0.005858337505833408 -0.24660942512196157 -0.05224952023417077 0.029494488262181706 -0.21671388978330294 -0.006230333413440037 0.3999999947892206 -0.49938935299350284 0.3896312625760026 0.12973085769474102 0.0378042353857554 0.6054674250335005 0.4507655706389017 0.12424403629967821 0.24674317151551245 -0.21722741284788072 0.08794290370504332 -0.9314623590474054 0.1418183927626618 -0.3374707634285127 0.05416561613451633 -0.031888647489773735 0.38506336816758074 0.04185185349829791 0.2491247930585595 0.20047965688116587 0.30053128565281667 -0.49557927746902564 -0.10485127612788711 0.09236309137622983 0.03206483978621338 0.5594849641242476 0.22314523446537457 0.09396656770095148 0.06908841352699241 -1.0526812188147614 -0.2429131674952185 -1.0540085199686535 -0.2331124565070273 0.04425239195134657 0.10560758431168661 -0.13988509872860647 -0.3034117161670972 0.6068805336932499 -0.43791624122816397 -0.07234069346436915 0.20394950842144885 -0.3910625730835947 0.5015118406858516 -0.539208968293453 -0.07252505262467784 -0.0861919182923465 0.2583019885821939 -0.22222895441428872 0.037022641890207736 -0.7134680836284979 -0.875247313676064 -0.9579326923877275 -0.6261458629099558 -0.5530125575310825 -0.08660392470441883 0.17381167959092284 -0.006168710945735991 0.540416221662203 0.16810230061265335 0.2502495272705107 0.10437728637847399 -0.48873713748761816 5.73724527015937E-4 -0.24429599724048232 0.31166862345996427 0.16936107544160456 0.3231982979212475 0.3894888071740458 0.0929843111880317 -0.08945995594662405 -0.09844696841094856 -0.24249535054294785 0.44561888231625707 0.09907865501333062 0.5521085126256132 0.08154015811318294 0.6007851419051624 0.2521178663105058 0.6015745399726501 -0.27065961437141495 0.0032325365287584357 -0.18911206648584863 -0.4058044906527191 -0.023278391259279302 0.21095833912705497 0.3892270578168448 0.020371778073159864 0.4570994590037862 0.2880749833683705 -0.02966639921702291 -0.41249186518060704 -0.14256093685976595 0.5945761380204484 0.6721908140100937 0.24384255773862706 0.5101174080625449 -0.12963171179038704 0.07761088635974263 0.2283196019400875 -0.3935713397037038 0.10184163244103284 0.4051820569485959 0.1975681832570979 0.31786166907833213 -0.3785874809240172 0.02978412484484369 0.1542541710256072 -0.02485304856043177 0.35940087267386267 0.0066684975029626635 -0.345689546038739 -0.6721519856549802 0.3607258566690262 0.2914465455792648 0.414202161130129 -0.07074131938567302 -0.4127651915569066 0.43495598558013887 -0.4662281499648068 0.3058099783031876 0 -0.29829934941370656 -0.3932251268399237 -0.37979812266455504 0.4415669604152692 0.2511360871955905 -0.0205539786964941 -0.21646071989999577 0.38346155604709253 -0.6547889363834408 0.059598194179306105 -0.30453480662191107 -0.2783580345218203 -0.02551421165714974 -0.4403731426755774 0.10316210732726844 -0.3772320002512893 0.12198737294704305 0.31025916356209493 -0.50102880092344 0.19992659896538806 0.29940675380582626 0.29970661952385025 -0.23865144734793425 -0.09897723319943011 7.538756676244284E-4 0.27242692847936023 -0.3044445651021468 -0.7258205238225152 0.20482119990142042 -0.15852466659037945 -0.24861337313419957 0.013226579988684642 -0.19320892579106191 0.6245843476222963 0.45933208586346774 -0.35913522135785053 -0.030141886407905712 -0.4311157914697555 0.0888207701966541 0.19999999999999996 0.3973626363244855 0.28181946263848695 0.45071779918495003 -0.3305574644123149 -0.21909250054530588 -0.5645975615248021 0.2846661034031788 -0.4792015798352852 -0.12148380632831571 -0.4199039264322826 -0.30226145517061437 -0.3673774643482863 0.36111821803332694 -0.048221870524624476 0.014388472538961979 0.5876878405994778 0.40983347351133126 0.36561216238969574 0.3887436697719304 -0.2996493724953646 0.39833983948135127 -0.11058041392496037 0.4546875860407686 0.055596616819266025 -0.3731655389848248 0.12319563290014492 -0.03252471279921951 -0.07643282475615354 0.377916280722446 0.1397098105882675 -0.2544646265304341 -0.34476157712414807 0.5318857850206682 0.18208324784864133 0.35465908479473396 -0.4699712187399892 -0.5280214668831302 -0.5181223295864693 -0.3033501278028638 2.2743405706068104E-4 -0.2638654685721937 -0.050434548856457546 0.09155953903083648 -0.2923583549080927 -0.17232141329726736 0.20944935156903685 0.015917090697853006 0.08678019254326128 0.4257454285231247 -0.21802893862126216 -0.5600824966423319 -0.26501100593175686 0.054985682212869536 -0.1334112128837185 0.30632151513552713 -0.37080263866657476 0.43453872163982404 0.38491786971828823 0.29683651088753243 -0.2 0.4428977110195981 -0.35093343408593086 0.4528288254429632 0.17142760486355424 -0.06583305492262283 -0.4568173132988077 -0.06044410562953768 -0.2338585501592474 -0.328897890920424 0.3163745344755724 -0.20016619790272808 -0.24724602109009447 0.17883577835310968 -0.32035073157395105 0.06105076235379778 0.36401072929344014 0.33841495336690597 0.18984552311795758 -0.3000053624849147 0.19999998436766211 0.11720201421754864 -0.3655840329379787 -0.5251608349809127 -0.4200544599253609 -0.6403984468753816 -0.3184014909157934 -0.4669959169957109 -0.432457521157007 -0.3506700252970649 -0.2525314103877137 -0.4676470403582767 0.1392542928252107 0.0664513384225092 0.45333092555480725 -0.05117785766995583 0.01330710429768744 0.16809453015110076 -0.014068518107732884 0.20001489427128535 -0.09999999999999998 0.09999999999999998 -0.0014303562573648614 0.38806305637083505 -0.24761735495019802 -0.34554883804778586 -0.22664161774730401 -0.5365535264296225 0.12737263167491666 0.2867986319505314 -0.39102742883420877 0.037190840507154196 0.14543031900261183 -0.5278355239535037 0.285604490772642 0.2385889116479392 0.36018955952328274 0.09207953280881806 0.2999921212967039 0.4 -0.09999999999999998 -0.09999999999999998 -2.890952176145054E-4 0.492845630220379 0.18200002115274405 0.15936728203302764 0.2763393495094322 -0.5094611206468411 -0.37536518389134493 -0.13102758279638627 0.3163765208733388 -0.42142480520197617 -0.49419880728790877 -0.3504606324267216 0.06338395591361719 -0.38755167369876015 0.17103361389116603 0.49425974669052736 -6.316303561191365E-6 -0.3 -0.3 -0.4 0 -0.20302044144099235 -0.10723455562909652 0.4886299002881976 0.5004147189480446 0.3081027231267495 -0.37830696359931093 0.3324197199481225 -0.3668223754447452 -0.38612891947670985 0.29478481238251053 0.07433547876262561 0.46591245484327404 0.08245964228313053 0.09737088937972378 0.3999001406538863 -0.5 -0.4] [0.7168362134588365 -0.09999999999999998 0.09999999999999998 0 -0.29999999855277354 6.110512159237807E-9 0.20000009608443287 0.20000569162563897 0.2000344594732616 -0.4012029039983737 -0.201413325600496 -0.5002286980693373 -0.30021448950243823 0.3987438276421281 0.1985516524660275 0.09922243405779653 0.30000000000000004 -0.3 -0.5 -0.2 0.5 0.4 -0.5 0.5 -0.10000039633080714 0.49805198007629237 -0.30313516314269673 -0.3028567373384284 0.0963405548393315 0.06307604602673265 0.04657777187670269 0.35862592371114765 -0.3212154307274547 0.0728367119292238 0.18695982404919936 -0.40330828615240866 -0.2089681655427442 0.3903656494822304 -0.3002802777821821 -0.5 0.5 0.09999999999999998 0.30000000000000004 -0.4 -0.4867794177413627 -0.1892630015456859 -0.10800771852205772 0.010060569014921495 0.1393282511164469 -0.37534275144169676 0.14847809326987751 -0.37293571497875216 -0.3636767126656822 -0.021817763038152763 -0.35481007538373166 -0.4611922865046793 0.4683445356082522 -0.21926910878467776 0.28612414953188603 0.18933829518375112 0.09702762517533714 -0.4999565990927717 -0.2999069980559399 -0.09975649923857427 -0.0022107029095638393 -0.5265720758376965 -0.5641841635788147 0.14134600980332043 -0.569805538503421 -0.6118102427846948 0.11199541768839856 -0.05225650035241618 0.2197488690327401 -0.07031462022894497 0.069968502508863 -0.07089666012547556 -0.0982642569380316 0.5962136263586403 0.23652523439513237 0.1885827243788623 -0.010574503510399829 -0.39998139961118784 -0.3998333887339639 0.1081061459804428 0.3808711312634618 -0.5442441729295747 0.25452342464321825 0.2174793817646422 -0.010733306371117916 -0.23066811992802608 -0.576577155053619 -0.1632672280906283 -0.11532693907274286 -0.5670304939405956 -0.19433636615864566 0.0036546756818253887 0.4404464867800046 0.3031969170265249 0.1198795425939799 -0.34879294262444765 0.09333045445737692 0.4004783781755603 -0.19385393643939014 -0.06274693431857994 0.22656907866352383 0.5660927250655331 0.06838810200611847 0.009265152043819653 0.20329884084877753 0.2817532496310891 0.020681639628642626 -0.0922422195201643 0.12093342300365954 0.3506358629427641 0.2225126426681977 0.16436124303968144 0.03879819782103128 0.901093024634375 0.3657043432455961 0.5107007844047166 -0.06065809495422269 -0.497302032561652 -0.3844985729778888 -0.34338885960404986 -0.15596073606669422 0.07474418158132909 -0.317603684311626 -0.47691985841675455 0.09225444659653662 -0.10183566954326104 0.19141559843527328 0.34404131857303305 0.4967649120860996 0.28142704608813657 0.3769895732048871 -0.39185284607369736 0.14207920273166194 0.993759758335578 0.3241221284406692 -0.20368693019214673 -0.22951676915468675 -0.09782791631375802 -0.08647849946877742 -0.22989611186687267 0.20210794977839422 0.17782682031503907 0.17158389469134439 0.2161768989169043 0.2586076395040972 0.5348993164302618 0.5832993633507857 0.5711378176924138 0.6230986157342288 -0.19574771409540015 0.2515907333671375 0.0611408829654956 0.39159798936914886 0.24688238490308936 0.471158188869706 -0.2937458722664481 -0.1419239169424289 -0.29881857779302884 0.3070543460714229 -0.37289075885023637 0.08678853586387746 0.4517239443663857 0.006543615987390999 0.39224420962796985 0.06274150189515315 0.2816302741469775 0.39944813803490026 -0.1937387153348224 -0.6780310925117248 -0.5377591105828676 -0.4116584422513664 -0.4106077675869189 -0.3662860511003341 9.137483410546782E-4 -0.2767843298168475 0.5723656305837537 -0.07821893188894852 -0.4994600759235417 -0.18253210138619316 0.43593164298801435 -0.023791734716158783 -0.06643664140698707 0.010988533907509687 0.14174498964458876 0.17372714830830732 0.03797757524106671 -0.7778538123718022 -0.5345212969612732 -0.5193320262765684 -0.1704458668973809 -0.07108519489126083 -0.4861420709378939 -0.46061777725695824 -0.5604926757592961 -0.05730883670473069 0.3299630356090651 0.10225759016596526 0 0.41846715068856355 -0.18678632112286545 -0.21497456638012455 -0.20136917290691433 -0.13893277864064157 -0.15710821400043667 -0.5879963649973777 -0.8298088285658437 -0.8793541369193076 -1.63637070776284 -0.4422175395673069 -0.23778870214965211 -0.2829946481686471 -0.312446555925941 -0.14200446618313897 -0.42439831607052475 0.4622889678320184 0.005279027358670714 -0.40003007754628694 -0.39999357582084066 -0.19876891716076947 0.5055300123931883 -0.2867263104401662 0.08940732005603906 -0.288227650013861 -0.7894387963016426 -0.6780033137830432 -1.5924163987031774 -1.4913615912402316 -1.0137297927638211 -0.03773420152492303 -0.28205599233042244 0.25809162922545625 0.4826833902727199 0.6678797693520023 0.02377650626900606 -0.1785890473244854 0.3258698208654258 0.400168875848915 -0.2 -0.29887586645215863 -0.10346241308432114 -0.4316062295264236 0.10237528536476595 -0.5751044389999032 -0.984670332422969 -1.0382286186853558 -1.2140167277566287 -1.007085164289604 -0.8769899839666014 -0.06478187149773457 -0.15141910865847583 0.059504441143586224 0.37285489584443837 0.4380043800725378 -0.241508875449745 0.3302735892916451 0.4283945631843322 -0.10084954385280442 -0.40000459716682907 0.003283538089241353 -0.46587460652000623 0.5960860848894662 0.04733873375381504 -0.11775760957371832 -0.3389347875599813 0.219797982106325 -0.031585187751920915 -0.8851374952639454 0.24731678326565484 -0.14051703380783576 0.4323267463722933 0.30250631423795443 -0.18409321747384108 0.4580564538018099 0.13618317357080473 0.11399237850933028 -0.519625263998172 -0.5044360015694158 -0.5000029819460514 0.3125874048362771 0.5617574508390524 -0.33350888133039736 -0.12114292649947875 0.6351665177274755 -0.01365700704340548 0.34882873236787465 0.26795415970122105 0.018834912789524656 0.29689763048217804 0.2486635075518743 0.3373509013000095 0.005955549140368884 0.16543799435556972 0.3791614603411473 -0.2299579987338282 -0.04486329135936172 0.08157043645063727 -0.0039544973260616225 0.5 -0.2854981463080328 0.4179200980156279 -0.4278088225278625 0.20614724024904932 0.24366311974236346 0.1467017032025228 0.23772676951770944 0.24742588661682502 0.23312428956871117 0.24330257352136422 0.24329240532097293 0.08781829208997272 0.5476618270084053 -0.5997419648680915 0.19860194092629688 -0.6243408918996407 0.306936798886161 0.49291383381779663 -0.20010174073730172 -0.09994419883356392 0.10532354430285554 -0.09119919058975413 -0.4500620261674369 0.3108185779906972 0.8330479730727406 0.31882871258412193 0.4227129700283808 0.41584974482962755 0.15987524799028674 0.36466632842267155 0.11461030760507848 0.13431855601518894 0.379159972554281 0.31581692135424533 -0.09820626117037382 0.42142976676412225 -0.042967671873696774 0.09107043881888101 0.4999473488591988 -0.4 0.5 -0.5069065453528425 0.3194406547745578 0.17971747322318027 0.2229696290388998 0.1274884554764809 0.25930827686801267 0.10230118327152905 0.028443593476448488 0.22523564263275955 0.07603537623970716 -0.3394965221348796 -0.010368709902598978 -0.47429587322359035 0.05571656536724765 -0.02499450678741789 -0.10176329174664922 0.39999594733040966 -0.2 -0.5 0.4 -0.3998790506098148 0.031416345910907174 -0.10214038282868339 0.5787334040721471 0.07685971524126513 0.3447025232495949 -0.10902346568507298 -0.026641743259269924 0.5082969544874755 0.10904732913236367 0.5159102068975333 -0.27510322282750654 -0.15555298562507897 -0.4020928432989057 0.4768098696015878 -0.31085972426412106 0.4000004189593121 0 -0.3 -0.4 -0.09999999999999998 -0.09092597137245972 -0.1742265734331396 -0.17231095424381818 -0.15979323017228947 -0.06264892955698591 0.46655756940859605 0.639944270695572 0.48293989266573195 0.01304676431279839 -0.14297941241025236 0.12078778583037833 0.2864655511044535 0.4810775687166102 0.3941477454134221 0.498924319772213 0.09999999999999998 -0.3] [0.22554770228417792 0.09999999999999998 -0.2 0.4 0.4999999134780487 -0.400000365314905 0.39978719103561633 -0.30054764579839394 0.1996911562648774 -0.006357006815953422 -0.2082886287743609 -0.3030352301723131 0.3988489618364899 0.3988715176430675 0.2984708608512826 -0.3004654183282496 -0.2 -0.4 -0.09999999999999998 -0.3 -0.2 0 0.30000000000000004 0.30000000000000004 -7.246103216435986E-6 -0.3983918730519658 -0.10351772991981147 -0.12313763229003911 -0.12828124459557044 0.07465281072331822 0.17709307037255564 -0.027829941840157083 -0.4223236905580123 0.2846905271416497 -0.5312657968939438 -0.3322994994435975 0.4874648366926095 0.09431095595779332 0.0997118027612984 0 -0.2 -0.2 0.19999999999999996 -0.5 -0.5095741947644636 -0.01640692955251799 -0.14428403271136478 -0.4929771144867845 -0.4168040030709836 0.2981642218173445 0.3040171227976622 0.4372667422705512 -0.3932277128305421 0.3679543728085044 -0.14602079759386521 -0.03649554139101655 0.15374581362583128 -0.4241725828513347 -0.010065521012661127 -0.00235424083247155 0.10005601376320189 0.1999904655036033 -0.10002043106370741 2.3742918176639782E-4 0.5064129230022517 0.4187487387087917 -0.41271887604703816 0.20821177180232633 0.248429131592635 -0.18417061948014718 -0.02982271428909923 -0.1338260732573563 0.16141414679009375 -0.17197926319479262 -0.4006918969537948 0.13112637231505136 0.011936581393744154 0.3434462232750033 -0.5282060513794573 0.311825101201332 -0.29366327264195013 -0.3000040862127417 0.2981962742578128 0.49953657943718727 -0.2621184547231522 0.5536950258285951 -0.4980114548510294 -0.61411988676431 -0.531175480319124 0.32069471221394513 -0.3919744916226309 0.25561480082720395 0.002080213356622002 -0.2651740003110648 -0.20695972669187807 0.22712908720399333 -0.32219358701964107 -0.004412118219307234 0.06422049914694844 -0.31395604580318 -0.49590160047000914 0.1997986423945727 -0.005541478657973982 0.19324076300745022 0.29409151380241644 0.3645225347461699 -0.3783658811988464 -0.12447079938277139 -0.2807627163020771 0.33847506482872414 -0.578243454115759 0.29843327887084736 0.5666986441440907 -0.1359449313590234 0.23672838885922248 0.20470398141424762 0.34304520804943195 0.2774473959753701 0.22617345634010447 -0.10553686247035793 0.494137573263276 0.0994092867496693 0.1945167453213969 -0.11085728646231416 0.4430895574433027 0.1319443572768252 0.4352376323116063 -0.3264766363827254 -0.1899956831922254 0.7021183734183187 -0.18047918899344617 0.5218184041130133 0.4744302705734776 0.45001307160642884 0.33224119084812304 0.14178396490403475 0.5477179188634962 -0.2107448011796525 0.08017199540323312 0.16192339354225949 -0.5075521962381369 0.29981682548399896 0.2949445825801721 0.2708827725407336 -0.055077979306009155 0.34467909685416 -0.27317617912377906 0.23579775824408605 -0.36211629264074746 0.0426756293257035 0.1296303063508863 0.10488029539942233 0.5012672317522784 -0.21428641443383464 0.10250404840272091 -0.1795869042033034 -0.0018554258182242552 -0.010854230858798187 -0.5821895549349618 0.07805558320627877 0.10018056283915035 -0.10014320987955176 -0.305038761027663 -0.09893949736191515 -0.3860064482546624 0.24320916933209386 -0.2518149735620911 0.26991266330948754 0.5628429758934849 0.4740674524169047 -0.24933495900467847 -0.09959497993551755 -0.01896341099398056 0.4582137306389416 0.6354018269420308 0.5049941988100889 -0.49726811321235687 0.041284202356374665 -0.15613655429132117 -0.22209130084559572 -0.20758679857718115 -0.40008914811731927 0.19733782124774618 -0.19420803152050223 0.550538857635134 0.6374530112071499 0.12527222861260398 0.5634881591182264 0.24718881776326984 0.014919066387601551 0.1136638416111005 -0.3546873069168062 -0.4127796305482054 -0.5830513748784276 0.02510676778197895 0.44203229976277825 0.5985915661204156 -0.018633748255646197 0.33319713086357217 -0.21975148572540631 -0.003922273814376265 -0.4 0.39772044385907546 -0.5014098458477259 0.018647280061048592 -0.4497375752223612 0.11129513872436617 0.6872295986465039 0.34253796790606167 0.3263255504959273 0.5877451655004029 -0.2838762231073072 -0.7979286471686671 -0.18643619620821061 -0.38309418300278597 -0.6876893167706304 -0.1448689737989334 0.47796644290704154 -0.27387313187567425 -0.49875569068089937 -0.30522171173573925 -0.29985227791378105 -0.5012314780137673 0.49743860181973004 -0.4297012270816633 0.503279685102409 0.47692954545760036 -0.06428599783889605 -0.6262684393753594 0.20266766219758475 0.48887297293364634 -0.1185924113983447 -0.5485000530132947 -0.40871708954210295 0.04531786368619589 -0.2655872316575406 -0.2877577046560989 0.004871760825375163 -0.3595893342388951 0.4869952512653484 0.19808706817255417 0.30000000000000004 0.2988685439095679 0.08664570136421598 -0.3600476419668619 -0.28054692323675345 -0.42724901292356443 0.2083586084136409 0.44097839646760945 0.469509197934164 -0.04493149579574668 -0.2150813605311054 0.2910610465940424 -0.1991035596475648 0.2722186110264344 -0.06628985828277348 -0.24458933150197876 -0.3315462980185308 0.3267034271637051 -0.508689267909665 -2.4152094233921502E-4 -0.5006065057549706 0.39903362000575493 -0.3237419820711286 0.2502081304716608 0.08568168890518424 0.2644625931287109 -0.40715993155472785 -0.2358060527603362 -0.5167596103640671 -0.21170537967426606 -0.639851896497195 0.2729850722316611 -0.15553017293682495 0.49828421982114685 -0.5175662959402025 0.314563387485416 -0.3401181002551923 0.08587877755319015 0.3887368639464588 0.2960279131299644 -0.1003934091383588 -0.1116676841777109 0.4151753914702599 0.085447082243719 -0.33455316363805065 -0.008820575791098781 -0.44871468552915567 -0.537471677332193 -0.5959510211890996 0.12220867845879783 0.2422502787449541 -0.591027666884903 -0.35700365886654106 0.2896711607343571 -0.24503781657770807 -0.11802283946540744 0.21819760366177635 0.38868407627035284 -0.40576136168087146 -0.0017608743257909326 -0.3 -0.513747706580323 0.1763559286412375 0.12780665836562533 0.10714123604924676 0.15925507190782945 0.13937579317309162 0.12899328422400286 0.1985505738941904 -0.20999156364582194 0.09484871319237713 0.305085421787026 0.40129983815353154 -0.4017730962270697 -0.44108554671232647 0.14420838655967588 0.3688657424740764 -0.40874824159828305 0.39877416128631726 0.19927073696653136 0.09998774136177559 0.49409433175911754 -0.11087703905671752 0.47648688936673483 -0.0887651821445997 -0.44194226717499463 0.4173473675866935 0.5622429045067676 0.6541860333992064 0.37380642433585354 0.4528585122472213 0.2443393048550458 -0.08340442468744706 0.2606760081551734 0.5646021540540277 -0.08943443475728594 -0.006915875219032158 0.1974477970611783 -0.20437207757637987 -0.10021386563065311 0.30000000000000004 -0.2 0.2010080294661683 -0.3034773498912214 -0.013775661282186836 0.46436051903245823 0.1433384290072936 -0.3381995436043082 