 [[-0.36871479169410565 -0.09999999999999998 -0.3 -0.3 0.3999793620552592 0.19991286201109498 0.49990682438100736 -1.2548880011670492E-4 0.3998824483629325 -1.2412113568069548E-4 -0.4000041017593636 0.19951572727932196 -0.3002408504229403 -0.4994266906996606 -0.0997789239385024 -0.29997909140657925 0.4 -0.4 0.30000000000000004 0.30000000000000004 -0.2 -0.5 -0.5 0.4 0.19986322070922763 -0.10099826514401355 0.002598231258570636 -0.19441684184533561 -0.19696780448556905 -0.30136038531926684 -0.39840493305729613 0.4104085376370838 -0.1926081786038473 0.42455655237639833 -0.1875833414381887 0.20690343985742357 -0.4963633023862575 0.3017086521105614 0.10001606170500654 0.5 -0.2 0.4 0.4 0.5 -0.49993694704010844 -0.10381851366802076 -0.4997341131204167 -0.08960848785581045 -0.31332286549181965 -0.22409275671834958 0.08883928589469886 -0.018846887709030827 -0.2005931915020869 0.5338095524225724 -0.055989995003543104 0.33411578139932935 0.5160659794810554 -0.49273799465569207 -0.09865554045538034 -0.29961947038553094 -0.2999966715425221 0.4000983927885406 0.30021084168972967 -0.4997588544141339 -0.09315129795543674 0.3980917208017141 0.48214561517167176 -0.22011740970525986 0.3261430145308995 -0.14180595232000687 -0.3528756513866523 0.27560934900930306 0.29783181325267766 -0.4629820034769227 -0.6934580702317197 -0.22448924588582228 -0.5743303682140657 -0.5400765073325439 -0.3102523127106625 -0.30037898149831266 5.872949510748184E-4 -0.49995783166205415 -0.39912996688174146 0.505054010530721 0.5009952236379464 -0.5158291683801774 0.34357685828868556 0.04988589561287664 -0.07512834012684816 0.15332987522483119 0.1176944820979431 -0.11025641536953183 -0.35788138492068633 -0.04422950516377864 -0.03566149113142559 -0.0569716792895454 -0.3318100309632738 -0.361430912992097 0.09149901429336466 -0.3029358924001754 0.39941224707353035 -0.401310457375663 0.1991933858180637 0.519151533438366 0.21760035436288375 0.06283828789100454 -0.14593006591982724 -0.36194203072930786 -0.39132828061959596 -0.11808257897342697 0.1939574965274844 -0.09296274967975364 0.18537735607543726 0.2429306514869207 0.6258260050819496 -0.1895874880922358 0.12731121928903147 -0.5334472344861921 -0.3057215588045767 -0.5095462096619577 0.09936629235355099 0.19771032992538123 -0.4019105944276024 0.42293674174395823 0.29486036536086996 0.41017361608007247 0.016916446368313773 0.34892413260562766 0.24836808401393493 -0.002669131545305322 -0.3033619668326523 -0.28954712358994966 -0.06242285264106368 -0.07770413895973134 0.13249684069899126 -0.47342833937102147 0.3460714716055617 0.5179248017564655 -0.08438100595790075 -0.21189012422670855 -0.20508437628081988 0.2995639822209149 -0.19372308912951414 0.1018774197530382 -0.2659402944258918 -0.4648823581639373 -0.18869086084943373 0.4076833647628287 0.18904670002918125 -0.2758610000391436 0.0555497123288943 -0.02493024942847479 0.2965592392973524 0.2141790092983247 -0.06327447417817719 0.20936991676030772 -0.30203371897773235 0.05491554546240928 0.4396123881676798 0.3679278740471956 0.48399928265425435 -0.10020525215122546 -0.4926953016918664 -0.20224022231001149 -0.28013113124744216 0.24972790701309858 0.41334218231831754 -0.04042369976823384 0.722248341521791 0.4905659451018509 0.30734848232967116 0.1037328034480446 -0.18414158036035158 0.25699173559964694 -0.052205447446585805 -0.3088129553392073 0.43031971006685993 -0.07040853642346379 0.057582374361349935 0.2722033988524956 -0.30707396422518385 -0.2001151391061797 0.0038174132131946164 -0.5064971366782618 0.22326694327859928 -0.19138721937293227 -0.13334164097052342 0.09205180161047692 0.13289533151982738 0.1547649352760224 0.13673630749077328 -0.520433947784022 -0.11837324102816549 0.14670147795762542 0.34305561690805686 -0.47358064359851926 -0.5408917359442872 -0.32142297791573105 -0.23188356711215488 -0.310626377340468 0.49999539663850434 0 0.20289561778227116 0.4000776713977555 0.14674481540162193 0.16981880701269322 -0.16228745096700228 -0.5672891975825568 0.061816239210463614 -0.3499941357251003 0.16926291939322125 -0.38727470353196997 0.20663671700015707 -0.14165217054556833 0.2845186764634907 -0.26664288989805174 -0.3315676371264459 0.2526568345948415 0.2762819683937326 0.17669799459920593 -0.0021071101982196466 0.39999960808775786 0.20467217044014893 0.5094637610970939 -0.4088716427600823 0.07605894341450603 0.21991139367829177 0.12606707672031206 -0.4207441343718142 -0.4588110971626758 -0.8573727634433551 0.23485651688350315 0.4572551937922623 -0.045098707260972565 -0.16649219443054616 -0.3089624848054899 0.146944560515124 -0.07524927533684217 0.37701140695239116 -0.24095173710021103 -0.30403398562561684 0 0.10860898386970004 0.5123925420461432 -0.23401104038661874 0.11659246307581367 0.4363760702095349 0.13447463311863755 -0.677056070194991 -0.5695451280929335 -0.21702009361398883 0.23032994481197683 -0.17529311660119545 -0.5227229754739209 0.41440461469205503 -0.49385608729054714 -0.5059280489308035 0.16748621510317938 -0.2660757042750107 -0.13147304888769196 0.4949161957771665 0.19988365456685822 -0.39484906119718555 0.5110809146616998 -0.5238993822058083 0.29232658540056794 0.33047142901855436 0.0027016420550827385 0.45706886833723676 0.20172065076750517 0.4417644777965955 -0.24651033527310276 0.252096535613968 -0.36777217569231807 -0.3259363574001012 0.21442608813267938 -0.4829892763622126 0.3153972071231609 -0.5797335812562369 0.46583229480508137 -0.3041256751316056 -7.546730798382398E-5 -0.19696811821635485 0.0038906755343992216 -0.5175544572412084 0.11877932835741765 -0.40431516947721524 0.022012086598365604 -0.5558976194547014 0.3242791265754514 0.2664393971301247 -0.373407450240516 -0.5003383513998566 0.3415683970559352 -0.48450467261397917 0.11147923606177679 -0.22766651260517276 -0.5177385490774123 0.3290918684986591 0.07216295801609805 -0.5053082938184292 -0.5 0.302895308556266 0.4047997074799275 -0.5404233349249156 -0.012287581086023474 -0.6046563713648417 0.3493065285445127 0.06206696089636629 -0.008202902168958966 0.40351548253248526 -0.6753203895371744 0.03361384476965179 -0.6187975179170656 0.2493614315660483 -0.2971174820458901 -0.5833789481221447 0.4124352249003746 -0.44278799683805403 -0.2050415212095759 -0.10018006681518844 -0.19987349498616247 0.501330589373634 0.4075242240152885 -0.19590955723562628 -0.04516794582878811 0.47789736623342943 -0.425561834472337 -0.27028253533616203 0.09382494044167637 -0.5280708924040897 0.20598338450305745 0.2508880982640479 -0.4225820929667214 0.24763820735456857 -0.21673187078202258 -0.03379317741886811 -0.12858090476535858 -0.415901260530622 0.19905129670144692 -0.2000825289342012 0.5 0.09999999999999998 -0.2968668828189746 -0.1727047283514317 0.2803197165592968 0.6554762856265801 -0.1749796246471188 0.46997400038442383 -0.11426247804030963 -0.40169739168484103 0.06159188602463713 -0.5606627547358893 -0.015659346982040148 -0.09651736757474717 0.5229190671587114 0.10308165518157482 -0.2986283104589956 -0.30053121963813545 -0.30010154794296423 -0.4 0 -0.3 0.10076961981656955 -0.4838457252985756 -0.4306893780742363 -0.24971157873400282 0.5528290067574863 -0.15687504110757094 0.00396439599452151 0.3658188720228584 -0.2136424493741359 -0.0071456065063033565 0.4374268652173253 -0.06561535138277506 -0.07575923720905016 0.31122189563951197 0.10358927635327081 0.10014012656912002 0.39999952248059883 0.4 0.5 0.09999999999999998 -0.3 -0.4969833909978112 -0.38790301075111344 0.01916703474063059 0.42178594736796887 -0.2801499881873532 -0.3777470781733787 0.033189603295198315 -0.1691479501619719 0.5293900060020466 0.22275589960655423 0.2141115018789414 0.30530831415457726 0.40120178495699516 0.5005268482176529 -0.30000789210965195 -0.2 0.09999999999999998] [0.19002317112778289 -0.5 0.30000000000000004 0.30000000000000004 0.30062229575254035 0.0026274709551693635 -0.1975108000483474 -0.1975443575977112 -0.20021847272681667 0.19854559071019437 -0.10153002897577862 -0.10041662712643708 0.40026549493428953 0.3998975670072508 -0.3000490846568515 -0.2999998392446418 0.19999999999999996 0.09999999999999998 -0.5 0.5 0 0.30000000000000004 0.4 0.4 0.301792097123344 0.10592456856866912 -0.0966581417205781 -0.0015801106740235746 0.29206093966641233 0.0868557052263473 0.284994805514235 0.49041510721903486 -0.11178889019192913 0.28817422096843 -0.003745419868254807 -0.5021580743698595 -0.0013701297281836302 -0.4001034640200218 -0.30000024461927643 0.30000000000000004 0.30000000000000004 0 -0.5 -0.09999999999999998 0.4972383385202153 0.4919293658545546 -0.406495139025671 0.5006133756192828 0.30080198490354637 -0.11450362749824508 -0.4882627077701212 -0.21326041731359108 -0.3643411786030804 -0.3487083953486809 -0.4539579452877419 -0.14083481122107705 -0.20623497720704942 0.09464307139667916 0.29561371823342686 -0.40221882150732785 0.09976105824923771 -0.2999998895989797 0.10000023657361452 0.5000780549498289 0.2982787630448188 -0.4002030982326171 -0.09849151476472234 -0.4679881461379821 -0.3404809481466818 0.0815728018983219 -0.2783711958871079 0.2248873256483486 0.421220068983425 -0.3862021247416852 -0.10507585378510562 -0.3903487107402841 0.0548915460957638 0.051545530389487663 -0.11963440003405212 -0.3081065927582862 -0.1007301137938769 0.40000004731472283 0.29976311725800175 0.40100135031602857 -0.38676523489745646 -0.4737482145352117 0.09088821570510631 -0.14341643105786173 0.11735706147486465 -0.09944419793910475 0.13284554469892834 -0.21222313947531532 -0.4506990294591537 0.07747134988004702 0.4058956034938041 0.26642270425270465 -0.025193626957045353 0.40180060108603594 -0.5526682749208006 0.08218663531403483 -0.29890434021044904 0.19979062176806658 -0.2014910461139564 -0.3990277824645775 -0.2648207481295545 -0.1651978892702841 0.23017149514219754 -0.09594618185332132 0.14544548080995362 0.512902392254917 0.2765419122249664 -0.49127886932628734 -0.49419190676440633 -0.5852819924395769 -0.5542208046664253 -0.28983673550649813 0.06205848756130216 0.05301919551800941 -0.2426288855420998 0.39813566136890416 -0.09996386092744479 0.19969774365834023 -0.0011465690027510234 -0.4873703503916005 0.23143290845322664 0.3297303023095885 0.2671724500645397 0.12407612907835389 0.6251803517828576 -0.45029192224146947 -0.28429447054943596 0.21286425439420747 -0.5422032324795317 -0.5766229064607896 -0.10706738791464404 -0.25187193664949253 0.06712287252551791 -0.21131179440445239 0.6045350667623738 -0.30409393183807415 0.19496915481852595 0.5000010398664695 -0.3003168331876386 0.5214368553752163 0.1016041004090395 -0.4216943591996622 -0.43916374143721415 -0.00834040278889905 -0.08846989456260561 0.03502218353045686 0.08911183832748149 0.19096957430305658 -0.1556126302680943 -0.037327533277309165 0.25377163225025745 0.223363454935201 -0.12778251714915034 -0.06509182354676589 -0.3880319591284554 -0.4998726763903662 -9.65908861288638E-4 3.715237988878296E-5 0.10037117549569229 0.20910455700210165 -0.22182391950714359 -0.34404734207076626 -0.6130334929563768 -0.41703406087988 -0.7624569017881879 0.5817188782231962 0.020422478405565502 0.33197139099707196 -0.12782266464727554 0.36031083721209145 -0.5683655271760764 0.5017415194402064 0.2212133466724165 -0.37283879486212473 0.008594787483117509 0.40974654536654126 0.001950030017534477 0.20000017786018418 -0.49828150421931056 -0.3014763585336253 -0.2570806758779514 -0.37198832018599737 -0.49799522525413503 -0.8257883031195041 -0.2550136053953835 -0.1682364426739827 -0.2814615665586844 0.24502727827221155 -0.0010569788428507918 -0.29473906701089203 -0.6462876486024747 0.2773150268098363 -0.1744285292387711 -0.32263518923915596 0.40716519484097763 0.3063467360162895 0.2995116639954391 -0.5 -0.09791224603755999 7.142798869285222E-4 0.14910871590068622 -0.020238876247113825 -0.014591100529404374 -0.3321106174902713 -0.5301761637736019 -0.01779102572931691 -0.11217102511531454 -0.3239254897834873 0.10544010058777947 -0.42211852640686476 -0.46518993406892334 0.44333886331064976 0.18914361295166213 -0.4153076531500062 0.517519451275603 0.01562684271140058 -0.3975187171474963 0.29999998287832436 -0.0995492394759389 -0.29338490583483634 -0.41781076493263836 0.4329540070840456 0.12094718188201334 0.34780513104658084 0.30323547573421483 -0.13931818330639448 0.39663014994518425 -0.20515834330246244 0.045542904293132694 0.39444608022466654 -0.12925668639123286 0.34609289943233323 -0.3132570266606806 0.24512780540778586 -0.026386175055059184 0.4416247450135131 0.40718847409456416 -0.4 -0.39910609722257906 0.12377156162716171 -0.2816962156619992 0.3059765351035079 -0.30563614147502544 -0.004181831983515838 0.15916388088122063 0.024271611585216644 0.18475133548549927 0.2624331446877046 -0.09394581041888964 0.07615403987749042 0.2857156180091813 -0.5325368846700168 0.384119217492107 0.4322167418340822 -0.46031302371765737 -0.3792580325958587 0.3051146304261476 -0.29999224598975843 -0.29868501883863086 0.43215780678302435 -0.16783226758687836 0.0800534957352517 0.041286395293444654 -0.36221580475409637 -0.029255611549657567 -0.44521446374850715 -0.40171257441945113 -0.4514591084025902 -0.36468745923909013 0.24874802164023355 -0.45623459715372106 -0.16768537748148835 -0.5369228731304558 -0.12344116716612709 0.5128952599592368 -0.19461103799841598 0.4019423183206866 0.10000502962826488 0.29424315219060715 -0.017899189671224905 0.3443773356676668 0.2492140158367317 -0.4993415365392196 -0.21369191943408453 0.06103843837797822 -0.06446191187898016 0.034386902976178635 0.2211161155307952 0.2903282654026715 -0.2592982080509282 -0.2699107121825027 0.06332385174837055 -0.4519120724920697 -0.41287598179006746 -0.4003700150534464 0.20253452663357416 -0.3991827635636397 -0.3 -0.20754914316051779 0.4052859303324258 -0.2689622747827212 0.5611439004902193 -0.49338343660392325 -0.4966916933371075 0.1038766333410725 -0.4145320522900676 0.26745744712679037 0.2975899116685328 -0.39199393267314664 -0.35804828293396074 -0.10230458362674243 0.32452915759574813 0.4000985591310141 0.28846132382907136 -0.19947063363715067 -0.2996983601107161 -0.29999655369787753 1.4194416874211078E-7 -0.3029434176871653 -0.21167978183451908 -0.08538971380636337 0.1690790051089406 0.06180249456818137 -0.2035164622066368 -0.219818332937807 0.48680206448819496 0.07515989125105921 0.07856043906924298 -0.3737728592479188 0.39216521013762956 0.5135462408317256 0.30631668473409873 -0.42331883353665145 0.49029355390364254 0.19921448945517556 -0.49962260862888963 -0.29999923174214027 0.5 -0.5 -0.0016214510746483928 -0.40359182568949364 -0.2986403740926998 -0.48482415161833436 0.21732825675782916 -0.09384768245303655 0.1148516783656349 0.46858025471668874 -0.4498825509317625 0.044666105204514736 0.07904856406524274 0.5530279435126672 -0.23064136116605732 -0.1339561640325351 0.28572888272945424 -0.10118098373208576 0.5000661661938778 0 -0.2 -0.5 -0.10000017664652643 -0.19660931941577384 -0.39629759585854174 0.10083841649729938 -0.30701572278671513 -0.23369137211679983 -0.047985693132013826 -0.32661381867298717 0.10606836677562502 -0.49559025257326467 -0.09975026955668287 -0.10144132869161081 0.28587055345630624 -0.5166077060561534 -0.20490711122726665 0.09980188067877262 -0.399999882222419 0.19999999999999996 -0.3 0 -0.2 -0.29999745330066546 2.0559549610239794E-4 -0.1992794213056209 0.5018001426742555 0.09462336500358591 -0.10692872034523324 0.10039470743129336 0.0019000255485447637 0.09961135728846647 -0.40176875776756005 -0.20019547162633006 0.39950724093946816 0.09874451184006384 0.3996208914621276 0.09992485558765861 0.19999999999999996 0.30000000000000004] [-0.014336586958431445 0.4 0.19999999999999996 0.30000000000000004 0.5000022496144403 0.4000094983720822 -0.39958535723384486 -0.2989119609652053 0.10093100529682135 -0.29616574584262273 -0.3957916425765509 -0.3970489448908444 -0.19754634430927334 -0.19820564091128526 0.00251221385935588 0.4014565638527925 0.4 -0.5 0.5 0.30000000000000004 -0.09999999999999998 0.5 0.30000000000000004 -0.3 0.4000867511224134 -0.29901300074547205 0.10515626188949113 -0.2871067234386341 0.31868804389544547 0.44069647698558584 0.1391986889797075 -0.3781527554539497 0.3050522132604038 -0.30532686385748115 0.5021398931134 0.09831692619505418 -0.40246775185406714 -0.5005213614270687 0.1000037520641321 0.09999999999999998 0.09999999999999998 -0.5 -0.09999999999999998 -0.4 0.30750107423345263 -0.17600146758121607 -0.4664504541430996 -0.26107828740902705 0.15101672820027 0.2118570111192497 0.31439509496522905 -0.27596523927001204 0.41905381752446685 -0.4021806466119995 -0.11622152319679545 -0.02086778008170053 0.051411689523656295 0.3662222628681703 -0.1014440835502768 0.4997822900797824 -0.3000016331518143 0.4999936295208249 -0.4000136510268034 -0.0026816372201157695 0.278004075688612 -0.011198286165502391 0.41006238117571925 -0.3707112329587236 0.16742257815817002 0.39269576762890296 -0.27327916410752845 0.007034994243186195 0.14213335170798805 -0.03942378871996784 0.3280291905874399 0.2949749664356532 -0.24735884631888622 0.2893973334499947 -0.2956439321604298 -0.10113752503721704 0.5006197159826039 0.49999726979463927 -0.10381200320997744 -0.42363020013588637 -0.4933711825729407 0.10532455787940014 -0.34259067151193656 0.5850406492433753 -0.6354378779268414 -0.07766718250292455 -0.13145532691952655 0.06917971300487917 0.19844894043613612 -0.33818562841526983 -0.3049665191937391 -0.2028665862606808 -0.016571145373812626 0.11791186989305824 0.4048521165317821 0.5029221831175671 -0.09577020958026937 0.3007555082477084 -0.008676629268331555 -0.4449871433703634 0.1964480246820929 -0.5079860494952124 -0.4560275927134082 0.11730001312939996 -0.6415837798082483 -0.19045607830585914 0.06851502729034495 0.13131643089409056 0.4776000124768239 0.10103323341856023 0.44626803783112867 0.04424520104885548 -0.6170035477775431 0.2460000751478346 0.10715059333047801 0.5327013643249229 -0.28605284735245956 -0.1988614684332691 -0.004320549756489295 0.06091299004151945 -0.2076231691680584 -0.47037867500306607 -0.08716296203728197 0.6582582952495925 0.1517146474749739 -0.12623944946841864 -0.09070826959116954 0.15739761415991135 -0.10760353457891303 -0.17511839692189554 -0.22407644135361982 0.17823974619773142 0.18474332772334984 -0.35657934547694153 0.4017891888638954 -0.04009672683349624 0.22580432227222202 0.10017847863378744 0.19633187448651288 0.36188204382437944 0.24912942760476797 -0.5400217177147729 -0.27234383863629674 0.6791023673675958 0.6075670597753489 -0.7364250566639955 0.5300803831149615 0.08713129270038482 -0.18005808984679422 0.26327137264542894 -0.4623172118734706 -0.3963679409634916 0.12244345360565993 -0.03160211282671839 0.2485360287163327 -0.32708147874789856 0.22805383280988306 -0.30006054717252884 -0.3037216821478972 0.47553477459001603 -0.5286700470794298 -0.19920629721708938 0.156937669984275 -0.1891905633224208 0.21616618401694104 -0.02963925108754285 0.14759991898663152 0.409414475372983 0.01949962962528001 -0.3180097418871105 0.17663934548448595 -0.38102253359368454 0.6144954211309998 0.40161194678139694 0.23320731418915674 -0.14800029015476454 0.21316449029242443 -0.40003358552207813 -0.5016171420288419 -0.3112871214665643 0.43671363058190554 0.07152790783488083 0.4443396854368208 0.3892807496905438 -0.06513583539609483 -0.17372026693639153 0.16019216397700226 0.15260547494657742 0.4876731445043282 0.22496156511222437 0.03501261570388475 0.31919344163879126 -0.3933840396985843 -0.203931418401512 -0.00413190009293751 0.42463545716322504 -0.19864021468706952 -0.09999999999999998 0.19838673144436894 -0.5027571673717004 0.25672047180108476 -0.4919591515148945 -0.6309643210012237 -0.651149723218059 0.2776883769182946 -0.15172264796227383 0.538193864530955 -0.10873003252761271 0.3239594123914193 0.07273258943934559 0.20694545136796186 -0.3826546314668551 -0.10389815073298367 -0.6429717993940309 0.08880832177077912 -0.3071344812905713 0.4977879097712272 0.09999099001576893 0.4986120755328795 -0.11396695264945203 -0.3540160609630697 -0.4319346972378321 0.05344845368977268 -0.44092067857589223 -0.02404284623370259 -0.23526551632742695 0.14798887524437793 -0.11845866328869258 0.001347227644044933 0.4171227584241337 -0.5860324741275579 -0.4344629140807917 -0.5363012817729295 -0.3086052025875022 -0.24544041256752905 0.0989941511581837 0.001663251058961155 -0.2 0.39830490272227176 0.3842692228209373 0.2474571233396615 -0.3987486503740238 -0.32429786389520765 -0.33595860792770876 0.18204771354211952 -0.024990711694284018 0.7601263089293115 0.36864740289776465 -0.005719040120602719 -0.6942919585312161 -0.40339907018788507 -0.028251548999176583 0.30992760455657015 -0.32543205594170677 -0.030591757447445755 -0.4837848825073092 -0.19436385146474516 -0.3991974847747789 -0.40390947485183365 -0.3258124062387723 -0.021768756959792097 0.09611757848664822 -0.14534927141029472 0.06841185618939907 0.49249865101256884 -0.03993121438051232 0.4682037272708609 -0.32872683761540855 -0.12109656327599884 -0.002012305573137743 0.007511738062092116 0.019492537066029995 0.1975334233712606 0.2799886133939055 0.5922153786245162 -0.25881279371493354 -0.19219834008440748 -0.49947944958364 0.09120865194362843 0.03163294708056455 -0.05888288947623934 -0.004064784195938384 -0.10364912467169757 -0.2713676239068725 -0.2886694472017584 -0.3154056816602441 -0.13914240055430044 0.4199845231428205 -0.029626414490694843 -0.2949753703979073 -0.05321955897781708 -0.24056684248542157 0.5376196497660622 -0.30999910840349176 0.6138252206981144 0.3385545902491677 -0.19203902363629108 -0.3 -0.31130628469730776 -0.33142623488590556 0.24150802627757037 0.0013633347357692623 -0.33602880863214263 -0.2897784661418244 0.32407946595550413 -0.5758600731031239 -0.5251491529228776 0.34462869271797514 0.29588829309800707 0.5066911625451009 -0.31891013354249337 0.06228973424165923 0.4103537599091551 -0.06053621691630562 -0.0178555245884759 -0.07939987155837637 0.20481476823789543 0.4999918093839177 -0.10051187895762818 -0.002052468240919288 -3.685756394385185E-4 -0.3138864181011384 0.2075169710950134 0.41820858681284717 -0.2967571523343321 -0.29061659789307487 0.1849206255251513 -0.13049965713362693 0.3690406534878504 0.35360119563843806 0.10675222325573397 -0.05076220653037721 0.3290159683599425 -0.05258951847040624 0.2386776547107613 -0.18386528116017592 0.5024223359997934 0 0.19999999999999996 -0.10096020871389416 0.45963710954836334 0.021666596662875265 -0.1266809135735211 -0.38952212024818295 -0.23037654367699645 0.4478440710629698 -0.5063340562338582 0.02051046003402895 -0.21941225614666396 0.788418549435702 0.12881923528303194 -0.27594505585017587 0.09329662300078347 0.30782991930935844 0.10402442119518986 2.172955322397561E-4 -0.2 -0.09999999999999998 -0.3 0.09962526596331885 -0.03429672046223497 -0.48387501782582637 -0.5357705260923437 -0.4200153163374663 -0.3497530999927502 -0.18323845199433453 0.3660079910085217 -0.12430016310625885 -0.027844053908844323 0.35434911231086286 -0.10973539419206961 0.2756205385694545 -0.2713993703658046 0.1127056820894666 -0.49712652858135425 -0.1992787692325111 0.19999999999999996 -0.2 -0.3 -0.09999999999999998 -0.10466483533541247 0.18099960639437424 -0.3164849288307839 0.0889585659099658 -0.0942504453704198 0.016189754250152316 0.11433730516614526 -0.1924758755023299 -0.09452261244739842 0.2205350589506054 -0.38239756623389054 -0.3823440432190017 0.20660624792540486 -0.4978707784919028 0.20047518762831432 -0.09999999999999998 -0.09999999999999998] [-0.30628596540584835 0.09999999999999998 0.09999999999999998 -0.5 0.4999270092470632 -0.5003081831790662 -0.3002671583247854 -0.20009411822125453 -0.49917418180762635 0.10126976564385787 7.274825671843924E-4 -0.09973498633579951 0.19921227214638987 -0.5014351519214858 -2.6833603677225054E-4 0.40003803860619114 0.4 0 0.09999999999999998 -0.09999999999999998 0.09999999999999998 -0.09999999999999998 -0.2 -0.09999999999999998 0.39972063353347315 -0.30131445842045335 -0.20044669886155392 -0.5010095499350365 -0.4945782375834757 -0.18044093378355286 0.025143298291327602 -0.0921383571914257 0.1932931015542031 -0.15192213669110616 -0.3057333159125345 -0.10144693519735501 -5.933383768911242E-4 -0.2003016658692632 -0.10000012877584476 -0.3 0.09999999999999998 -0.09999999999999998 0.19999999999999996 0.19999999999999996 0.29632466754920433 0.29095399196743044 -0.015866932980843598 -0.3263871585303733 -0.4091816698658491 -0.5032472721658565 -0.3230685181881796 0.2033877979993626 -0.29188734158034246 -0.293029069691263 -0.28635816531925556 -0.2755908032426487 0.36819765458720466 -0.5093150384392321 0.19804426255580188 -0.3004542999287119 0.49998881857830235 0.2999920304097518 0.2999829223066105 0.30031889824775376 0.20020810976509607 -0.22633806393132735 0.20851282308227237 0.19787005344870934 0.022230638450210893 -0.3128043467570796 -0.018091890570922465 0.2630149334024759 -0.22351309300435268 0.31759589649354514 0.05755200631139399 -0.22831389397637614 0.45678046852148885 -0.3395604822495724 0.4984204076045233 -0.38240315852644435 0.01387739870805236 -3.4155386779151286E-6 0.5011201324655443 0.10380660517002929 -0.4178378271322058 -0.4571644272942429 0.22722340776668934 0.5383379405764356 -0.20730949494189851 -0.09711892394819517 -0.4455722132823656 0.06129152019060832 0.11772692666813533 -0.11268603476273586 -0.13492740614111615 -0.523575593648589 0.21461523308613792 -0.44604667697611416 0.5120118169603964 -0.49445183688250716 0.2191791892264132 0.0016166326734284575 0.31081732922119154 -0.18132836343310385 0.08541579167824734 0.36487367039169444 -0.42549708007219034 -0.1759359387492363 -0.036522268362620305 -0.12946778195116243 0.037244113327129284 -0.13949968478315475 0.04884944821694518 0.10351446475027033 -0.3287566164440646 0.6160749521752986 -0.301901533368479 0.3515717133014674 -0.1820701247348235 0.3327020073870839 0.5092463915112025 0.20394860694773095 -0.08611033286596913 0.021435778552782385 -0.2927017700095682 0.08845487198194933 0.2847487511893993 -0.49453991457098617 -0.36823355797999185 0.16934046847052373 0.2796036033724072 0.5179862943809513 -0.19941309715499334 0.17924423148923974 0.29397978360206983 -0.15707465947958713 -0.3534231253454247 -0.07488761710296442 0.7317715262673583 -0.4828764279565579 0.5017722037276956 0.20163879922201378 -0.2868452270435467 0.2163826816324878 0.11325267384192432 -0.30505507969326423 0.44456134196514524 0.024100921406827715 -0.6238148848027912 0.020827927655510923 0.020045271263206 -0.04214227235270425 0.12347229442536142 0.10525197820710087 -0.27810678140150114 0.2483115766855844 0.49196757734427227 0.22227421308372453 0.34934579882670597 -0.47821837650213317 0.1122203803690663 0.20074326538800372 0.2149267253982065 -0.0030229485058866027 0.3817405925024577 0.0968600650467792 0.5141943621671073 -0.07738825922207151 0.3432081311242848 -0.14633249510527171 0.21491340923760846 -0.23121907331723632 0.23825722642860678 -0.022389523773759683 0.47542445029735786 0.5215835502491134 -0.0664366372448881 0.08119105727971057 0.4963317078186524 0.10072849862040421 -0.29605519566551314 -0.29961021734072935 -0.0909805847168142 -0.21677023906225923 0.4690380355729484 0.14337146154611446 0.016933780693580407 -0.5366449838380416 -0.953353246342969 -0.3713783763297405 -0.07317993633806849 0.33778273718495966 -0.44172778702971427 0.31624287179880795 0.056267860545079436 -0.224462134646724 -0.08573854356722532 0.13328101453577254 -0.030535391466763807 -0.3083407817579636 -0.10031875571625866 0.4 -0.29946341157301326 -0.21394591101539245 -0.04124723401250812 -0.07550330131666508 -0.532174558533681 -0.38869347246817365 -0.28133495802545444 -0.8225151034703124 0.244551030851428 0.5504298784347373 0.8319471073514962 0.25746904262968145 0.29990790885663016 -0.24113233534088646 0.03391889213809974 -0.005578414830985807 0.4517829017582499 -0.016613735501557883 0.0030552481100706505 0.4997507367486178 -0.0016867291147135675 0.38837407659626466 0.3335734381011688 -0.5478685620084263 0.20202682325458332 -0.24669625745514598 -0.6355456420575203 0.3780660815179605 -0.15947032072995002 -0.2840267172717683 -0.20337863578140794 -0.25683873609952457 -0.6091370168505685 -0.2908272724410736 0.24874420707028513 -0.43806963317786984 0.12261715909835078 0.263370469601866 -0.4012815663492785 -0.4 -0.30066766771053344 -0.4146682803466032 -0.3200762461898924 -0.7058810260395945 -0.1819446802570213 -0.5924021015316814 -0.29295241373398584 -0.2950592552927183 0.4733044827400185 0.6764909167563011 -0.4499715575952362 -0.16813626153792807 -0.40561278229143594 -0.05652211419369716 -0.18386323093001214 -0.02819758981989744 -0.38305128904699653 -0.5249241154353346 0.09447402571336916 0.09998925540112841 0.20281781160594603 -0.10541579472749212 -0.5832162143218356 -0.5764697799652112 -0.15254077999389032 -0.04082173484487629 -0.5284275367319089 0.26201570579504224 0.39879793355064064 0.24167963654722355 0.42224876670860056 0.2965296498324309 -0.6496965512805992 -0.6953843640927858 -0.15569707620979079 0.32493576566112775 -0.19695459312788924 0.07281848293741446 0.19604808847844848 0.1999930305304617 -0.2987161224241997 -0.1029170917430013 0.26050477352300305 0.35871745019923157 -0.4130496655861672 0.18203586477332226 0.338034894032199 -0.36744514634929787 0.12033140819327365 -0.12245666252557459 0.006019830287698633 0.13237496456445177 -0.1987483912649273 -0.22516401661894464 -0.6043706191153119 -0.2921916136045276 0.018600547109353893 0.2803912501389177 0.39844616806993916 0.30000000000000004 0.1989911316340777 0.39864518021722145 0.3955980830837784 0.6493079056712922 0.28552750754279504 0.10304231779028196 -0.5035809336734186 -0.3662181201814428 -0.18541670719473358 0.03986652164075378 -0.09442938900138083 -0.1800991198071079 -0.5044430670869777 -0.7433736372494618 -0.33013560601822056 -0.6366457897880439 0.04530974047740361 -0.20283375643215115 0.49996802084687975 0.19998975338396624 -0.20090261142360888 0.2911071530692445 -0.08964091764541457 0.5772909790882308 0.03925111540789791 -0.31446514169070244 -0.23335798864693147 0.1966590705272213 0.22513400195993802 -0.21578003656501996 -0.1688991745343851 -0.16104151201390124 0.29878320476649955 0.3004439517339349 -0.04005358740674714 -0.06299923397175848 -0.5175295825880915 -0.300045297745801 0.19999329301612395 0 -0.4 -0.402045361145767 -0.29113977621686465 0.25809565984191857 0.40740104199768323 0.165122388334281 0.4283887403666634 -0.3868077278774744 0.37749096712887265 0.009908628997236536 0.08952557050822176 0.17326646616492786 -0.4785468235840781 -0.24782311896843498 0.35933875420029904 -0.21554928078693691 -0.003839853891130175 -0.500050232929478 0.5 0.09999999999999998 0.4 0.10021657979000913 0.11903005328869279 -0.3421512447483474 -0.0777021650070537 -0.20464653511084946 -0.4678304852240457 -0.14278069971016494 -0.300224774831682 0.2618314153726995 0.5117165462566461 -0.13466222549720142 0.2617771862394014 -0.38232224162038686 -0.2044827326325556 -0.10670217691988901 0.2996038640997422 0.3000000120637192 -0.5 0 0.4 0.09999999999999998 -0.09693649543503718 0.011605885854349704 0.3184925598030685 -0.2696331802157239 0.44455308362099505 -0.15725866063584812 0.449087977773975 -0.22735574666924352 0.2673433904052801 -0.15615528458294262 -0.368686292512241 0.312770240468334 -0.1986687528309186 -0.30021103125216686 0.3999077240815883 0.30000000000000004 0.09999999999999998] [0.3381881808287233 0.09999999999999998 0.5 -0.2 -0.20000032119839137 -1.3561709856813248E-6 -0.3005902442174819 -0.10191062363314048 0.39758289431720906 -0.4036292035014028 -0.3035374385609851 0.09815895472973504 -0.4006473546646454 -0.4000193762624728 0.29998493907823603 -0.10000042129756159 0.30000000000000004 -0.5 -0.5 0 0.4 0.09999999999999998 -0.3 0.09999999999999998 0.4993692618729024 0.09843304806067549 -0.4035425436243349 0.29294168407740045 0.08639398181676286 0.18596383442458111 -0.41045739658669345 -0.11195896115084644 0.48183375409397233 -0.11186640063405623 -0.20836959248868142 -0.1067182610430365 0.39595455666139406 0.4976259481357022 -6.8304610488146E-6 0.4 0.30000000000000004 0.30000000000000004 -0.09999999999999998 0.19999999999999996 -0.011684539495162027 -0.33111805095983676 0.17337988742797755 -0.21020984157394507 0.38501425882399953 -0.03441650477005721 0.05481188523822492 -0.5533429002189916 0.4098966058296575 -0.5956220246555376 0.005547269031617706 0.4192267150185385 0.3727919530690038 -0.1141483078519683 0.1988120148542363 -1.834327213370841E-4 0.10005482379912851 -0.2999997029123341 0.5000006366164267 -0.398387718923029 0.5172999444918974 0.4333874182461051 -0.45147738813813576 0.34947563179734903 0.26025290966190345 -0.09285754548706132 0.36679296974324843 0.1142661221402573 -0.3430493893263246 -0.12224075325933144 -0.5071399479232254 -0.23728756829739867 0.18988445465989018 -0.16566494360014467 0.08231134885409448 -0.20340028650589945 -0.19995298330377215 -0.29999987267671485 0.5014981609985517 -0.18450453632286537 -0.12543250421937874 0.49625250080783634 -0.40039144975483726 -0.04724734392660114 -0.2704413366074296 0.011174922500711743 -0.14860920083132728 -0.21302264892471273 -0.2614080297166187 -0.6556706548965631 -0.17214958257589116 -0.25172823818332446 -0.4137102711726593 0.060118186471853234 -0.49153284347300585 0.058204994471731324 -0.0010154171887465447 -0.400699159111335 0.0027671149933848785 0.42182945343884953 0.3782284233252571 0.35108945059771973 -0.3907137277131139 0.15417001350282422 0.150503423215858 -0.22202020116704743 0.028982923748724892 0.08122282095155035 0.17757081419250945 -0.5239415763776055 -0.6057504031203864 -0.2425209753301462 -0.04409502675573969 0.3391191772655868 -0.12091500859378151 -0.2366193818365948 -0.0027425264609137754 -0.30124855427989156 -0.4985247131843817 0.11153868643296162 0.3223434284038735 -0.09371427379252714 -0.16214540688396278 -0.433510927730939 0.12269494924369095 0.10900573368038714 -0.11269671594956215 0.29649089809794865 -0.14712278369759724 0.12022607499457844 -0.4306209741427774 -0.3627732012090865 -0.4678819099416791 -0.5811371660839763 -0.555975035248473 -0.22012778742836672 -0.2024923501785329 -0.20042872792988434 -0.3966635306115779 -0.07112675462681826 0.12824298403343015 -0.4997167368199389 -0.23830178261554014 -0.3884187171803584 -0.5520963829408868 -0.5865234690632298 0.21350175248476314 -0.1601392802251112 0.30986296709770317 -0.101193813011863 -0.39078912216874995 0.2197755103382593 0.35490837065932 -0.42859847276006957 -0.3376158778086616 0.28171450480125737 0.09549342839095475 -0.4000122682192012 0.001338378147225322 0.11707385565290777 -0.27037400039211784 0.04106065860288099 -0.08935216233193065 0.3597380811735202 -0.32921520627832457 -0.0844576998416352 0.3787290714341519 -0.0860214869808075 0.7594926642497224 -0.16668269000866928 -0.43437682949603246 -0.46195647210798835 0.07136421708599008 0.23063346173863244 -0.23676121018026308 0.3796851041036884 0.093028768379273 -0.2999888197140126 7.47428591691709E-4 0.2120207124074955 -0.16533369218463106 -0.3578122371347644 0.14125279982503994 -0.5430459764387755 0.043688177455279885 0.37489751865416 -0.025072128423970393 0.11609626275415948 0.2855100947522821 -0.15999044350419203 0.13494015671513757 -0.1475935975170098 0.25333519207168725 0.4373507017520088 0.07241507177911642 0.49625718666121577 0.09904104402491933 0.4 0.3011103352042905 -0.2971217312967872 -0.3748964605703258 -0.5231923765499915 -0.3417522583566328 -0.17372995441885955 0.08540883261641094 -0.3711597832769118 0.050775564730282385 -0.35747153298335965 0.3431464151891527 -0.2714985179953694 0.3879013090854931 -0.5770142350234907 0.0853710803216112 0.5366783797576468 -0.11943079481645116 -0.10151782965155533 0.3005896495784079 0.3000000000238206 -0.39770780764582964 0.4060375398056075 0.011120536519705492 -0.29879782824162565 0.059640760061573005 -0.46734886985004315 0.0064251400239785286 -0.18992290237053303 0.13714127794402423 0.2504744174638243 0.24599522635146034 0.2108581646073171 0.2665770855669186 0.23439344453790006 0.014375952997609511 -0.49911636147764876 -0.5280007586601192 0.1901088351740256 0.4011475712460647 -0.09999999999999998 -0.2978098586264243 0.2060581708212141 -0.0023575201152275117 -0.3511796249336884 -0.18810557327383667 -0.6072301469250314 -0.08393370046497896 -0.35583228862592314 -0.46466493646565993 -0.2217423029746026 -0.2161402475834103 -0.25422233795313587 -0.32331362380336137 0.30715067878668073 0.32439742958501655 0.3059911170808407 0.15174737062875995 -0.4072319465430334 0.1002008518753133 -0.30000721141032 -0.4999560713353333 0.49869863213900195 0.2779720723158755 -0.11199372254831631 -0.43528109673529114 0.2856695183688171 -0.417502510828593 -0.4658378341414503 -0.5021293130769987 -0.38831056857454055 0.3959576892959936 0.5381357866022894 0.082623624912985 0.22109484031363677 0.2862215621622202 -0.36537257935364265 0.0748482342172917 -0.501511620214708 0.19944258022213776 0.2999953223284411 -0.30095658762688515 0.20698197253044637 0.3856415102867367 -0.3612312853292812 0.25844019280100977 0.10525960664170589 -0.6264803756032207 -0.8015248645551848 -0.7084284602751265 -0.17984308845278452 0.4329677899347498 0.26653515037678016 -0.45310576246272005 0.28464389846222726 -0.3398893067949875 -0.252746012862452 -0.11947662195157256 -0.1995735411365166 -0.49997445626092624 0 0.3991926183518942 -0.19926749045011474 0.29827092675271294 0.01450074382735943 -0.5057134172958412 -0.3975920260044405 -0.2142397153353093 0.2714613730727754 -0.8303300795640041 -0.6827864593463127 0.7064938118373789 0.007425968811637061 0.09993188720255841 0.2973615128058134 0.06427624333860965 -0.5269611804344205 -0.41890759816434253 0.19995251466429997 -0.09997572926518203 0.30000038196985623 -0.3001906448689363 0.20162080093170362 0.2114846971779714 3.4125057647415647E-4 -0.30323871960219656 -0.24719379337895353 -0.22632651371294457 -0.14854192912621156 -0.2921291818403955 0.06440146642797913 0.4378571386268755 0.214245530850767 0.5561059000971381 0.2998048364333135 -0.19398027453795552 0.4908544862656506 -0.3097635743424094 0.09951428550981516 -0.5000000183677736 0.4 0.19999999999999996 -0.09896379801187333 0.40187270930303587 -0.4068251170838541 -0.43323513248759016 0.3190190322540545 0.12245551157104115 0.3890669639195738 0.18204619423682894 0.10541130867796704 0.10108829928803988 0.13928064304046311 0.42781870249281906 0.12085666826638447 0.5328079949590367 -0.29102320998378023 0.299557796523104 -0.400238382727585 -0.09999999999999998 -0.4 0.19999999999999996 -0.09971780808838304 0.40126456687075557 -0.500411658268309 -0.10792249837690647 -0.009643847491456085 -0.004328276373777621 0.3877036037537443 -0.4995238966518183 0.5518996669339715 0.042911131786475945 0.06588751993772765 0.36817547755993807 0.1430957392341735 0.33737154775359796 -0.09580964360587697 0.5003670454501417 -0.5000000044976738 -0.5 -0.09999999999999998 0 0.4 2.7605865801253976E-6 -0.3998363893112361 -0.39758979546790973 0.30580013295825054 -0.2951687726007372 0.301658389883486 -0.09407623767609027 -0.19085073473186295 0.4107584556478418 0.20420185390093956 0.006603137651562013 -0.3904663705600565 -0.19505468046175076 0.10109611794938667 0.10009288033929918 -0.4 0.4] [-0.13519491733767094 0.19999999999999996 0 -0.4 0.2995069301675889 -0.5020818504035144 -0.30439516071518524 -0.20830613289985342 0.3969838874245157 -0.5026758346666169 -0.502215239310937 0.39714040030835357 0.09691686193321564 0.4003252452926257 -0.19884034341913642 -0.49910667132470404 0.5 0.09999999999999998 0 0.09999999999999998 -0.4 -0.4 -0.2 0.09999999999999998 0.3986927520685337 -0.30423808878921016 -0.5130786521589956 -0.23107138653805426 0.3753198049597261 0.2899482618178587 0.3063491175652555 -0.10035759152265906 -0.412496192696434 -0.3142459018982979 -0.31255638564356536 -0.10897363214508293 0.20058742199266053 0.5021396834802392 -0.2999843148271414 0.5 -0.4 0.5 -0.4 -0.5 0.09783798774865171 -0.20114525125999957 -0.41523563223918164 -0.43732541189558555 -0.5371095789508272 0.37180855452876616 -0.2916507891625285 -0.13352426909981063 -0.3841887439652792 0.4135326811793949 0.25523892738676546 0.0026828333367870357 -0.41056556962465524 0.30285752690714757 -0.10119525997546158 0.0017586178774655137 -0.49940441461390994 0.20000094590731465 -0.19999797305575434 0.10004824892068508 -0.001271226370654728 -0.3896256811271911 -0.4116088161892244 0.33330836109032586 -0.14567012420451433 0.15105731718465037 -0.6423547565853855 -0.2440926346780277 0.12230430570445784 0.19150048387870683 -0.4004943818344589 -0.7148034386660569 0.061637853707818116 -0.48306942778716166 -0.4942627043716983 0.3851465630205083 -0.3037332054609579 4.0538884914678034E-7 0.19895525665049843 -0.006857901893429036 -0.20388878169434965 -0.08557533928412704 0.41140207797130035 -0.6572939237244654 -0.5171944474014932 -0.2920311779178182 -0.39981249032019556 0.0017671344383814445 -0.3449411569304245 -0.02508861246932249 -0.5891716022118866 0.27770353496550676 -0.4814278817138863 0.33180893530368866 -0.1724955142745303 0.34474810373362225 -0.5107869658804356 -0.09978672321920218 -0.0034907810286398627 0.3686745084324716 0.3955912495749954 0.13277221636119704 -0.4082173088019113 -9.723897314818926E-4 -0.536739018055654 0.0893803126664875 0.07412151844101589 -0.177973767496488 -0.08634618905385413 0.4064528993148739 -0.1515674218123947 -0.7649825937039391 -0.10976677513950582 0.02496136486638916 -0.5797847895777138 -0.38505232843432013 -0.11566699883293013 -0.20013634745925232 -0.4057044458905526 -0.27842270011685855 0.2204216477371718 0.3187556898130201 -0.3344870506324801 -0.6289176326831933 -0.5907857821913103 -0.17994394322264945 -0.013083370175137325 -0.20670822015196452 -0.2163741594755203 -0.05868511003939538 -0.09527939461187546 -0.2103464202344417 -0.624106708362894 -0.014818025976890106 -0.4350151306821405 -0.618740514739614 -0.22693269723448573 -0.10052234212660191 0.1908411913932761 -0.09333550803142676 0.050248285952622374 0.16174885550410936 -0.5247766873625064 0.4644920403345316 0.2586776698445451 0.05636846821961457 0.4780050462441537 -0.1971550802686843 0.11445606644996541 -0.4400560832853316 0.07334713357122047 -0.06147949312229128 -0.826098446552703 -0.24796012828000105 -0.25431388190396154 0.2148051333176936 -0.4212296135716834 -0.40028765993958676 0.3932907225560962 -0.4556253116749834 -0.05740763449688197 0.31759499477269293 0.03265518109620777 0.41822125160463963 0.019003905530073445 0.18819098886587934 -0.5513065214686041 -0.0051710266538672126 -0.12173448559666425 0.323805670439873 -0.0378128722295541 0.30645440525795037 -0.6088493366388891 -0.18301537617532598 -0.41166618684373985 0.25773687378055865 -0.21261491019827689 -0.10003106012890293 0.3880507047921673 -0.15012607432945738 -0.1375881353083076 0.2084204421845893 0.2882279432389095 -0.10812703638457637 -0.3037617664916437 0.34103705788634364 0.08572218484976281 0.4713872799507855 0.09603771522198178 0.23150252591352033 0.151165960006672 0.6151311967763291 0.20325843421639508 -0.45877772066628086 0.23749801123298328 -0.21128537709910256 -0.40258363703720584 -0.5 -0.510210969806242 -0.021977314648982355 -0.4015877212666897 0.7057640897291282 0.6523230297403424 1.353657794762161 -0.09251821658266153 -0.10025084619367317 0.5863897232308808 -0.05511873481984609 0.020765651547237283 -0.23997625153676647 -0.04009086398162798 -0.20197466377457038 0.4751141798145381 -0.18450115235421052 0.26793258244175133 0.18636084714061954 0.3934702375189246 -0.4000006911635706 -0.2009144640678945 0.39094813356036895 -0.15509862658375476 0.20039597224246436 0.8940646483285636 0.7119706832764785 0.1874268946833542 0.47045337342528276 0.5078362791267901 0.039094442638407376 -0.05518672770980055 0.04480325432266003 0.2751654704947128 0.35932457708547866 -0.472487284758193 -0.26715793294119494 0.3511357173585932 0.4849982071126004 0.3943141169629338 -0.4 -0.5043778231044722 0.17713600386189274 -0.19448543103657634 0.1982009438430248 -0.2104421855022081 0.6008726592201181 0.4067359637831127 0.3029110977161795 0.22524597042339095 0.17536541216037174 0.030292055879220167 -0.03171405075430941 -0.4230018219670875 -0.4314298848140614 0.07034517637024673 -0.3476087274305317 -0.47976136447076173 -0.4938526935822848 -0.5013975055590619 -0.5014704680130924 -0.2077827123735503 -0.5219784787467768 -0.6287417711715413 -0.07319160981475213 -0.793428741989885 0.07756741699769767 -0.2922413897691706 0.21313884117264573 0.7823378836048573 0.2936967137581548 0.31399296807148047 0.17307698794973383 -0.12205960878156845 -0.27057010862792547 -0.09320027687715733 0.32325779954360595 -0.3293932721143864 0.3101680155666303 0.1990923077788169 0.4990461829104262 0.49373346956440756 -0.41625870698596396 0.08777480644631802 -0.5456284950306902 0.06325673689601552 -0.8306674284690742 -0.4661275827873342 -0.36136844069187085 0.19716815633119683 0.1254040466597815 0.10596191341964169 -0.5720837537636807 -0.4240298402185843 -0.15818615832115487 0.0805357659432654 -0.4634029539183499 0.1385749249573813 0.3033251888118227 0.4997202221876538 0.5 -0.20396176073970448 -0.11208157473236188 0.13639746547073972 0.015271844353571196 -0.5076829961372964 -0.7810066325943794 -0.9943596650980562 -0.18248470255260915 -0.18132943340057686 0.018895747290195972 -0.08558090349352206 -0.2825653225989488 -0.7053622549960905 -0.11230383085819995 -0.3851677902852872 -0.017594596865257425 -0.06831799504129821 -0.4926579120505053 3.9596978663731445E-4 -0.19999878383345257 0.5001342217528756 -0.001419301134476486 -0.32119075517924 -0.462331172555426 -0.6879001935147127 -0.4692917389812295 -0.10074812066787187 -0.5454125597065067 -0.13200837396650955 -0.10393583421801139 -0.1010005975319794 -0.02194580755037694 -0.359074366544997 -0.03740899368431936 0.4067910535778604 -0.024006560138088696 0.5201247264173072 -0.09163502924984243 0.4002015981648416 0.30000000000000004 0.09999999999999998 -0.30173542054604596 -0.40161873832564704 0.3500610798632467 -0.24310162701394794 0.18702180010842495 0.022500550007298215 -0.4937628137146475 -0.08729137875089002 -0.1369379484694373 0.1259168817778533 0.4593487442744917 0.24982507568951626 -0.3673444717332377 -0.259716939817007 0.44837645410290666 -0.09631898217477591 0.4997959369400211 0.19999999999999996 0.30000000000000004 0 0.49996934556550116 -0.4099708128599504 -0.541021724418131 -0.15260148393263362 0.3404624923396974 -0.5404585497794774 -0.016778956135034044 -0.12487960749294946 -0.2474539131856622 -0.643280548328942 0.18415333030368733 0.09102803834594808 0.5356873958559732 -0.37551557181776807 -0.3850167286482399 -0.09749093431611755 -8.310477015497499E-7 -0.2 0.09999999999999998 0.30000000000000004 0.09999999999999998 -0.10136598262113661 0.18680704365661713 -0.32367424728354927 -0.24256425886114574 0.15859132351861818 -0.45392681852734074 0.11321111416328716 -0.013586480043310376 -0.6055558465180674 -0.2592965004114469 -0.1296759064312588 0.3909371781196699 -7.745609938504649E-4 -0.2980637805779167 3.5973224919719443E-4 -0.4 0.5] [-0.663023108398957 0.09999999999999998 -0.4 0.30000000000000004 -0.49999998506092014 0.20000006307611437 0.3000006893963582 -0.49999818331984364 0.10000152737716547 -0.10011838316614417 -0.300391966168309 -0.20040532819975476 -0.10021013082861216 0.3980365486746694 0.49747617205644745 -0.0014036168156634635 -0.4 -0.4 -0.5 0 0.5 0.30000000000000004 -0.4 0.09999999999999998 -5.560857533677253E-6 0.09996734805611424 0.09706094755341704 -0.5078191962895023 -0.4099482469208998 -0.44731665670748694 -0.26743411609253537 -0.3443205983041662 -0.3220064643206 0.1835596958592255 -0.024156746103123888 0.17293448467914926 0.48916337054195164 -0.004252647912107487 -0.20036705606028235 -0.3 0.19999999999999996 0.19999999999999996 0.19999999999999996 0.09999999999999998 -0.10474476717882163 -0.20472401804224563 -0.2167995002418011 -0.21469799474587467 -0.10172736238954354 -0.12840023796897962 -0.24706887625713228 0.5182081993325836 -0.21756835019743134 -0.5899560306477457 -0.5940967867468043 -0.6214218346509859 0.24219868878375989 -0.22628303224446228 -0.10662719380214239 -0.3019673085009157 0.19992839402928247 0.5000093053892676 -0.4999800598801404 7.18145138327595E-4 0.4199833978981729 0.24186562216038154 -0.32336686839216794 0.014909481211012798 -0.29416304959667905 0.46553731329082854 0.17203674248094242 0.5232556699098487 0.3661899523055016 0.21056542107113987 -0.4779760875187585 0.17878307951167804 -0.14288376170977948 -0.37542083956157296 -0.22389110127347053 -0.006349114625277959 0.09969595397658693 3.98802397195554E-6 0.500009412681972 0.3110844326412657 0.40103656895828366 0.3367473264911645 -0.1749655750236462 0.38090705921947726 -0.4183672416101835 0.35687615001040285 -0.17844346233328273 0.03466675545566403 0.2537159375609157 0.25298076055061847 0.06304005891791367 -0.39460440489548554 0.5685318525259726 -0.4903228082160817 -0.4371833561437429 -0.41079702547695923 -0.3014069399244371 -0.5003065383532427 0.3989617619290297 0.41444431886929045 0.32845352063376343 0.13891761548065884 -0.09069778172497216 -0.24259711172339285 -0.2575971861416727 -0.267224934491382 -0.1100999766128458 -0.4647455954507239 0.5482865926258083 0.428032752426618 -0.037151372584367 0.20092898570185408 0.546996415119999 -0.09674695388069518 -0.5434207155862353 0.283121472215467 0.1942722023257272 -0.40050833788103446 0.19779611469942585 -0.29950955921033856 -0.31026541575725847 -0.30157669604001197 -0.1347784828054051 -0.03421013622695846 -0.16019357649034602 0.09466596957959406 -0.26746468644193044 0.2717412631786046 -0.18545718684782136 0.2831255035720241 0.248962101231959 0.06501787194298485 0.540997810647711 -0.39839644977097866 -0.020717404172962244 0.15064983313691832 0.4823560203470801 -0.20010300203920528 0.09313082703126388 0.19428578544706063 0.16233955276670065 0.5585624864587787 0.1398837188779017 -0.5776163193960686 -0.05466469431517544 -0.27507433475426335 -0.06902960786730171 0.19354382583716945 0.37828242750907054 0.09028290412243659 0.2707870615190626 -0.18920732406242752 -0.14138533681625115 0.2787540584274403 0.11970326496379963 0.4337171982306558 0.4732591526620112 0.29999914326868904 -0.10719802679027779 -0.08853866037992938 0.2670254147171785 -0.18904425323434637 0.10543818298202433 0.2599180966677811 -0.29343488152937497 -0.025631134699222093 0.43403992603983105 -0.11435675799953612 -0.5010811919154391 -0.36406046785321183 0.00592139391917444 0.40790328418005256 -0.16344171625969872 -0.2533576686731577 -0.07522151392460108 0.18286736158515252 -0.30823391883306633 -0.09999755792366176 -0.403364973413348 0.1143501368114034 0.47596198161103503 -0.3596361700468464 0.4152134787322676 -0.407273487437922 -0.025421600082408985 0.16079037266418758 0.031155897739545874 -0.22794970859893784 0.028672456598201286 -0.563931172024581 -0.7006210913524187 0.07430167863832324 -0.5477856132964841 -0.21239912134177302 0.115886540071374 -0.3145773531452392 0.3981902429278417 0.19999999999999996 -0.10058509330624119 -0.5036403416000041 0.16270102710836865 0.4528715883922327 -0.14704697066982603 0.4814715020992583 0.4273851493836555 0.3205389682312044 -0.689289377347935 -0.4711251282933254 -0.7657351148893067 -0.5784121487643268 -0.6429088059488686 0.11429520734158784 0.2572176350942564 0.7460565912562994 0.4062783027244584 -0.19756190920080388 -0.29924174760160643 -0.19995407892225434 -0.5019607760671764 0.09351679620468578 -0.13778447816532163 0.4140012468421618 0.14813703952387539 -0.11895454848730004 -0.5322354753161587 -0.8407608743415967 -0.3780428017492563 -0.7270203324705291 -0.7323268769943936 0.11815135662249492 -0.5952682269469567 -0.05845861521274709 0.16065418909695797 -0.22430788988800895 -0.21356290395074543 -0.27516949327887213 0.4013453677979398 -0.5 0.09818061082833568 -0.0924425646156178 -0.21837777366569203 -0.003835701035277887 0.24149812592888634 -0.18178360463321971 0.21130010228649554 -0.424532279974604 -0.5831395150394918 -0.9398707449414253 -0.5425592146483054 -0.26609313728546824 0.32631884417961815 -0.432193281332816 -0.23709253775529882 0.3973395748757081 -0.2728757650549258 0.11771388960554757 -0.4986575795186086 -0.29999966599151195 -0.30079498592062076 -0.18794382987822952 0.417402515776398 -0.04672503483764145 0.037743229846003486 -0.19143420613263967 0.24362047182796778 -0.49213253816268143 -0.610284265011639 -0.4752654971918756 -0.44215191490113787 -0.24053188530811165 0.4530496518493099 0.1497785936062559 0.4562079985561125 0.04305330119839731 -0.10027027857125949 -0.2956218141755553 -0.1989845158720288 0.5000002166541546 -0.39653177854840077 -0.08760823758613084 0.41328265857740243 -0.02662955125770685 -0.36387814692586734 0.07096686390856526 0.359544596907907 -0.07748641190706797 -0.120707877724149 0.06788351043929618 0.40931436944847815 -0.13039283117142497 0.3094519329184178 -0.017196377673829165 0.5952812716736328 -0.511625705408531 0.003880362662438765 0.003419657798809796 -0.4997460063645201 0.30000000000000004 0.006793567471483701 0.10654329261333928 0.04248394155562405 -0.07396389069311164 0.6164343916224465 -0.1827842656802394 -0.022080777262200486 0.012252743514942571 -0.060365792688446177 0.4827777185206594 -0.3446802759690446 0.2872133316137944 -0.17866421091866763 0.11353770687925153 -0.5162856307348956 -0.31087167855260717 -0.11064069636378848 -0.10376365515154191 -0.4005786843279205 -0.19998803592808406 -0.3974922434639415 0.28909984198037686 0.1873742107891908 0.08048822458619541 0.5678549155521555 0.20460302875494363 0.20124094616950391 0.3494106701552048 -0.1702547635722658 -0.5354949679174987 0.2970420758451986 0.11095953362197512 0.47607187819710783 -0.2870118418358598 0.14867180233250757 -0.23083394081879843 0.08572232733972086 0.39015274392811033 -0.5002027041328246 0.5 0.09999999999999998 -0.30353324234349377 0.17648581805492333 -0.029540897322038316 0.4076524555262321 -0.20072292951572973 0.3142997940431726 -0.2137037356439053 -0.41911484760592177 0.28840103217955954 -0.07115817820305236 0.32093731561859723 0.11245707176253779 -0.4572386765865264 0.2497478648119872 0.4839214085613753 -0.3002307481821786 -0.3999988709178697 -0.2 0.09999999999999998 -0.3 -0.30000057575459216 -0.39870617211252296 -0.3922077423853857 0.022741057578877108 0.2103826669031153 -0.21313914250539245 0.08008907552727668 0.18109927051286503 -0.2907614969875151 -0.3317277703951375 0.4009545643356824 -0.2015551190471871 -0.009774708000866718 -0.3141693773123839 0.09635250415594378 0.4983686363027797 6.302269489851117E-8 0.19999999999999996 -0.5 0.19999999999999996 0.09999999999999998 0.2000078553815554 7.676124267105177E-4 -0.3980694348202738 0.3995467590201225 0.1916288283703162 -0.008913833909369753 0.4976066838263341 -0.0982862846818099 -0.20224101163263306 0.39820373501386863 0.40316814194252126 0.19831836346519105 -0.301108577456196 -0.20075624584027088 -0.40015322825436056 -0.5 0.5] [-0.28609413475539947 0.4 -0.3 -0.2 0.500030113231285 1.2714475431510337E-4 -0.19816518648756812 0.4051369881156181 -0.3956156825236062 0.21593547575439082 -0.18152994611963952 -0.3899045663490601 0.5043219061404843 -0.49788060380387816 0.0020655591130613695 0.20001990967328726 -0.3 0.19999999999999996 0.09999999999999998 -0.5 -0.3 0.5 0 -0.2 0.4001823928172802 -0.4994461981796808 -0.18005878598640748 0.4465968899621627 -0.04286426395661609 0.21635566601913578 -0.15406429646828482 -4.612656155231046E-4 -0.23226231012059304 0.46928986048382254 -0.24112882052584772 0.43365685526772224 -0.0820387258920451 0.00954806078494561 -0.39989296164525734 0.4 -0.5 -0.2 0.09999999999999998 -0.5 -0.5018597580119506 0.3960242012553893 0.3478845878291781 -0.40859712090517203 0.3171037967777018 0.48634362885443944 0.6264843152550039 -0.1407856036956877 0.6233544532662699 0.6453160691937305 -0.15328699178569732 0.1797930436528011 -0.057359356678129754 -0.280135831111197 -0.28462409867347355 0.3077637168372803 0.40165860944071685 -0.29999983065138486 0.20000036288988918 -0.30035411341795226 0.18254888871646271 -0.12222640910707659 0.0246945509761431 -0.4469642152940553 0.5136488229169586 -0.14281955419243014 -0.0743904057696461 -0.45111881242260954 -0.1951518691723248 0.1588338724326948 0.052700875810347624 0.2870100136284921 -0.19841743784084426 -0.08696822040633517 0.08157525500918962 0.09049719576522453 0.19924598257849696 0.10000007257797786 0.1994020674787344 -0.3055544351684226 -0.44808093578708 -0.16696185414060105 -0.15804747080791112 0.2563656979156725 -0.22180424372917226 -0.27222432271243957 0.42468863874809787 0.07248336394432148 0.1839717086122816 -0.629881955636567 -0.03671869758122957 0.12901433508014928 -0.5121449248428321 -0.16426497926426786 0.10445763957826286 -0.22989553990117742 -0.5024005363140335 0.5005593915295224 -0.19984737920004012 -0.3045788279023803 0.1215417876806947 0.3958272794417944 -0.5274974862236479 0.04090725838753782 0.15032495176690547 0.3625942287535534 0.20616748453017447 0.11607466543719751 -0.1035928574002012 -0.7481649732417548 -0.8727490988961637 -0.7113408187578567 -0.1654591828538883 -0.3264492241473978 -0.35773126503507346 -0.24882590992644663 0.49249696962939077 -0.49892260377485664 0.5016331363805967 -0.10855364933894837 0.45567270101121493 0.09910113613190237 0.13155432877299067 -0.05702438567106756 0.23594197006704876 0.1224851592666548 0.005599787167177956 0.23004771506512883 -0.26075873992821685 0.15038312847510873 -0.3969055141884805 0.0014637007623272292 -0.44639821069450125 -0.23953346206640658 -0.4586991640949615 0.01591822161756057 -0.5237271220994828 0.30045141674911235 0.10293402635773556 0.383503692253143 0.0724938895289945 0.37979952559259866 0.6366373378699854 -0.19894968451148143 -0.6785189695668256 -0.0788382658600466 0.03991660074146555 -0.14015735362755083 -0.5194358718152713 -0.5185455402884755 -0.1402510917737928 -0.249571928660438 -0.17199018752854742 -0.0927877106477693 -0.029474053048159664 0.18192162669590467 0.3598687899101932 -0.09983516696861018 -0.29789666600252535 -0.5103279835088619 0.04898851283943021 -0.19927484685037536 0.08902413936778497 0.06425081783906739 -0.6225346880969123 0.3827773399131728 0.20426052884017132 0.07894054836359021 -0.04105167203379416 -0.11226808663648712 -0.5608406798776842 -0.4134319280110462 0.1752200183996411 0.18528191001770383 -0.32218707974972793 0.03485951519473529 -0.42239495414553185 6.771805334779145E-6 -0.3024670917878298 0.2864445306598781 -0.06256352886249059 0.3228846559842429 -0.1803181974242349 0.038532467553310856 -0.07662339904129835 -0.7179950247263371 -0.3564070044975817 0.035435722774804425 -0.5919263063086508 -0.11396250965826732 -0.0628237961779891 0.3188608625650486 0.020132296942513662 -0.3474656170057512 0.3591729978637345 -0.28726056587238363 0.10150396661407451 0.4 0.19498855572732657 0.3916185887080357 -0.15680835304425986 0.5455104508309484 -0.15935012472633953 0.48505834628531475 0.0038935343603438144 -0.7069848101232924 -0.07211682428062302 0.16350160881367276 0.2107343182761153 -0.263800971751736 0.12036707913043124 -0.20335045948636418 0.45031457912276607 -0.4849015152571813 0.4299944396383019 -0.512249734084967 -0.09983760033110342 -0.5000354435191138 0.20031804404062503 -0.30941840357405725 0.4578290318828238 -0.013668550443752576 0.014974848986925426 0.4593866322143958 0.3710694506790933 0.18135414580648127 -0.1943999888353894 0.2540884105306688 0.14192450818486552 -0.7188054501228258 0.7130040375036418 0.24107805276810143 0.3416377424340994 0.34697085825529694 0.1441508403221997 0.3724801791962866 0.2942790737583902 -0.4 0.30127009813121197 -0.19955678676106345 0.1407484503505918 -0.17710701538187631 0.3317381708339708 0.058054333373505844 -0.0066561831150275304 0.2902765891354229 0.5655487994361434 -0.22874800156122096 -0.6257436601482803 -0.16094839338214528 0.3502003118517955 -0.08871485766529014 0.017614055410238756 0.35355484933774817 -0.38965760910116026 -0.41552481890031645 0.3942209599075444 2.9581636127713545E-4 0.30031611191480817 0.1971662201810256 -0.13088115478948825 0.2956674961520909 0.33002973898974797 0.12713503268208542 0.05123571493307288 -0.2098345747288279 0.384075983724792 -0.291226159457539 -0.14828456191283879 0.10422868192450986 0.34625536678458646 0.06296131227567081 -0.405696908673561 -0.010212642845667764 0.5176733980679965 0.5044971976583622 0.20028973619513843 -0.09980811911700938 0.294406167680581 0.4859558411028859 0.2803902929547823 0.00757513648371997 -0.6537827506047313 -0.011977658206108119 0.11505952133424834 0.10763533478231499 0.02331398817846205 0.48733030663967747 0.16978975971107654 0.09582878212776855 0.002927499455682039 -0.09590564021536832 -0.44759159916710595 -0.2667120030191701 0.09468441429935447 0.10023322084778337 0.19996991334038822 -0.2 0.2930872705565243 0.3000516000032678 0.1248047030926544 -0.05035897982953208 -0.09839713561714804 -0.33021409671024987 -0.0016210181908907406 -0.5090519444783609 -0.3615306634525308 -0.31516429709385607 0.06184200722710902 0.5140386288013965 -0.2648871471727596 -0.5565504026169238 -0.17075600920522307 -0.001211784696556084 0.10079312119796814 -0.49639113834641846 -0.0998440462647019 0.20000021773393345 -0.20311517869972723 0.09962835682627535 -0.18378701983052384 -0.09421330354624954 -0.5977643863520834 0.057027727055231466 0.3192252848489313 -0.7696728151191561 -0.4210985821760693 -0.10982062576906039 -0.4108704754582096 -0.18324656757251948 0.4846608939436199 0.12093818689986977 -0.04384245967963401 -0.21777597132989682 -0.29292065273205986 0.10953191958556278 -0.2999892390764593 0.09999999999999998 -0.2 -0.39864175843124056 0.30316528413161203 -0.2912169280718874 -0.10700870387262222 -0.25385210499534594 -0.675370959919835 -0.3146860590767309 0.11149146801620975 -0.052814811427414614 -0.4567193930653078 -0.2989045398516954 0.3243888741270318 0.19441737814030413 0.04141160442718611 -0.49167104486952795 0.503057734207771 -0.19995961778697777 0.5 -0.2 -0.4 -0.2000021020455908 -0.3000597847957304 0.500126411099381 -0.09742117247978882 0.19324401432438976 -0.5101835857612596 -0.29495235076908155 -0.3518627741639352 -0.1489781690294571 0.2728285036881219 0.5849532599310978 0.3197356492062048 -0.39488813902328507 0.13760253682728932 0.5115928499180491 0.5002274702053258 -0.1991610744763076 -0.3 -0.5 0.19999999999999996 -0.5 0.3001311509524188 -0.4997549963621321 -0.39888064568576825 0.5025559578638371 -0.19683438448378243 -0.08947185698582102 0.2202471014880341 -0.36469320370467345 -0.46757360146132093 -0.37005824404537424 0.026630127413024503 -0.2766237096902637 0.30965062241292163 0.5008520112164143 0.50014022027808 0.5 -0.3] [0.5317913588986817 0.4 0.5 -0.2 0.400002402057546 0.30001014202074844 0.20042523596495773 -0.2989347341860813 -0.19980396612085793 0.09753242428353927 -0.0028782846441317814 -0.5009501446712766 0.5000546812194262 -0.4003808505309418 0.39981419679793534 -6.351001926582718E-5 0.09999999999999998 -0.09999999999999998 -0.4 0.09999999999999998 0.4 0.09999999999999998 0 -0.2 0.2992026768924839 0.29820447185889387 -0.41029108390171704 0.2824454089773617 -0.3918728108076094 0.3121358839960472 -0.3022310970968969 -0.4919846059145919 0.4072747739312437 -0.12538940195932521 -0.11757746529158561 -0.11050831156689254 0.09097950605131735 0.09216402615705732 -0.5000017706114789 0.09999999999999998 -0.2 0.5 -0.3 -0.4 0.20495166020147396 0.3011198970221907 0.28615247598946025 -0.5168872256832573 -0.3738399736000334 0.43050044303384477 -0.34308769061821254 -0.3469447996829566 0.1335535267923815 -0.12101712845563549 -0.04371495940815939 -0.5079146131038531 -0.061534302097475145 0.06777702760829529 -0.20943122446455323 -0.009197582233414188 -0.0018664402436254994 -0.3999863653582795 0.5000292170894007 -0.20079069935422927 0.31168072532942226 -0.19887060209176063 -0.5477668685802433 0.48048391441765764 -0.44849436377695484 -0.2569344972975545 0.20327499494796428 0.15566885891787816 -0.6333679499117001 0.38268726521789453 -0.5514761383661023 0.08351625625258056 -0.4333391143022498 -0.25601179635440924 0.18724675305216462 -0.16487760938160775 0.3760243343916529 0.20000584341787986 6.393289845259546E-4 0.20883511565803284 -0.38745419566899614 0.1849207671993622 0.2829938318165372 0.0055775479555776495 -0.046156537737368906 -0.17128678238195233 -0.04844964785112128 0.0028155475931487383 -0.15709260158805408 -0.3064755679688283 -0.3370519947118821 0.1487122547624332 -0.1471676182496941 -0.34912639170432885 -0.23468628698393007 -0.5501903213455814 -0.42879547520343303 -0.20101666911776475 -0.3992962323096857 0.31582228921989847 -0.19109456893069982 0.509751046149771 0.21923995262030394 0.11474119611750082 -0.43774464924660156 -0.20487413476725125 -0.19161254648470605 -0.10968501702814193 0.11643662792980967 0.18671653533431062 0.18694202417691183 -0.37198933895810665 -0.05629654017790298 -0.1709821156278217 0.14586175244002528 -0.43670580218056493 0.0011447298575158148 0.39841934732547607 0.10251459821290348 -0.28942584878521116 0.42590612616490153 0.4916825099399008 0.05455865793374583 -0.45174404430136245 0.09576113906098917 -0.39846108657959656 -0.26030230393934733 -0.053285740061232906 1.1182394052734903 0.1879739494734241 0.2158500699019396 0.17286309594536875 -0.1605240998389072 0.13397281770078945 -0.1339622005751658 0.22276014589681983 -0.26090462265225445 -0.300666296368336 0.0016392814514615938 -0.21188678817714085 0.44870046302272903 -0.38435718463288954 -0.5201982392467279 -0.37971555457852363 0.07426298318903353 -0.04761264794985588 0.12359837082102652 0.7133431942026798 0.8749147157240649 0.007025035881444075 0.09559978820963286 0.1513411391730591 -0.26312849734971466 0.18259020903361436 0.043780067675867014 0.3727303760300346 -0.08499537994698839 -0.5004513551795391 0.002560457946327272 -0.3095949084855653 0.44011799630363707 0.26421971566817015 0.2809060307663924 0.21805083415274967 0.08190884259425926 -0.5338835003426012 -0.4420389097600489 0.5678486553200367 0.3651928378513273 -0.010696855422362374 0.18436392728125423 -0.43480789365347944 -0.2615310231539008 -0.6952484170269956 -0.5593866578993081 0.21734961211861228 0.0049350877915697155 -0.30035237275704413 -0.2947651755146464 0.2039780925643925 0.3927353773278111 -0.5067992192257066 0.1391156151266712 0.09421398641643912 -0.09477841694525357 -0.07109463401766225 0.4194750772875298 0.4993548315513739 -0.1924692542468312 0.007126931498857969 0.042591603220989156 -0.2806366676738404 -0.7337986669981862 0.30120395171941466 0.40583138046361084 -0.2032177750662855 -0.299432385363972 -0.3 0.10689162091969763 0.20231032552561867 -0.6175833601982961 -0.47130915277849056 -0.33317021809191044 0.3687913814927661 0.1544003443790661 -0.20945175270140204 0.046436106588976074 -0.14247999944167805 0.11323352500565581 -0.17066204917026342 -0.4779689227072571 -0.11761394201135603 -0.6797962797366341 0.08046135511355264 0.40347532313061973 0.49069655897411657 -0.29931342376200987 -0.1000000370234634 0.20825130093635927 0.1203866057986889 0.4747059987423415 0.38869719016188353 -0.3671917249816818 -0.20149224561562792 -0.08909687652766313 -0.44529555942580684 -0.08806749761137592 -0.08899923906653569 0.07577784021186747 -0.19921820620437744 -0.04841153195340561 0.26931818432417165 -0.5967410374150925 -0.3013913924784722 0.12559615646068156 0.12277848698386515 -0.2958881100622313 0.19999999999999996 0.21295483248738165 -0.15146420606145278 -0.11374485010437548 -0.20706045407900908 -0.27284658183173144 -1.1078868037952534 -1.2188204951451767 -0.6598030907399864 0.027921363177770303 0.07438067699544686 -0.2997170027053213 -0.19801685639276412 -0.3920603804282193 0.5865954884617189 -0.23801432292824928 0.3639168602738363 0.545266167907623 -0.26794550066113004 -0.09682649599415667 -0.0999822028858018 0.11464088853987046 -0.2031122537488056 -0.31676281332808476 0.5942446141136657 0.619470528317478 -0.8281323188930841 -0.12006168813977486 -0.42796709158497737 0.07634827245687942 0.38037876783013946 0.07545966639060647 -0.0025130129108983604 0.6364616693181796 -0.33349616912304597 0.19115550037622137 0.33020161916475044 0.325110866718118 0.12525189631287914 -0.39915298421768897 0.10001154407407456 -0.08312838701096781 0.2893622092901321 -0.13706933252812697 0.6093645209526005 0.13873379264237085 0.28625665034921427 -0.10829754582766048 -0.16459562487475424 0.3548475009994675 -0.13716855687057108 0.17218699508880722 0.11419042762982247 8.138347473436334E-4 -0.6325185174389103 0.19336822091217717 -0.35765908474352104 -0.07998387433831884 -0.2811522799180472 0.5019935569688299 -0.09999999999999998 0.4122811980789429 0.4756916126994789 0.6706518516579669 -0.20080903447337714 -0.03565151046748858 0.5555216276551465 0.16796940877174318 -0.39991354455330047 3.2224592277510674E-4 -0.012028977128540789 0.022405690524301317 -0.04801516062480057 -0.5893612710241206 0.30109509588924716 0.4639734711768487 0.5346612477231264 0.3167095567176779 -0.3944167130788353 0.5000196273786447 1.753025364049642E-5 0.4031627914263864 -0.26742276903455153 0.34471811313757833 0.3849131090641029 0.5851732482811078 0.6712607776050277 -0.11132297428757686 0.0403139074322689 -0.4766015729271766 0.2709291957792831 0.3508007251924497 0.057047959306195 -0.11197091459622467 -0.19939117428942557 0.3495160050548843 -0.20454257663583894 0.004753056253680355 -0.19956528428027637 0.3999978185000128 -0.09999999999999998 0 -0.4921316220546635 0.048548965643615466 -0.31376279561428927 0.43170107608123337 0.5254603490692732 0.10520872012229114 0.03897850458164979 -0.012536930558312459 0.4302876829051778 0.06706885408953095 -0.5533267793619273 -0.4649768513626931 0.03228358149363704 -0.23342963256021587 0.4847868446788072 0.19778501834777523 -0.10013507400845162 -0.3 -0.4 0 -0.2978313076871763 0.016626934038917764 -0.04658181680337862 -0.3858784890196154 -0.029488124158990943 0.5069427383173619 0.47143087124120214 0.3334473038575555 0.8032155393875662 -0.043976629237038746 0.03593134000544222 0.4599399772250696 0.21084101018571533 0.3802247347197107 -0.20316995735183666 -0.40116859623037227 2.793156808501613E-4 -0.09999999999999998 -0.4 0.30000000000000004 0.30000000000000004 -0.49912001884069596 -0.19594974275428062 -0.18745823161426167 -0.2764789985120358 -0.457318322869717 -0.42239780652916564 0.004397019475366773 -0.39503692076611135 -0.13957812060529554 0.03273936204174194 0.41387381467518686 0.29938657913418387 -0.4019112485022543 0.1997722539141274 -0.5002218395841226 0.30000000000000004 -0.4] [-0.9013735154568144 -0.4 0.4 0.19999999999999996 -0.39939488814824536 0.4025549167074088 -0.49620443976397244 -0.09325647571149641 0.20489959684499146 0.31459592344209353 0.016276558363589183 0.407088602093136 0.003490475870983024 -0.09957641827697292 -0.2997682266648272 -0.40000016050283016 -0.5 -0.3 -0.5 0.19999999999999996 -0.4 0 -0.5 -0.3 -0.09756918471438605 0.3075147251123451 -0.3877466365805015 -0.07266736281847212 0.1457457102538517 0.16394046537708892 -0.43610366519351995 -0.25207413178447297 0.3326245680576885 0.42130081824982757 -0.0786330460447304 0.013549949904099315 0.303782257225666 -0.3979831715402624 0.2000000000030679 0.4 -0.4 0 -0.5 -0.09999999999999998 0.10270357906103024 -0.3904541872745302 -0.2711033647903198 -0.43481366481825645 0.6114426219366191 -0.3225949373813438 -0.07622145449220928 0.5615867314833294 0.3471530282851834 0.5666045868988523 0.5639047486873766 -0.19071891287013912 -0.4843078833920734 -0.3132677513284215 0.19497630542859568 -4.5337852356938966E-5 -0.49997894000016146 0.29998397130802745 0.09996565280291655 -0.10127442061509825 0.46957055130502884 0.09006691554093342 -0.44136291085052204 -0.2965308520368721 -0.41895120389878293 0.7315803364816336 0.4059998933312184 0.408665129972201 0.31831338698669503 0.17409383603924625 0.039805154833049174 -0.22454396422148257 -0.16751852122548747 -0.19882751797923162 0.37530710063945105 -0.39652382284886795 0.0999605331574907 0.4999931305605833 0.29692800978928796 0.4840468180575182 0.10306077959756751 -0.4012710784010965 -0.43279566466823677 0.5134445159120673 -0.19919528252595356 -0.23862087597477838 0.8427011322809359 0.6680004825012477 -0.1548488433102237 0.11993489417559047 -0.572397706318375 0.03558294425180221 0.015204771566703948 0.2168783003730564 0.06626028772461638 0.009659436219021395 0.40254360826584945 -0.398787233456575 0.19358875975584744 -0.5319073077110639 0.29204862896437994 -0.02417810435603265 -0.21876046138432012 -0.4879675946093645 -0.06383871027123125 0.3514887056827196 0.9262416275748484 0.7628623635079664 0.31022159228286406 0.4744796872631923 -0.1625926551531829 -0.3414280179379091 0.26548823818574185 -0.19468770746674294 0.3501825095673891 -0.16416073178224702 0.30222527365445095 -0.4982172191142933 -0.003681565601398198 0.07091763501823703 0.10722505043875796 0.21071088297300897 -0.27373507472569536 0.19047515763390652 0.02592065148732424 0.9125264373157724 0.9368473728262735 0.42607525966895426 -0.3623265665178819 -0.16758987955903604 -0.08657748711121101 -0.17774286838173195 0.1939946072072992 -0.5478972562148715 0.00674751872294223 -0.17518522255471167 0.39782663928091455 0.09981175694349269 -0.20845343538439354 -0.41999327091555044 -0.08708419995189948 0.20403573293688695 -0.4768585549588507 -0.22160744061575172 0.7007077785574172 0.32155319929843457 0.5075834568073327 0.15049230245461684 0.1893402728740405 -0.2990748899306568 -0.22115046265689484 0.13083256225080828 0.06346902090096067 0.02445835044000508 0.33072925329636704 0.509746840074499 -0.09790523995784668 0.49926660618289387 0.19273310635413557 0.08835030190868184 0.22405225617020794 0.393792948353569 0.5461381593238634 0.27042349559440576 0.22163942523982663 0.1883787658006554 -0.39723420243392027 -0.5262289046681705 -0.08922975837611709 -0.6481789527000613 -0.07096592995573388 0.09800045261774655 0.6541186739193007 0.5880708398373422 -0.2353474444464819 0.02453390544928213 -0.29358375308982443 0.29961596129453716 -0.007486274265062921 -0.20579678154204747 0.3110813710181115 -0.6579399193634812 -0.3884483478415258 -0.09682642535097148 0.14795009500300133 -0.048470364376732716 -0.03165793132086549 0.16654795790138127 -0.4222701164053358 0.0424812446452724 0.058546308251352486 -0.2553091906453217 -0.41275351533513177 0.08370511600935762 -0.09929585992199248 0.014862478533256767 0.299850212000412 0.5 0.2932747979598643 0.09313758561356676 -0.1553793505575101 0.3075013731511682 0.26478888679736673 -0.02591613107661144 0.04877452685165388 0.10480072972172572 0.06538090540302928 -0.02587494102880752 -0.30260075943177367 -0.4005792925280179 0.3148433341093263 -0.06550065397626519 -0.4339066133260973 -0.1747304426749605 -0.45657633948326376 0.11845807157397792 -0.2948942282410784 -0.20000033354717986 0.4970141532360524 0.2853026109004448 -0.45004536100585824 0.14252890236128235 -0.4468507172072265 0.20400240674900372 0.3953286507670986 -0.02118193591858152 0.15942370091190042 -0.00999703322275711 -0.013051649595658767 0.19304320647676754 0.01971170587709237 -0.3073647379719388 0.37904692671377965 -0.3465564238536091 -0.27919278929097463 -0.43343801573356155 -0.2903205024308383 -0.5 -0.5055025432609013 0.1760386386882394 0.1757536720516536 0.4256867562786941 -0.001853406855852151 -0.3223883510841154 -0.1322454672799976 -0.18429627826013 -0.2752636885100872 0.24066005684484698 0.07276414441444118 0.07769061687104822 -0.204438028410704 0.07746386781437087 0.1408483300972115 0.163000106674406 -0.3677358690695562 -0.14278829898059903 -0.2921462949305795 0.3003627279239587 -0.10671875080425038 -0.22792930334284453 -0.34106502822640883 0.15229301753925686 -0.34933170224006305 0.38800119065793937 0.6603056108776819 0.14834589330006945 0.4902486651537096 -0.1896129763527223 0.42082007597912346 0.2646732589947456 0.41679822807004424 -0.20623927501359401 0.4823559724940833 0.23869426001573749 -0.17110676882547932 0.35029237362453064 0.10605960375004558 -0.09976471702229713 -0.3080904461941358 -0.13914990077213732 0.3215219206334558 -0.07402557300608757 -0.5988891153332859 0.5222137981073055 -0.21301118633030897 0.18706112362983776 0.08543977894251978 0.4209268736129139 0.2776243653565602 0.2995641035908684 0.3039378695229482 -0.13921072028559445 0.5673507596685641 0.05225015416280163 0.00746060097119649 -0.47335440458936306 0.20294490444241164 0 0.291790277844499 -0.5234252556448652 0.37369377181217983 -0.18259225371735252 0.2929913059373423 -0.11358494570438114 0.2580979410001116 0.08418413199617752 0.0866332978024541 0.2136241789166427 0.07206636043959212 0.09332618261176154 -0.2411570074977312 -0.341858290830977 -0.25152182013390884 0.006005395941870505 0.1617068937896274 -0.08779820616483762 4.368039731334946E-4 -2.0608318250019325E-5 -0.40081153109369105 -0.011472968486909367 0.34098289493356093 -0.38299579132255934 0.126760295243202 -0.3154548006290482 0.3706754400688227 0.07634826978689829 -0.14686994097212225 -0.0034236408672067985 -0.05893911203081659 0.2280075378198255 -0.33513134603152434 0.19315165551779767 0.317944238877012 -0.306397496626757 0.12625442177072557 0.012788673054786754 -0.09986155467440411 0.4 0.5 0.49722050577661714 -0.04793001280905603 0.2349545317255539 0.21282684744864078 -0.5370746695061759 0.30193954347674257 0.22521010001797923 -0.28034160268831626 -0.337476857934105 -0.39127015674388915 -0.16378167851175474 0.20829657303445467 -0.49278590441775655 -0.02851723109574331 0.38777759490723507 -0.2963089578444205 0.30058874809980735 0.19999999999999996 0.19999999999999996 0.4 0.3995365929077891 -0.3058673128511398 0.48327051718914416 0.07727614946376801 0.11711285774756369 -0.0022370550068466647 -0.11276906663513121 0.305843216556268 0.005575189760273163 0.12729057713764247 0.21279841642631914 -0.12829014309480086 -0.04071372165549381 -0.4665699295787411 0.30789571800753557 2.8801925587489233E-5 0.20008647185633452 -0.4 -0.2 -0.3 -0.4 0.5003146568871513 0.39936865930375226 0.5003155419536744 0.40520877178125947 0.5140229701929059 0.23780123455672755 -0.15362456843049363 -0.3631777701571158 0.3350159331850996 0.13532441875082346 -0.36941849848899466 0.11945430139810101 -0.08993513401769901 -0.2978696057011381 2.0306328442110296E-5 0.4 -0.2] [0.01643590194206138 -0.2 0.09999999999999998 0.5 0.2999527151595541 0.3998003528958955 -0.10021968088603427 -0.19956657953068352 -0.19729718990690157 -0.39177609652069795 0.30652311737207083 -0.0966499253689034 -0.0970660641534043 0.20163235571970353 0.3010559961953476 0.40035785761058523 -0.2 0.4 -0.09999999999999998 -0.3 -0.09999999999999998 -0.3 0.19999999999999996 -0.3 -0.4000625983329216 -0.10078336889934844 0.014240204643676794 0.13092879839445865 -0.17403351502132558 -0.16746036591964242 -0.1638902631849017 0.33798299918816077 0.04376751290836566 -0.04536149858676198 -0.1641461795148802 0.5244680905536219 0.30824655542269297 -0.49846244618174407 -0.29998486843514766 0.4 -0.2 0.5 0.09999999999999998 0.4 0.21921833427635976 -0.44852891909425585 0.29445719023591066 0.3715391758117988 -0.2485234686347971 0.5858172831351396 0.08858967365576184 0.2769956848728978 0.4544839691607914 0.16119969704788437 0.24662938889208266 -0.001272553843494102 -0.17453886368703334 -0.1840792567493678 0.2007245711896692 -0.2996190865217591 -0.09998609419676112 0.29999998784151505 -2.6053896561806348E-8 -0.10022428384905512 -0.10154353272836954 0.49806081937549723 0.3303237643934564 0.424854929216001 0.01586656596389064 0.2330396952548994 -0.3807271045400244 0.05518164555459155 0.5933067245072372 0.15553660904226022 0.5179094634815201 0.005677255576126224 -0.24655940252986133 -0.05219399247618912 0.029477415703569952 -0.21671417631523865 -0.006230333413440037 0.3999999947892206 -0.49938935299350284 0.38963127159244487 0.12970122821174312 0.03775649441422478 0.6053947136377081 0.45053457575803946 0.12382772382065983 0.2460151922490491 -0.21812933862798614 0.08575126015177698 -0.9325696355726004 0.14110265067124025 -0.33786201707242425 0.053688293912269695 -0.0321275983420158 0.38494306022777547 0.041795283929905135 0.249124754374179 0.20047965725382672 0.30053128565281667 -0.495579277071623 -0.10485551494722721 0.09232136653188396 0.032110791815939246 0.5592993811918793 0.22267316733068548 0.09170348261904246 0.06842033344942434 -1.0529556597197585 -0.2433939048228952 -1.0548847487254307 -0.2336226163086949 0.04327687811316242 0.10391169218580015 -0.14040212731462073 -0.3035516986911178 0.6069194870317427 -0.437907982771854 -0.0723373762445514 0.20394950842144885 -0.39106383646558646 0.5014794087742762 -0.5392161376926765 -0.07315089920060731 -0.08664562424396008 0.2581188870684294 -0.22260794239107337 0.03653436776017074 -0.714023219003952 -0.8757772082377919 -0.9586038071133156 -0.6275646693980216 -0.5537298983976312 -0.087274506267977 0.1736874945722016 -0.0058529826469218135 0.5408422572150434 0.1682376029401478 0.2502404493256495 0.10437728637847399 -0.4887444900616052 4.855040384752838E-4 -0.24431296253126147 0.3114493143563404 0.16848687437543916 0.3214164039331379 0.38736776547353174 0.0928860628570434 -0.09000947245795929 -0.09882256245559733 -0.24269188696591068 0.445497202755978 0.09857646180064035 0.5493474186119909 0.08136559865606083 0.6011863774906335 0.25268456384709975 0.60158053330404 -0.2707773732971088 0.0032325365287584357 -0.18911746446706257 -0.4058866091502793 -0.02344322429092531 0.21036326587024112 0.388027375228672 0.019711905905350238 0.4563269430450663 0.2875370974062607 -0.030429166453077208 -0.41298892664354686 -0.1435262773718715 0.5929313611376477 0.6715073791908858 0.24279569560520137 0.509303506445977 -0.12968876139641725 0.07775929275453572 0.2280975617270184 -0.3937096770670238 0.10184163244103284 0.4051593985772176 0.19751916868063388 0.3176029388940188 -0.37900758263585943 0.03184634119208546 0.15293453101740687 -0.025330034574397507 0.3595390037854211 0.006157004665754936 -0.3461954104057511 -0.672318122584478 0.35992665360204273 0.2901210323340604 0.412428925058369 -0.07116590228991945 -0.4128253423039003 0.43493185715392807 -0.4662681529271582 0.30580997760532 0 -0.29832525152377687 -0.3932632341430753 -0.3802990812363201 0.44088056469123554 0.2501128490423161 -0.021722576434464836 -0.2171370179208032 0.38249273903511893 -0.6552667834350688 0.0576802233579893 -0.3059891472138502 -0.27956231692578243 -0.02491361886169053 -0.4435180126710778 0.1025993649992355 -0.3773146665044879 0.12194799064951847 0.31026178786374004 -0.5010288040901522 0.19992659896538806 0.2994077477960101 0.29966132514976396 -0.2392028425215293 -0.09981731811669452 1.739519483065895E-4 0.2718628279708238 -0.30511796901641236 -0.72642991634117 0.2042011074302085 -0.15654463536406718 -0.24966877332165024 0.011203680693091748 -0.19391998455535758 0.6226543573441697 0.45898148340980033 -0.3600066673917262 -0.030179953896885756 -0.43111381141173616 0.08882077024896472 0.19999999999999996 0.3973626363244855 0.2817152304788565 0.45016167336168983 -0.33117237012475714 -0.2194850746805138 -0.5653634191927783 0.28426951114420584 -0.4793348393466574 -0.12224679589524962 -0.4207536352684302 -0.30308680905542024 -0.3684796670014531 0.36015310933542893 -0.049524471374851664 0.014172996487368953 0.5867124681393857 0.4098066561698787 0.36561464042009634 0.38874272446038016 -0.2996493724953646 0.39833983948135127 -0.11067979676347198 0.45423477798769296 0.05537379168251964 -0.3734350106986746 0.12282293247093762 -0.03345640091954968 -0.07704523480424119 0.3768051574847631 0.1388126208001486 -0.255037246195951 -0.3455183887497839 0.5298472063832095 0.1807899194827025 0.3543317952689671 -0.4702031528512981 -0.5280633582916171 -0.5181296513494703 -0.3033533310417801 2.2743405706068104E-4 -0.26386567818918466 -0.05050557689306882 0.0912425721043584 -0.2935636386592248 -0.17269023592695304 0.2102593524523606 0.013266235479883745 0.08469380758722819 0.42432779271831994 -0.218535223963892 -0.5602480070799079 -0.26568312682968237 0.05369127367556139 -0.1345565574105526 0.30645918601661976 -0.37083358306758796 0.43449808794349515 0.38491287261925416 0.29683499564239596 -0.2 0.4428974380975488 -0.3509567521756458 0.452484804562517 0.17066380226074213 -0.06717278498801844 -0.4572274628414863 -0.06218035496096909 -0.23529861999494636 -0.3296891721492991 0.3180664446360017 -0.20038085939724098 -0.24856433246646625 0.17531895895153804 -0.32139141431671614 0.06111693087786193 0.3640651089508753 0.3384091862329311 0.18984549314299648 -0.3000053624849147 0.19999998436766211 0.11720193732922274 -0.3655842526544504 -0.5254473492603456 -0.4203805739662667 -0.6408669187104789 -0.31890958740176434 -0.46737146110152594 -0.4327877769876141 -0.3509026789465229 -0.25252875706463596 -0.4678071339839597 0.13949359480624884 0.06865578635634165 0.4531492887458571 -0.05101972664519189 0.013312478216486482 0.16809381219982114 -0.014068007690767633 0.20001489427128535 -0.09999999999999998 0.09999999999999998 -0.0014303564245866805 0.38795086633557524 -0.24778756458690634 -0.34556623512143975 -0.22665677693053293 -0.5365739349088733 0.127370481127453 0.2869002366346758 -0.3910549646282724 0.038059351590643505 0.1453234696827787 -0.5281108185913205 0.2852576737238495 0.23853965540773014 0.3601696159146261 0.09207953280881806 0.2999921212967039 0.4 -0.09999999999999998 -0.09999999999999998 -2.890952176145054E-4 0.49284563029001055 0.18198761136360042 0.1593617245866794 0.2763332566900668 -0.5094946056049525 -0.375358927461488 -0.13098226210953906 0.3164487568603844 -0.42138758629972495 -0.4941631468500319 -0.35042002384377124 0.06336930429251336 -0.38762269650544434 0.17100761234644368 0.49425974669052736 -6.3210140954456665E-6 -0.3 -0.3 -0.4 0 -0.20302044144099235 -0.10724006529686025 0.4886263557385393 0.5004197506192066 0.30811000064533994 -0.3782918157162565 0.33242842060753597 -0.36682273619370254 -0.38612602862848827 0.29479157920807997 0.07431417853964535 0.46588278154796764 0.08245533081431809 0.09737015723903003 0.3999001406538863 -0.5 -0.4] [0.718064337628453 -0.09999999999999998 0.09999999999999998 0 -0.29999999855277354 6.110512159237807E-9 0.20000009608558464 0.20000569253034053 0.20003446436973416 -0.4012029011641963 -0.201413325599489 -0.5002286979779332 -0.3002144894242978 0.3987438276421281 0.1985516524660275 0.09922243405779653 0.30000000000000004 -0.3 -0.5 -0.2 0.5 0.4 -0.5 0.5 -0.10000039633080714 0.49805198007629237 -0.3031353665176898 -0.3028568639252397 0.09634217026982188 0.06304934309334838 0.04656628714322584 0.35864817236293167 -0.32118800326479985 0.0728469632570067 0.18695788104485098 -0.4033191524754394 -0.20898210367328454 0.3903603168012486 -0.3002802777821821 -0.5 0.5 0.09999999999999998 0.30000000000000004 -0.4 -0.48678036502683264 -0.18927298502568876 -0.10802770106262694 0.010039376573995933 0.1393152230065451 -0.3753940274249953 0.1484382509992391 -0.3728889201156299 -0.3635511198976492 -0.021752178313596906 -0.354840554414991 -0.461363946126509 0.4683320784837429 -0.21927634825982956 0.28612414953188603 0.18933829518375112 0.09702762517533714 -0.4999565990927717 -0.2999069980559399 -0.09975649923857427 -0.0022102268630575417 -0.5265802292711607 -0.5641489047436777 0.14143188389122086 -0.568345926368392 -0.6122927486789218 0.11126950402675008 -0.052866120009677026 0.21936539566544788 -0.07060869013167899 0.07020843720236097 -0.07067937023283861 -0.0980156666545018 0.5964266676151715 0.23657662842732693 0.1885827239704256 -0.010574503510399829 -0.39998139961118784 -0.3998333887339639 0.10810614555859416 0.38091062108659474 -0.544164409483695 0.25500658365411055 0.2179420172117568 -0.011037989778364031 -0.23138147225044667 -0.5769164138403152 -0.16707769522529556 -0.11617780681637883 -0.568175285696571 -0.19457606666783583 0.004042324433811125 0.4404578976665651 0.3035593757561873 0.11995857640891569 -0.34879004648275663 0.09333103599949204 0.4004783781755603 -0.19385382019051278 -0.0627362760356112 0.2267353292109204 0.5663443572869704 0.06871767734564233 0.009608543341764895 0.1999949706108037 0.2815288995582258 0.020352795164955074 -0.0932449880185935 0.12105024687321245 0.34861231284089084 0.22124944077047856 0.16438276958170084 0.03946443467536093 0.9013940845921181 0.36580316646882854 0.5107074848470254 -0.06065378977040727 -0.497302032561652 -0.38449921802867965 -0.3433715369433176 -0.15562128480755236 0.07525027701049639 -0.3174663512827073 -0.4767822578771935 0.092377280258126 -0.10230754275259187 0.19253493077891332 0.3467921204500412 0.4976580678550705 0.2791196701779208 0.37534431734445767 -0.3923023554099194 0.1426183539828041 0.9940830134094046 0.3242086553670122 -0.20363573606628557 -0.22949984298655893 -0.09782791631375802 -0.08648825035021616 -0.22973056984573356 0.20263409819169337 0.17859286697503973 0.1722483374101191 0.21578952812966135 0.2552241585138883 0.5351649683227103 0.5852360328353365 0.5726840679076765 0.6236641062937865 -0.19670883544248852 0.25085988629052963 0.05678100377652679 0.3919854447868359 0.2470586852062107 0.4711782146021139 -0.29371220522195735 -0.1419154722862491 -0.29881857779302884 0.30704489401974344 -0.37260650656397415 0.08732619006262968 0.45309366353292946 0.006159247732592346 0.3927308428071416 0.0635697557379709 0.28325979591957756 0.3997678180456325 -0.1936967447661948 -0.6783855198406699 -0.5384766261366672 -0.4123422490473358 -0.4086765178157788 -0.3654785378924512 0.001157817392525973 -0.2767856039479886 0.5723655384484664 -0.07821893317116882 -0.4994600759235417 -0.18234023411029338 0.4363096155495069 -0.023064996185765088 -0.06527379602263955 0.012281674010453412 0.1425958138150996 0.1745123664864084 0.03750068885942511 -0.7790658912345649 -0.5351348757252848 -0.5201713415099634 -0.170494030084499 -0.07105028701021007 -0.4861514516942755 -0.4596779588153277 -0.5600418986728303 -0.05730349632854111 0.3299629496507636 0.10225759136060071 0 0.41869368819512537 -0.1864405933856435 -0.21436470429647914 -0.20025888438638373 -0.13858388340649427 -0.15542777944919992 -0.5875710048748066 -0.8304159777262643 -0.8801436162139593 -1.637102639182917 -0.4398927406553597 -0.23669124767515662 -0.28266344019166756 -0.3128693519621108 -0.141261911916892 -0.42403498463565364 0.4623039117413441 0.005278957041722341 -0.4000300720850949 -0.39999357582084066 -0.1987698825879208 0.5057029091014489 -0.2865064490908639 0.09016467171228802 -0.2878675651675506 -0.7886868053754036 -0.6780308464490801 -1.5928131167709585 -1.4915154381742952 -1.013548850043348 -0.037661392044053575 -0.28222147155340255 0.258324790982875 0.4831001424567851 0.668459305771205 0.024199327453909913 -0.1785534767688111 0.32586971359774175 0.4001688758489182 -0.2 -0.29887586645215863 -0.10347718589342457 -0.4314267868643299 0.10263703998773199 -0.5747871519117826 -0.9843664672802923 -1.0384538639544434 -1.2146357795617535 -1.0075101630750092 -0.8764079905197162 -0.0636446164254472 -0.15194218749520086 0.059494134505100896 0.3733313714371213 0.43850494973724913 -0.2411026804606667 0.33030294905326146 0.4283949534307342 -0.10084924805551984 -0.40000459716682907 0.003283538089241353 -0.4658947147122576 0.59623816413011 0.04827359312875413 -0.11755839514750949 -0.3391328253360207 0.21938321244299755 -0.03199957136258902 -0.885427737193664 0.24517649504954955 -0.1399606147451761 0.4312065906404681 0.30138545689806456 -0.18358844290473159 0.458765398907382 0.1365367012702187 0.11400444968435819 -0.5196230208765592 -0.5044349095877881 -0.5000029819460514 0.31258711174057946 0.561754521413973 -0.3334547546220489 -0.12085946774657473 0.6353141745829313 -0.013729036359626304 0.34462784722358164 0.26894754614191 0.01726563084720647 0.2983313877051059 0.2510246012264804 0.3385092706611671 0.006170837598183513 0.16576213640392867 0.38106147946728114 -0.22973115887943235 -0.04486224244177486 0.08157201484212888 -0.003953945304861608 0.5 -0.2854995230521494 0.41791740653091 -0.4281173142486951 0.20595962469658033 0.24306234259587697 0.1466206839951743 0.2360138178410141 0.2477043405234139 0.23109368338873645 0.24885328676411606 0.24434550516495332 0.0886186459693433 0.5438053082559106 -0.5994670296856419 0.19880972725625293 -0.6241593379461863 0.30693671834694636 0.4929138338267012 -0.20010174073730172 -0.09994419883356392 0.10532222532856178 -0.09119962397012445 -0.4504490195725375 0.3103628189914561 0.8324020755308528 0.3180044244967439 0.4219386616282965 0.4155606287384336 0.1563352818000114 0.3643604150483715 0.1155332510018659 0.1357754455206598 0.37923992581506766 0.31590661297997485 -0.09814144650294246 0.4215171656662421 -0.04296773483214594 0.09107043097996503 0.4999473488591988 -0.4 0.5 -0.5069058156576539 0.31919622288754 0.1793298132751793 0.22279753695625756 0.12731736945514663 0.25847257130425805 0.1016315584735616 0.028889268420534672 0.22611384633464235 0.07682440658635793 -0.338756352270839 -0.010177089027058184 -0.4744534308604462 0.05564978952082512 -0.024989573713826523 -0.10176329174664922 0.39999594733040966 -0.2 -0.5 0.4 -0.3998790506098148 0.03141763624738 -0.10210687596671338 0.5788128191527792 0.07674366605270681 0.34441856333117044 -0.10909056535177795 -0.026429893391674605 0.5088276947137537 0.10983442069923993 0.5164999564865969 -0.27491266391362457 -0.15554010891082778 -0.40208993192270065 0.47681672143441406 -0.31085972426412106 0.4000004189594027 0 -0.3 -0.4 -0.09999999999999998 -0.09092597137245972 -0.17422500337132749 -0.1723176562700215 -0.15982206727595405 -0.0626712255483834 0.46656960201411496 0.6398731835043251 0.4828922067125394 0.013230871941833753 -0.1427680226857043 0.12081575428889486 0.28647250007866487 0.4810799433383828 0.39415036674824977 0.498924319772213 0.09999999999999998 -0.3] [0.22547358307078996 0.09999999999999998 -0.2 0.4 0.4999999134780487 -0.400000365314905 0.39978660460249427 -0.30054919609240865 0.19968996060001476 -0.006361615242877855 -0.20829137408816065 -0.3030355679769971 0.39884894299539864 0.3988715176430675 0.2984708608512826 -0.3004654183282496 -0.2 -0.4 -0.09999999999999998 -0.3 -0.2 0 0.30000000000000004 0.30000000000000004 -7.246103216435986E-6 -0.3983918730519658 -0.10351985213504943 -0.12314373451108787 -0.12829253970256912 0.0746685840645844 0.17708368051798618 -0.027879557487570362 -0.422359954328836 0.28468177775229886 -0.531264180698561 -0.3322984139723887 0.48746678263650917 0.09431169231329213 0.0997118027612984 0 -0.2 -0.2 0.19999999999999996 -0.5 -0.5095743609774188 -0.016408661049438812 -0.14428949456302337 -0.49297902029136564 -0.41684052151560413 0.29813342550851707 0.30388616561750026 0.4370200588218882 -0.39353141141449915 0.3676893216871042 -0.14623024955338845 -0.036556971833857206 0.1537321153435778 -0.4241741749206323 -0.010065521012661127 -0.00235424083247155 0.10005601376320189 0.1999904655036033 -0.10002043106370741 2.3742918176639782E-4 0.5064402396117595 0.4187998269896935 -0.41261237275746115 0.2082694736011279 0.24838582751723812 -0.1843679250113505 -0.029867475229334896 -0.13428755610723916 0.16167279536217083 -0.17164986833458323 -0.4006492199274583 0.13106911385952222 0.011844254146928093 0.34341981626633683 -0.5281926682953639 0.31182523014483754 -0.29366327264195013 -0.3000040862127417 0.2981962742578128 0.499536486079147 -0.26214843723966796 0.5537102041388697 -0.4980994825940934 -0.6144529526751428 -0.5312631400605707 0.32038629036058824 -0.3924874799270248 0.25400193721476594 0.002045651291320538 -0.26423707711767547 -0.20696801735828474 0.22720813256010558 -0.3220597649135574 -0.00441513544778708 0.06423969892302155 -0.31395521430197104 -0.4959016033239996 0.1997986423945727 -0.005541478658431035 0.1930864597993016 0.29387767102559903 0.3644755420846811 -0.3783664385242495 -0.12485038941909327 -0.2805627745943534 0.3376300230536561 -0.5789449554399162 0.2974141400218755 0.5664762785505912 -0.13477823772652214 0.23720743776633976 0.2051889867378034 0.34310304868034835 0.2776021113101286 0.22622687305313685 -0.10548872956570812 0.4941462497080009 0.0994092867496693 0.1945174748875813 -0.11098136257420387 0.4428513814541922 0.13198406140677327 0.43532968598739835 -0.3261539510649314 -0.19032859041376085 0.7020588881148686 -0.1813315741203986 0.5214271330482043 0.47458327853059645 0.4503753242166031 0.33270999752928315 0.1420839866933326 0.5476272036309153 -0.21083617924573742 0.08011276917865932 0.16197960478283532 -0.5075215164747048 0.29981682548399896 0.2949488222735567 0.27086424465636433 -0.05524482615056521 0.34462928768452 -0.2727333955395897 0.23676277035071394 -0.3622648998591751 0.04221650131479348 0.12897770113849344 0.10420858135498269 0.5010100356890184 -0.21410840686542396 0.10246396603723791 -0.17911902774346034 -0.0017921629848303838 -0.010434430870347462 -0.5822459543902442 0.07818708961750984 0.10028340342907706 -0.10014320987955176 -0.30503565007167743 -0.09894601798846898 -0.3861061928817658 0.24316637588835435 -0.2507912795972517 0.27012689505917215 0.562398162466257 0.4738059344714168 -0.24928593512462877 -0.10000206147707426 -0.01911149184229837 0.4585118185050488 0.6356733831761087 0.5057337427438563 -0.4971527632535071 0.041447563611970654 -0.15576766155172408 -0.22190962533023234 -0.20749092479719486 -0.40008914811731927 0.19733323498186067 -0.19421378682800475 0.5505598474113428 0.6374331878470401 0.12391246351436812 0.5636574864015458 0.2467767494549049 0.01399862857972246 0.11121065182683622 -0.3552613354768096 -0.41240655063404563 -0.5828944616430441 0.02536751216229629 0.44230958590446573 0.5987272189928958 -0.01858542413318219 0.3331979902734202 -0.21977746855361704 -0.003938935617726648 -0.4 0.3977148935436318 -0.5014174086096735 0.01870666829245445 -0.4496346055371608 0.11144935190922449 0.6872442966596897 0.3425603528439472 0.3261914333159195 0.5878218068451804 -0.28320599303435656 -0.7979751009046087 -0.1865160079693201 -0.3856478486813569 -0.6880510512675916 -0.14704196084319326 0.4782134590964813 -0.2741063344854778 -0.4989460767205571 -0.3052976060756381 -0.29985227791378105 -0.5012315565730543 0.49743263288739925 -0.4297727208383828 0.5031148755698214 0.4769912868161227 -0.06401210731316939 -0.6259604222734272 0.2031391903542392 0.4895683372616979 -0.11909703944486613 -0.5486674492853411 -0.4085739734289106 0.04383713448748429 -0.2648948758829054 -0.2892057435456546 0.004660007309931534 -0.35975967498309813 0.4869318370555856 0.19808767684808437 0.30000000000000004 0.2988685439095679 0.08663513439638608 -0.3601610914528294 -0.28072130897967207 -0.4273751118147795 0.20849866185884358 0.44123262190037593 0.4700137507246199 -0.0445672887727476 -0.21448763857416217 0.2901556933473914 -0.19914562505211728 0.2727093552305029 -0.0658982003447178 -0.2439756195333018 -0.3315751704650376 0.32659991030770535 -0.5087118081138654 -2.479461238712756E-4 -0.5006065057549706 0.39903362000575493 -0.3237548292931479 0.25009803795289226 0.0848264704153675 0.2645719069675688 -0.4071872262986485 -0.23540666882590827 -0.5164559898593353 -0.21157568598745033 -0.641241824955256 0.2729841262913295 -0.15516009538717263 0.4984416612487626 -0.5174858574938224 0.3144433304694981 -0.34049886079182545 0.08582006897740309 0.38871551303635277 0.29601274717815323 -0.1003934091383588 -0.11166285714082522 0.41517522410159685 0.08530914985035623 -0.3348899737515582 -0.009117204194993246 -0.44926108419556354 -0.5370027411805207 -0.5955999443265582 0.12224375222770717 0.24266218180632892 -0.5907190237882606 -0.3572996411417824 0.2897993792539607 -0.24529367624976559 -0.11813158010151566 0.21819265831856394 0.38868142190584276 -0.4057756182567868 -0.0017654344483548552 -0.3 -0.5137414932035882 0.1763626515460898 0.1277513375477716 0.10694400713292097 0.15935034103964846 0.1395296982861906 0.12956094765281634 0.19941463185520458 -0.20949589172809885 0.09095076272340699 0.30419171398695005 0.401251445549609 -0.40050506335486064 -0.4406774234426224 0.14432144995138638 0.3689057901438685 -0.40869794121945546 0.3987738780944906 0.19927073696653136 0.09998774136177559 0.4940960153620737 -0.11087374133808797 0.4765358064047391 -0.08837810358537149 -0.4421115269342754 0.41768426434833694 0.5626464359266382 0.6546372042097706 0.3736777658460371 0.4524716504402118 0.24410008927641097 -0.0843191771427042 0.2591592299872855 0.5646609560197224 -0.08931744675768806 -0.006876055616990456 0.19746645180830966 -0.20437056943204368 -0.10021386563065311 0.30000000000000004 -0.2 0.20100804308356682 -0.30344235388845436 -0.013680351656157982 0.4645227361198178 0.14360635189213092 -0.3376132094955024 